{
  "architecture": "49->64->32->32",
  "layers": [
    {
      "input_size": 49,
      "output_size": 64,
      "activation": "relu",
      "weights": [
        [
          0.02841853497403554,
          -0.28981310541168703,
          0.10011896536889883,
          0.12351536713937811,
          0.12713202560173764,
          -0.0681121825402556,
          -0.13684228371846988,
          -0.04321674667418867,
          0.28055291031906304,
          -0.03106226966001849,
          -0.1528947450185859,
          -0.2053840531374833,
          0.026144267283725445,
          -0.16830106609677076,
          -0.38072002534768745,
          -0.07358071430153748,
          0.28678760589681035,
          0.14167968345815907,
          0.3037285240208656,
          -0.07033459573148165,
          0.0078008021079336645,
          0.10400375427538465,
          -0.009280824682930044,
          0.17780980441406943,
          -0.04161240744750497,
          -0.05855097819540682,
          -0.026089460092294774,
          -0.12765147383182118,
          -0.16480056014871627,
          -0.18539497979114888,
          -0.25062063109919847,
          -0.03851783451138145,
          0.06691495126254415,
          0.15152963275121262,
          0.07281833190418724,
          0.04733702288830509,
          0.1783044475754733,
          0.05322710127586938,
          0.04552067225897462,
          -0.08892978469036829,
          -0.30061177645170534,
          0.1183049379637897,
          -0.06655650360912622,
          -0.41760262299742834,
          -0.09004161165536763,
          -0.21908457042187776,
          -0.0018337949445329986,
          0.028330465069121537,
          -0.08222255128612307
        ],
        [
          0.021256194572273013,
          0.008480457035496118,
          0.14282106123781022,
          0.01810658532634832,
          0.08087118859633698,
          -0.04809165300270747,
          0.015856523554885107,
          0.27747967285066333,
          0.10615641337705133,
          -0.10075701116341453,
          -0.15908147493981292,
          -0.004836331153621614,
          -0.16040850797603076,
          -0.11453623733789235,
          -0.1362314814401502,
          0.0984888683890723,
          -0.15401885655056025,
          0.03151899176541856,
          -0.09992816959741237,
          0.2962255184608487,
          -0.013446367633632517,
          0.03361551394717958,
          0.19522522562082972,
          -0.14881513371940105,
          -0.07426371590554147,
          0.046803746372177726,
          0.09582309061969373,
          0.11212838693390113,
          0.08604286827067874,
          0.0874720150168731,
          0.0263424453097453,
          -0.07015167511270452,
          -0.09693034367737999,
          -0.11051369992984701,
          0.02455719004954447,
          0.08149897252821964,
          0.11233009888694365,
          -0.08370081843591329,
          -0.11253911341577362,
          -0.050587025095152054,
          -0.038013342425026284,
          0.11696016101819544,
          0.14925859683369103,
          -0.13781252157009374,
          -0.2945708610277103,
          0.13101703974219064,
          0.14979836947722722,
          -0.11037461162768758,
          -0.04584991586002456
        ],
        [
          0.17047019345367317,
          -0.005236544354279812,
          0.18192805646483168,
          0.13044781438842531,
          0.18274571235024187,
          -0.26863571934622477,
          -0.07225307796961995,
          -0.04737658485001061,
          -0.05114671960786485,
          0.042222831964723456,
          0.21017400783952186,
          -0.2972235130675386,
          0.07931256635302347,
          0.11587583132803338,
          -0.19698617928999146,
          -0.06559182446650472,
          0.061363604666516344,
          0.20062696670153374,
          -0.16391450893499468,
          -0.07808710872179271,
          -0.149016696074097,
          -0.110908357394644,
          -0.09222463147982798,
          -0.21358840704848328,
          -0.11270689578875229,
          0.05420874679550397,
          0.14626614631344925,
          0.0417378168929987,
          -0.15295062493134554,
          -0.19634204121042526,
          0.12743938786795664,
          0.027529293710915583,
          0.03666505251481153,
          -0.14753616652542756,
          -0.004494172404808607,
          0.14977616398939225,
          -0.14710114542003447,
          -0.18718546568282896,
          0.02272775729192277,
          0.05812809065318716,
          -0.0023054426992204368,
          0.018930579774220323,
          -0.02009553879362824,
          -0.04589164952554351,
          0.1281506696330441,
          -0.03441724301596171,
          0.10814072859612321,
          -0.046903712944308465,
          -0.2428171504865891
        ],
        [
          -0.002288417967920625,
          -0.008256164269350386,
          -0.0755650483118132,
          0.12700893535071245,
          0.01635929885543952,
          0.1257132939679857,
          -0.1209951278076412,
          0.11771918550342231,
          -0.0951678940535253,
          0.01156374010528772,
          -0.17118050266514423,
          -0.058803599735727526,
          -0.08633809516858944,
          0.19508360258243757,
          -0.10186736379604625,
          0.10117917819089184,
          0.32137670359583104,
          0.14924215442916858,
          0.0706979574927807,
          0.005894547823011616,
          0.11821734367751757,
          0.02947404162666491,
          -0.04998923464748554,
          -0.17798982632188518,
          0.06740930861414646,
          0.034650978610132825,
          0.32089307110829224,
          -0.09040177517535528,
          -0.010417436790617431,
          -0.1604462320667295,
          0.06902257362250805,
          -0.15595300749096958,
          0.09918022506384733,
          -0.10660457363150426,
          -0.1411690431404421,
          -0.040663323116853105,
          0.017511964167327816,
          -0.0015089464454167776,
          0.13227895404649181,
          -0.000167835265338254,
          0.16635558807191725,
          -0.4199245779073202,
          -0.03746405691700269,
          0.22154685686575373,
          -0.10408772404085627,
          -0.1504165027289547,
          0.2342927901266126,
          0.21155694307710232,
          -0.0730757214882279
        ],
        [
          0.018525199509050724,
          -0.013416020990818919,
          -0.1297019225125568,
          -0.07179257135565449,
          -0.1630611913901618,
          -0.27144281046622815,
          0.19168792554595407,
          -0.11305358119947406,
          0.18987055474137504,
          -0.039935371845817746,
          0.015155555545337006,
          0.13135282334484444,
          0.12233910409555072,
          0.1763434889029339,
          -0.007268106482914537,
          0.011146508277828624,
          0.17949985851115405,
          -0.06926416443396619,
          -0.20960694239813918,
          0.2801379451531754,
          0.045924937200497576,
          0.04280335369324066,
          0.006288557928831319,
          -0.08634233338519212,
          -0.029237256366662103,
          -0.1548783903416412,
          0.05586515259861071,
          -0.06303737627427936,
          0.09656045836381884,
          0.12561487995410534,
          0.27955480621542916,
          0.07354936172964471,
          -0.09284719907932057,
          0.06747636224086004,
          -0.2812459094750972,
          -0.07429084316726083,
          -0.0440409881770735,
          -0.10612259945088696,
          -0.08907128960095477,
          -0.09791422978273258,
          0.060909265550443334,
          -0.04881914571367444,
          0.0664516551364276,
          -0.31910957599259426,
          -0.08154512642385202,
          -0.05040830985990171,
          0.011782304132006937,
          0.06593642998341219,
          0.061326657506160294
        ],
        [
          -0.011364642487228958,
          0.043058346509726036,
          0.2433071982761708,
          0.2098985010451017,
          -0.07042142058770831,
          0.15248022618840454,
          -0.04308861868092465,
          0.1814985366993655,
          -0.04378920090152229,
          -0.0013726483789049204,
          0.18900042870161393,
          -0.055276271304043355,
          -0.11610740814277061,
          0.14988907117519937,
          0.02465840858348585,
          0.02139937110588542,
          0.020985104514260024,
          0.2275505887653765,
          -0.1667123325981407,
          -0.01630205538153136,
          -0.036792269255620104,
          0.017772193503553253,
          -0.10372442184965477,
          0.2679019000566552,
          0.017414089354280165,
          0.08321526008220022,
          -0.2852411787127329,
          0.08828035397209509,
          -0.0562315560030329,
          -0.37424904079323584,
          -0.11769085221277993,
          -0.06284476380320203,
          -0.051585557988127084,
          0.09520945447797845,
          0.08080331488830415,
          0.011216471457312742,
          0.04178627813638139,
          0.1559575640145509,
          0.020130300413079665,
          -0.12136483523620109,
          0.039889943746423226,
          0.07793187480898287,
          0.07032231275841529,
          -0.1819815227024897,
          -0.09024657663656631,
          -0.0634521167272893,
          -0.11973288944581365,
          0.13035440805144857,
          -0.11136979466212363
        ],
        [
          0.017213636736032364,
          0.11163391353424926,
          -0.19740267158623492,
          0.07179963254043155,
          -0.01357378385592607,
          0.0455239453991989,
          -0.35111934695062835,
          -0.08292523761378535,
          0.03866484776962049,
          -0.061636276865704706,
          -0.07115023675541986,
          -0.046535270626017165,
          0.04546136707014755,
          -0.10771959679540198,
          -0.09864160068728053,
          0.32810371852869336,
          0.1289454847570165,
          -0.012692276113384715,
          -0.03270650145156351,
          -0.09347925632984601,
          0.07328504444141769,
          0.3150504694146695,
          -0.09392401384198357,
          -0.10539068755705638,
          0.25593749201057364,
          0.04763629408230786,
          -0.14645162368073375,
          0.23415360038031766,
          -0.034594294797334724,
          0.21993372655829213,
          0.2427094931053915,
          -0.0608910608123176,
          0.06874635299665582,
          -0.0019635050979605203,
          -0.06703709606629678,
          0.000688859149409666,
          0.00664140518261433,
          -0.06569195558208576,
          -0.008928731126719658,
          -0.11882885536036791,
          -0.0662104213812415,
          -0.07363270321199378,
          0.16147346564387263,
          0.12221904793213259,
          -0.003903747666218552,
          0.019186763599248428,
          -0.38486953056587264,
          0.16065315567047575,
          -0.07842630535787987
        ],
        [
          -0.04649867231555498,
          -0.10940450695085366,
          0.02142952596063018,
          0.010611376976873248,
          -0.11488034803851889,
          9.05125716110275e-05,
          0.12038524054857908,
          0.03950126451843281,
          0.09288209245744718,
          0.2822514910434848,
          -0.1653946618798683,
          0.10540651638897985,
          0.044804961030951676,
          -0.10576920969566794,
          0.1367460263817959,
          -0.18285775588695252,
          0.12317508450393917,
          -0.0025357219612581715,
          0.19458180035090256,
          -0.3791030201779607,
          -0.020413441659569476,
          0.21338679838001248,
          0.11706059948270202,
          0.019683380858494765,
          0.033841887241175365,
          -0.033204807536173636,
          -0.2959473853220571,
          0.1277082410631755,
          -0.03197440984692611,
          0.14685047876981822,
          -0.27782337187256695,
          0.012166447155298897,
          -0.27491852849250215,
          0.057913897826690354,
          -0.3108498165232427,
          0.12150311886272713,
          -0.07563855483436947,
          0.015091044491056185,
          0.033181116746991715,
          0.023542758037013813,
          0.021129491932841762,
          0.1713524503997061,
          0.19661400638230242,
          -0.057369016276045716,
          -0.03828343973811512,
          -0.2318237133768061,
          -0.08015369662288609,
          -0.1937433804335132,
          -0.11103364776104399
        ],
        [
          0.11851353800632265,
          0.12851724984076376,
          -0.09753833222871416,
          0.08527905433117591,
          -0.021552029701055898,
          -0.07252749061149216,
          -0.11175336361597904,
          -0.006041769149104269,
          -0.04034245859855603,
          -0.22692704263760052,
          0.149149158041844,
          0.2566894589754165,
          0.012192855346988923,
          0.08820094461391167,
          0.21042984262016226,
          0.06961725474179355,
          -0.0836851193212089,
          -0.05603495841634636,
          -0.0874888556454164,
          0.08572499916623429,
          0.11066644757058572,
          0.00308077053894902,
          0.03210397979750663,
          -0.2409633881532389,
          -0.165711879699809,
          -0.18923126367156112,
          -0.06001438952850183,
          -0.039675656313507106,
          -0.07521846148612464,
          -0.0648988189223266,
          0.03163073493988185,
          0.018326855684616977,
          -0.08861845389571962,
          0.1413863021392009,
          0.09255327388928447,
          0.04240414331425897,
          0.17601979188138656,
          -0.004361638707880133,
          -0.11708955891944281,
          0.1140630542788356,
          0.15442995420989658,
          -0.04586890975935827,
          -0.06881965170095017,
          0.10247446974159023,
          0.17970903326166515,
          0.3530591117733621,
          0.15634566525940474,
          0.03958471883318287,
          -0.10846078100993103
        ],
        [
          0.09658440874453518,
          -0.051394024207428904,
          -0.19302379369583184,
          0.1413787724755577,
          -0.12759064016269947,
          -0.21358462884555135,
          -0.10420466449791202,
          -0.029673315998768452,
          -0.13796073996772854,
          0.040741698087228655,
          0.18551192694952942,
          0.09611197541167198,
          -0.19093565297226067,
          0.156509461366794,
          -0.07611685063509785,
          -0.13560123641286023,
          -0.1191605855187494,
          0.16546689898977224,
          -0.08483650377911303,
          -0.09450628040393273,
          -0.17783131057792928,
          -0.0063675360606024675,
          -0.017730877980402737,
          0.23052381754514464,
          -0.025809235251593184,
          0.053335333751904794,
          -0.10569748260419513,
          -0.10915515718312577,
          -0.1800736851908634,
          0.028395003147431052,
          0.07346471201523211,
          0.0480510362983436,
          0.2030254971580931,
          0.10271165480814656,
          0.13679376841957605,
          -0.07612530128282968,
          -0.008467071071542539,
          0.1295994093952407,
          -0.20124845789877785,
          -0.13517693786260349,
          -0.156823651390461,
          0.08201066659086802,
          0.011325808147868693,
          0.027631624142338593,
          -0.05719735769564635,
          0.09413308060747025,
          0.021399543212072457,
          0.044203891059561295,
          -0.04762359101251773
        ],
        [
          0.04464513328224196,
          0.13847286017720614,
          0.17165872821282113,
          -0.025353271825214185,
          0.17227978055997958,
          0.02866048275003567,
          0.06526916515450297,
          -0.00893751859088284,
          0.05598878048326326,
          -0.08770717556118092,
          0.19750239867572433,
          0.12142220056851932,
          -0.18352817213309625,
          0.012397029631570564,
          0.05255382099851963,
          -0.06415987784604411,
          -0.1566135541867872,
          -0.06630518870627437,
          -0.12217148552126553,
          -0.06989568611391993,
          0.06122767664267871,
          0.09324555057314861,
          -0.10822676247832955,
          0.03088158802684554,
          -0.08197285003693243,
          0.005166769608014553,
          -0.053211739536272354,
          0.09846784953857086,
          -0.21574800828012966,
          0.0012176337091793091,
          0.13159290657724987,
          0.11283234228072178,
          0.16242050634148472,
          -0.0959032340855189,
          -0.18010221900899975,
          -0.14856991326495342,
          -0.2851092010582872,
          0.07276282352102778,
          -0.064272456733976,
          0.05025894494095867,
          -0.3189925049527972,
          0.014291509227171414,
          -0.09679095497708973,
          0.0355227939251095,
          -0.06270635883044058,
          -0.21518525029730004,
          -0.1078364902811194,
          0.028318074380056138,
          0.17320444411813252
        ],
        [
          -0.05647114294660241,
          0.25458350169897087,
          0.04164321770413755,
          0.14386019255482474,
          -0.18294723359186457,
          -0.19474008688330552,
          -0.2182286512723013,
          0.0303149799605622,
          0.14826003135753232,
          -0.2544664258005761,
          -0.12160333850137657,
          -0.13222285178726365,
          -0.20074146607327856,
          0.10354444289523204,
          -0.0013668106921403461,
          -0.14146804356053197,
          0.01388080194597801,
          0.017824834696198093,
          -0.09929044621631565,
          0.05451326364971554,
          -0.026682528304024355,
          -0.0703877382544575,
          0.09573350109269396,
          0.020249644000312445,
          0.1864270870997583,
          -0.14235595141254195,
          0.06776445565175751,
          -0.1879559561278926,
          -0.08908449800653241,
          0.19696665154431023,
          -0.12432687138875138,
          -0.13812605311455417,
          -0.019074797858027757,
          -0.1610470992847755,
          -0.16492207827714683,
          -0.09786375933296965,
          -0.023590075503468033,
          0.006385933303662452,
          0.07871716364011895,
          0.02800935974780795,
          0.1378446459181473,
          0.01025572453150348,
          -0.1582999977214911,
          -0.06351279625510628,
          0.26364145380710846,
          -0.2699283371175891,
          -0.021493010134859433,
          -0.04728509712792597,
          0.0680716212159551
        ],
        [
          0.2851286230626998,
          0.048437458928996285,
          0.1286535694683792,
          -0.1486196346634361,
          -0.07102599342326228,
          -0.007903552708573963,
          -0.10676572337675003,
          -0.252233756186051,
          0.28671238969946733,
          -0.09035291730837851,
          0.0846025305691296,
          -0.019375451800591532,
          -0.08727062616627533,
          0.006908149164148633,
          -0.25126176968265174,
          -0.28756662996282595,
          -0.19457098588627325,
          0.04740925072629783,
          -0.14895599767561546,
          -0.0951506827610804,
          0.13050173542274204,
          -0.07283107935037851,
          0.05017531549897616,
          0.0833637195110604,
          0.09307121061157436,
          -0.3075718127551522,
          0.16685448142779674,
          -0.013025040663921385,
          0.055546513394270844,
          -0.0998960061605995,
          0.057289185191689455,
          -0.05182419953184328,
          0.05868740953557962,
          0.08816429800260904,
          0.09773352985537695,
          0.07324661821124542,
          0.006799564260759055,
          -0.11473708336932846,
          0.1842047832923765,
          0.14299856179139014,
          -0.18293915770447813,
          -0.1598336510457926,
          0.2531765931008488,
          -0.19873013238984522,
          -0.10528192360479591,
          0.07357351975411362,
          0.18857725624238908,
          -0.1329599873211585,
          -0.198941188819147
        ],
        [
          -0.0673920284568694,
          -0.016528616778592818,
          0.19921618379271167,
          -0.3060978857124496,
          0.039728673112084695,
          0.047733056822558045,
          -0.1812880292960038,
          -0.023392644553315196,
          0.09145685379866958,
          0.1250457897147352,
          -0.2694647862918196,
          0.15312041776431054,
          0.11640679813603122,
          0.16217179197229972,
          0.050315910045613615,
          0.29853500751294565,
          0.1763863550851896,
          0.17688018771983247,
          0.12801647468672947,
          -0.18023555127245533,
          0.028781977979736473,
          0.24731927672823303,
          0.38301209471189607,
          0.07893880208364519,
          0.12366733422234079,
          0.11341030315941675,
          0.3210357959129805,
          0.027044292201123723,
          -0.12309500350644782,
          0.0662910825061542,
          0.31038244944979143,
          -0.08295962559729902,
          -0.15960305120445792,
          -0.11496761081669384,
          -0.003319727859038951,
          -0.2708616514759224,
          0.23751928312295115,
          -0.2279445140789821,
          0.003939895226442034,
          -0.16074280592351714,
          0.053592668105046586,
          0.17240797637874333,
          -0.15342880679496634,
          -0.13713915903029572,
          -0.14455107665429442,
          0.28781198299175736,
          0.01964869965257748,
          0.000370450149612948,
          -0.04231989987162915
        ],
        [
          0.24252907252657696,
          0.0059639728515791055,
          0.09523005685871282,
          -0.013531529252332987,
          -0.015170339225089896,
          0.17586253324612866,
          -0.13734679600549826,
          0.14459678981573884,
          -0.13693474815981296,
          -0.06632347860044707,
          -0.045937923952120964,
          0.04664889749801063,
          0.2029974583272782,
          0.02736534897335179,
          0.2132153501077068,
          -0.12417893388781437,
          0.07245974156811055,
          -0.01821390400813091,
          0.02530831569626591,
          0.146470862726844,
          0.20067412745285287,
          0.11835682186604496,
          0.05444757067931223,
          -0.024786597514514574,
          0.06956806104835106,
          0.05435971804504843,
          0.24864094666709224,
          -0.010052588541856795,
          0.0492900090241487,
          0.07768152875461402,
          0.005112234926041666,
          0.17762325514398625,
          -0.15117742937802253,
          -0.05706089820602975,
          -0.07157098800380765,
          -0.15468035330778615,
          0.30006623962036777,
          -0.26215661152103586,
          -0.14686427029065824,
          -0.05317423351475465,
          0.050608685438855175,
          -0.05986614346845601,
          0.1223718818156468,
          0.011639208494858002,
          0.11088812899980846,
          -0.030614065905898047,
          0.12402582619589311,
          0.3492441535029673,
          0.01681241069290762
        ],
        [
          -0.03856345674290221,
          0.03025487506346113,
          -0.09827784521042764,
          0.06366535097091669,
          0.08006699986585768,
          -0.10632844938602706,
          0.05548354048220843,
          -0.11450907568656314,
          -0.028764051701966872,
          0.12623796377176277,
          -0.0506257919133626,
          0.10788234683544759,
          -0.027071504548820197,
          -0.04537217834559392,
          0.028345189576078983,
          -0.06918020668668376,
          0.1686506799749621,
          -0.007540358786446741,
          0.017808835292411174,
          0.09368958985929107,
          0.15001035319318343,
          -0.1438485181597981,
          -0.13688518352290382,
          -0.07840748008016282,
          0.07910385877557236,
          0.0636447375203148,
          0.03087541228607824,
          -0.11592052577470995,
          -0.11053200013392861,
          0.13913791247269836,
          0.15163245642699757,
          0.15750973454388723,
          0.05786700019872894,
          -0.02413575036882279,
          0.03609516535028913,
          -0.02430072358198707,
          0.06600877629882564,
          0.02408036099412327,
          0.24221597471642162,
          -0.24964364987948373,
          0.06465692839951637,
          -0.025418125570792996,
          0.04788474641737845,
          0.1626109846366215,
          -0.1336720173148957,
          0.08695649048010498,
          -0.2126633716099388,
          -0.2096543656366401,
          -0.015026534634064037
        ],
        [
          -0.11654963480814261,
          -0.02267811571209727,
          -0.27577830105129936,
          -0.15902833056363871,
          -0.08925058812290122,
          -0.041737788132695026,
          -0.18367699149529473,
          -0.1473321588783101,
          -0.11430427402460867,
          -0.24501494000965493,
          0.007994775042575971,
          0.11222821130058286,
          0.0028573356505631467,
          0.16719593359607543,
          0.055471668658924694,
          -0.249405671241748,
          0.13713413892566145,
          0.16186525561519066,
          -0.123747636499628,
          -0.2494459033664352,
          -0.04703910721364596,
          -0.09930532121990267,
          -0.06523478607294438,
          0.22537880182190567,
          0.2521871658399981,
          -0.016231948119446504,
          0.039397972259646266,
          0.11936880401981514,
          0.046985083523564196,
          -0.09015422239988236,
          0.00898397036686791,
          -0.07892619258462823,
          0.1618470267855029,
          0.30603350066861174,
          -0.16732396280747522,
          -0.04117126806585476,
          -0.05797214206170579,
          0.09710255591410098,
          0.2354153014153667,
          -0.2883244686591574,
          -0.13858373859703477,
          0.06425168692141937,
          0.0451895973789609,
          0.05972160424149285,
          0.1487294153172897,
          -0.10804072919669319,
          -0.3367850145370459,
          -0.05190480974595188,
          0.1942400417893632
        ],
        [
          -0.16536939418778668,
          0.03644446799167559,
          -0.24288782840787093,
          -0.1619487810470332,
          -0.03283678491153601,
          0.20689164147123276,
          0.09058688695761159,
          0.06033408692147166,
          -0.01017733025874929,
          0.058708810693867367,
          0.12534808991596483,
          -0.12452718717728602,
          0.28603071820863724,
          -0.06071581869781505,
          -0.12202174052897756,
          -0.18280088762599297,
          0.20691492561712066,
          -0.11238849162380908,
          -0.16989482871538392,
          0.1708680958219581,
          0.18308243781814584,
          0.06452869010780443,
          0.007176852140071343,
          -0.042011797421032525,
          -0.1870522078528393,
          0.09724983285457767,
          -0.0690640600518956,
          -0.03545732771338186,
          0.030085669316809754,
          0.03536408150647901,
          0.0381107596860138,
          -0.1815729581096239,
          -0.1870393344956616,
          0.11071296550279981,
          -0.035440473980055946,
          -0.49130827135488364,
          -0.10416373032484919,
          0.006660505644068808,
          -0.34188196816267563,
          0.1490642204293077,
          0.06311817015015757,
          0.015161154237873505,
          0.05014886173255898,
          -0.032081724886069286,
          -0.08981900916223824,
          -0.005896707129293872,
          0.09878670074351077,
          0.060749744175995685,
          -0.020866187118927338
        ],
        [
          -0.19898011417493408,
          0.15613432364466706,
          -0.12991081935962237,
          -0.03670609140005411,
          -0.27559274709981535,
          -0.012854294354145078,
          -0.007403093795305446,
          -0.08489661557073307,
          0.006250431507721757,
          -0.08607960683777248,
          0.07400573669572891,
          0.22327817354913956,
          0.08736844220395637,
          0.24105145375864992,
          0.10875024516830022,
          0.15560366710992618,
          -0.06664292227661416,
          -0.10256049681295118,
          0.020157522811353322,
          -0.1287948318273715,
          -0.13152157934072833,
          0.0077758170119340995,
          0.19545926279682757,
          -0.07029968721722425,
          -0.12333022999350164,
          -0.09599445776744936,
          0.08381069915449589,
          -0.08106860893012599,
          0.1358968343805001,
          0.046293075366296496,
          -0.14518257626454958,
          -0.11389684464240613,
          -0.15334730674780853,
          0.11309838503218808,
          0.13540376782703248,
          0.20875910086104182,
          0.05659506981880015,
          0.16919817279273325,
          -0.10271005195400508,
          -0.3515455574744173,
          -0.2788034396576222,
          0.029650941855251828,
          -0.20444811311704744,
          0.04745937218636468,
          0.011790515693143879,
          0.06031346461224996,
          -0.11884720041447676,
          0.05836654913474539,
          0.1132344307157771
        ],
        [
          0.14935728590069006,
          0.003042927977583112,
          0.15920856333289923,
          -0.014928820828734615,
          0.1180191271685035,
          -0.037252613873661376,
          -0.028350175359520183,
          -0.022531332753123114,
          -0.008112474492660294,
          0.16548126048164544,
          -0.04952340694748545,
          0.0198172585630664,
          0.21000163206323288,
          0.014467083767381563,
          -0.31073711607483967,
          0.002687730498727715,
          0.036845730244952135,
          0.09486330793763231,
          0.16721071470872706,
          -0.019269452835957657,
          -0.10541037940300355,
          -0.14520766468179633,
          -0.04883959598575859,
          0.03985597733239833,
          0.15065379691777728,
          -0.13347720473317537,
          -0.016094266009964484,
          0.06504635502733125,
          0.07960676989466013,
          0.0702105672066679,
          0.18535158584655,
          -0.014235365450221284,
          0.09977345260870014,
          0.26845590881455156,
          -0.01987632575968652,
          -0.2350210902656984,
          -0.1281786816412556,
          0.016054118571049728,
          0.3510816414641941,
          -0.014924982803733474,
          -0.1535584680749867,
          -0.04435937868919205,
          0.14983385040859262,
          -0.009223988309811169,
          0.11661664909348068,
          -0.17812243260826596,
          0.014044103943260907,
          0.23652055817854897,
          -0.08784281113527088
        ],
        [
          0.04392048555522715,
          0.11458606819717052,
          0.01657192173167048,
          -0.15790356471449016,
          -0.04651230940289407,
          0.11948350769410145,
          0.023692408155537577,
          0.042051455383096764,
          0.3028717353118491,
          -0.0034831751244246783,
          0.16102925714101984,
          -0.01766052063080517,
          0.13563722010251655,
          -0.007692984361209193,
          -0.033652530628289316,
          0.09271060894039637,
          0.22259760071150883,
          0.21714747606921217,
          -0.05527375300032479,
          -0.0975913959193175,
          -0.1181668185565771,
          -0.014527577267092908,
          0.14656162109954865,
          0.10698279478688816,
          -0.09052915112662371,
          0.19421415771741363,
          -0.038323884209428984,
          -0.07966148404967374,
          -0.019454781430485558,
          -0.024193784823101312,
          0.10907790386092328,
          -0.12554316721797046,
          -0.07361605391596415,
          0.13308662130330565,
          0.1855959010665462,
          0.06568930393894405,
          0.11417204047774186,
          -0.05136564885485933,
          -0.0727783638618197,
          -0.07699063370204395,
          0.06368379645985318,
          -0.05254330011041838,
          -0.38926609912697924,
          0.13254351250665927,
          0.004320895115492033,
          -0.15793454015779712,
          0.16370768469388047,
          0.08981170762032148,
          0.16979420497408487
        ],
        [
          -0.004973998576135357,
          -0.19255087207771837,
          0.10214769064236333,
          -0.047155542461526416,
          0.2738767728461266,
          -0.2278494972250509,
          0.278292182739968,
          0.017869396386610156,
          -0.08638053377009819,
          0.03357007109078321,
          0.18801888988518517,
          -0.08999107388186996,
          -0.1100990988666309,
          0.009714109005263462,
          0.02103355062099803,
          0.052149846711261466,
          0.1224650304167369,
          -0.02977699006795389,
          0.057831761318293,
          0.0008927283549244621,
          -0.1563341120437173,
          0.1971254574780744,
          -0.018024576323539987,
          0.12685743307022213,
          -0.2156013690558477,
          0.1529966056129983,
          0.20110765347617565,
          0.10316910134668378,
          0.04579240225285919,
          -0.031853578454322413,
          0.018138204812004313,
          0.041956345299873556,
          0.2963834226434479,
          -0.024705740783619933,
          -0.02548677535607448,
          0.050724025773319144,
          -0.03003382269273975,
          -0.3321214622249421,
          -0.2594958009257081,
          -0.07506485195254653,
          0.12103491335120567,
          0.15733517688310944,
          0.027093189957200236,
          -0.016569086355475382,
          0.1547782044032547,
          -0.09205835298897556,
          -0.020901538051502192,
          -0.014999665460240784,
          -0.03231484280211467
        ],
        [
          0.13907298713702254,
          0.06195501831401817,
          0.03758840076206861,
          0.16011016918381324,
          0.05516361274194292,
          0.0944029783846716,
          0.23967931499511877,
          -0.07022089099208902,
          -0.13011875243347207,
          -0.05993575721315687,
          -0.11692898414554458,
          -0.031276765348568915,
          -0.08457879718626482,
          0.10356242846884813,
          0.18685146597026367,
          -0.17707162512411037,
          -0.0018428795448840738,
          -0.04947342500172284,
          0.15725013224894238,
          0.1044320381310631,
          -0.198564480971665,
          -0.2621638689356248,
          -0.16046271034394172,
          -0.12713271083553768,
          -0.09071542531201589,
          -0.021892972412780848,
          0.1323460472125712,
          0.08794188304534357,
          0.04550957545511515,
          0.08230404702192638,
          0.015050391558404649,
          -0.15781495583658373,
          0.27667322707841524,
          -0.10346605797011804,
          -0.14537205228988914,
          0.03246632076756099,
          0.00998914546320085,
          0.1477290754723809,
          0.0413967470544014,
          -0.07672569118522128,
          -0.046148846308602935,
          -0.08636791105243208,
          0.05516448508711933,
          0.13602344560355975,
          -0.04079752569412499,
          0.008296371819293158,
          -0.13608461800344965,
          0.04213264149927138,
          -0.1535854161621606
        ],
        [
          0.07217165516801848,
          -0.018795734003085582,
          -0.15128497525446433,
          -0.21661097210247177,
          -0.011037563578279414,
          0.1675093481491381,
          0.1296985508817799,
          -0.10652711618173344,
          0.0020923622976480685,
          -0.007946296886329406,
          0.1973493539338736,
          0.06504426118381032,
          0.12163754609981071,
          -0.02105770208692901,
          -0.022060374005229828,
          -0.0698822307260385,
          0.14508115225407467,
          0.22487391980999993,
          0.11538178014194395,
          0.1514019304684621,
          -0.06673325424440078,
          -0.03329977552586354,
          0.17745564366647312,
          0.12819128653720904,
          -0.11968170944209323,
          0.09885053507096501,
          -0.3099977572684198,
          0.24004983846216976,
          0.01793209485563959,
          0.023500727913452,
          0.07400054860983053,
          0.028036088603260158,
          0.1435123512606829,
          0.0862641352003102,
          0.09759660696394848,
          -0.12014209939652053,
          -0.13647709823502993,
          -0.19786252552064867,
          -0.22938846679578245,
          0.06374450740528485,
          0.020858604597816355,
          -0.07744277071987563,
          -0.0943177652179894,
          0.12769749874855965,
          0.00696868892030544,
          0.03116844573290368,
          0.04044106087769359,
          0.02118317790883618,
          0.2389674413394995
        ],
        [
          0.09324687618059581,
          0.07733197969638829,
          -0.19642658140118927,
          -0.04615724112166143,
          -0.007623459398961579,
          -0.19792243359873882,
          0.016666811332678267,
          0.03720606314526849,
          0.024605483348732794,
          -0.1048592059160187,
          0.12350564478291845,
          -0.05128541961132199,
          0.09871708770253518,
          -0.05276962857703207,
          -0.005997604319130374,
          0.07957917178523684,
          -0.014362283055055245,
          0.034733087237391456,
          -0.290938152508742,
          0.02775343721269461,
          0.09307814241801905,
          -0.1354380750951599,
          -0.14007900428705272,
          0.1602119535788102,
          -0.021975317137689413,
          -0.21823649501206,
          -0.06242295518491833,
          -0.008762898983870912,
          -0.11569086444934477,
          0.05524918180567334,
          0.14917688370078896,
          -0.2112316520848885,
          -0.12220775768202405,
          0.35913000089670444,
          0.017459503383804646,
          -0.09107184985460229,
          0.15733276009065503,
          0.12371347329053745,
          -0.035326242123478756,
          -0.039618844364884456,
          0.02311005709335691,
          0.01599429504246741,
          -0.1505262036715729,
          0.07557216332723171,
          -0.19272183607747415,
          0.08970989222247798,
          0.023105236303445405,
          0.15869312492134235,
          0.21898727160515594
        ],
        [
          -0.11616641511940354,
          0.039839817227399356,
          0.2761920272794636,
          -0.1219586561356054,
          0.17430611023437895,
          -0.17485225658897618,
          0.2839962092643046,
          -0.005779732266213345,
          -0.03641405852906376,
          -0.07601787174543441,
          -0.1505339261423937,
          0.23526256681662366,
          -0.2422962513489521,
          0.09275717633699995,
          0.01511457854965251,
          -0.011203862492795334,
          0.012942652471030623,
          0.1836102240462419,
          0.024333241032092792,
          0.03862689365648077,
          0.24880794874490714,
          -0.08739679934068743,
          -0.073266439805627,
          -0.10018267518767615,
          -0.066222227340153,
          0.21137592781633527,
          -0.09606875354159641,
          -0.02032282537576688,
          0.05232526246573507,
          0.13623524515376623,
          -0.03020997447434594,
          -0.053027823675366806,
          0.030279218314886294,
          0.1303207297934503,
          -0.016243312456730413,
          0.014264319259708258,
          -0.0845835713207519,
          -0.004644049747604985,
          -0.21402653716690334,
          0.11008568042215243,
          -0.0033253341672033593,
          -0.07145878382596005,
          0.004109562172352037,
          -0.23420892778633365,
          -0.11902966239278545,
          0.16425235848253367,
          0.19434458617679834,
          -0.021898083523968655,
          -0.03371001628830519
        ],
        [
          0.0621111676806865,
          0.1795796218487697,
          -0.051758453758936354,
          -0.11771328149221902,
          -0.2222199348281126,
          -0.07736840049959452,
          0.021286760812724327,
          0.0508621546735266,
          -0.10575952700817479,
          0.006882872273834806,
          0.061362976411652344,
          -0.018800128940285793,
          0.04731119795922919,
          0.08758452484335962,
          -0.0018967204916794111,
          0.04865485084451979,
          -0.031585585863885955,
          -0.10291145213252753,
          0.04831602691559131,
          0.06749329613221242,
          -0.18083588990506086,
          0.16816806205199974,
          0.01318375357412549,
          0.01679376968208776,
          0.21779018471638903,
          -0.1096371906977982,
          0.09224903601764044,
          -0.04142048630889188,
          -0.07898615254820339,
          -0.07109657481692691,
          0.03024549745811543,
          -0.16406754417840153,
          -0.13247267800319584,
          0.23597938707697025,
          0.08321223407495094,
          0.3039337549811496,
          -0.08600560229542854,
          0.13027669664670127,
          -0.0470605278051896,
          -0.14643583054753956,
          0.1524313469095309,
          0.00906370809613247,
          0.25336518821983706,
          -0.22561536281839722,
          0.07256660692904814,
          0.08835360756477183,
          -0.07154215003120976,
          -0.041257966404233536,
          -0.06335177547366151
        ],
        [
          -0.095702705658199,
          -0.08771656984456634,
          0.1918194807260801,
          0.11065201022916735,
          0.025758215118811496,
          -0.24972035420328725,
          0.11414710705511022,
          -0.1792232890756538,
          0.10964878707868408,
          0.16717863533095953,
          0.09555037515196224,
          -0.28965598196017567,
          -0.061343251911073225,
          0.02396598353062866,
          -0.10290583336548724,
          -0.018485020655592186,
          0.172590811026816,
          -0.16496638083510412,
          0.04962668731844112,
          0.0524086246760945,
          -0.21682763085650036,
          -0.1924279862477468,
          0.013966692022326279,
          -0.09982731792447712,
          0.06956977236166467,
          0.03981160828309878,
          0.10352778847538334,
          0.03274708996623392,
          -0.17967884893107605,
          -0.12462459291697198,
          0.15311701547594667,
          -0.30892127234550615,
          0.12247267630781832,
          -0.1442470160165533,
          0.2603696037694362,
          -0.20612362557307018,
          0.07842477049753381,
          0.0429341610343255,
          0.14298859755024013,
          -0.07754792427264756,
          0.07526382338932402,
          -0.0678735481614404,
          0.17167589668302086,
          0.03799862300091661,
          -0.09351170581765851,
          -0.05887563291364746,
          0.14411122343813615,
          0.23792948987192805,
          -0.010629480068740428
        ],
        [
          -0.14504199328796794,
          0.14875854367420627,
          0.023590488123330682,
          -0.16074340445333177,
          -0.07256280468539059,
          -0.21311678197921194,
          0.14354651789906792,
          -0.018193928697689828,
          -0.06971361786147734,
          0.28848215234095753,
          0.20549175100228617,
          -0.10603931957962663,
          -0.028411298004974862,
          -0.11448460601838684,
          -0.08577555802421544,
          -0.06619896330111091,
          0.20882797503858003,
          -0.10534752613807034,
          0.056058299527138,
          0.05635118786877326,
          -0.02721606727722167,
          0.21372132179144407,
          -0.03073157970779758,
          -0.01684337966064969,
          -0.15762537530139556,
          0.19847007117270166,
          0.07901662937964089,
          -0.02367095268315374,
          0.013940745226960854,
          0.14135388101266427,
          -0.17658082122040564,
          0.03414388304241905,
          -0.08759199710062422,
          0.0245197514034922,
          -0.3576805239321358,
          0.01181011483401395,
          -0.05228431668886145,
          -0.11210383552695748,
          0.08809950055706336,
          0.15158610714549295,
          -0.18661667571427842,
          -0.15416921026822186,
          0.1751121244411213,
          0.02490283241781797,
          0.08001856995454655,
          0.1988409308971863,
          -0.13505300563174014,
          0.11727038984177612,
          -0.22884112585600108
        ],
        [
          0.13677723909954748,
          0.3120131094533901,
          0.04089479228605931,
          -0.05461880016637748,
          -0.1334977255372812,
          0.04017761008145596,
          0.026000740455697606,
          -0.15944944119715676,
          -0.1069894993390091,
          -0.1255731465461086,
          -0.04193942436516987,
          0.01663513594607384,
          -0.024103522972832952,
          -0.1666424388737019,
          0.06258983256333259,
          0.012675151974878196,
          0.21217765782373083,
          0.26703748275346356,
          0.11492658163539508,
          0.14835080873006054,
          0.0898676710151273,
          -0.11840330891617448,
          -0.19780631011644098,
          0.22249169676004427,
          -0.027633781202656967,
          0.04932195969672179,
          -0.09201754217290165,
          0.08078901132123141,
          -0.24181265437131189,
          0.06117494776895952,
          0.012682700606765124,
          -0.01847375353151577,
          -0.18648323511000078,
          0.012976314108757797,
          -0.1178051447562213,
          0.10190863928716773,
          0.1206406569195518,
          0.0912190374683956,
          -0.23397229226130384,
          0.019800793510644055,
          -0.022064734958981664,
          -0.15083065006666024,
          -0.0094025524520403,
          -0.08779868833445653,
          0.1522827383693544,
          0.2196996488401216,
          -0.27186422046073994,
          0.1018539028973867,
          -0.17966217882776733
        ],
        [
          0.03684693588391472,
          0.12964953308571217,
          0.09581275845633408,
          0.26701431867531145,
          0.029497482526517405,
          -0.05656553399045506,
          0.01336493890601339,
          -0.09000387460382157,
          -0.0345817466366826,
          -0.0019923866352389067,
          0.15769491306427255,
          0.10164913333849453,
          0.11128722555728977,
          0.07153230616730093,
          -0.053184788255612875,
          -0.13118412398410903,
          0.1718963606430904,
          0.07069109689845318,
          0.18846477826527644,
          -0.20981425344210497,
          0.05091868336046387,
          0.1626140390855996,
          0.15853610168584586,
          -0.1210454017861802,
          0.023364958732945564,
          0.020881115491336467,
          0.07658974059350353,
          -0.029191225780596988,
          -0.047880251979960084,
          -0.026592906663988853,
          -0.06540909098878833,
          -0.14599907141461835,
          -0.06193261266186729,
          -0.1766300915226913,
          0.3159372226777891,
          0.2328628331926797,
          0.11164377418694009,
          0.009861987228669431,
          -0.023939981813088027,
          -0.13705187509007746,
          -0.09787230992285754,
          0.019959359156541866,
          0.011651481347489317,
          -0.048927646955294814,
          -0.1328506233121808,
          0.11790268583908049,
          -0.17262964227295916,
          -0.0954396253976895,
          0.0024625322981378338
        ],
        [
          0.17733312034901866,
          0.11504807338993757,
          0.11742994117362142,
          0.078853955962819,
          -0.14390478375090288,
          0.04975749533773307,
          0.09379873586719813,
          -0.08950111129866432,
          -0.01659767927150867,
          0.08557404506172715,
          0.30570268874284406,
          0.046300500454029635,
          -0.3672853226718027,
          0.05171114165146229,
          0.2138755314445733,
          0.1328156939679165,
          0.09583503283352267,
          0.06287089216978563,
          0.054542504010710965,
          -0.1967393808492946,
          -0.16232865695663726,
          0.0683123330228288,
          0.09265048127286274,
          0.16992899385803123,
          -0.23910397382064577,
          -0.16573336211417614,
          -0.16714858218619583,
          -0.029101431575633788,
          0.19903076815339546,
          -0.20266510777275293,
          0.04105040648125456,
          -0.19612757203934048,
          -0.07169095884795064,
          0.0857949778227791,
          0.12082677197189755,
          -0.22380542031745057,
          0.08320485452826379,
          0.014893718771336877,
          -0.025066573757174963,
          -0.2653415454017427,
          0.053981196946569776,
          0.11821163401091787,
          0.032866308889158376,
          -0.041661825699082056,
          0.1917804604008468,
          0.3906362139839302,
          -0.01744452729308354,
          0.1535349428386088,
          -0.27862442529201004
        ],
        [
          0.23124956331619578,
          0.14532419762866783,
          0.03254289942619949,
          -0.013587125261803518,
          -0.051697660563192235,
          0.13904538043727718,
          0.13527712340870507,
          -0.28716713219301143,
          0.13660781162929161,
          -0.3019954309458155,
          0.057593730599450124,
          0.056978080367256094,
          0.17028387433945671,
          0.1457042735811552,
          0.1515661586741369,
          0.033706549455984246,
          -0.11344444262676646,
          0.07145739449005442,
          0.05347490494035713,
          0.08815423417714292,
          0.04266730939148358,
          -0.078262893745163,
          0.384707537989217,
          0.04473024810308947,
          -0.10246575024431372,
          -0.07185042418532686,
          0.20195124693599636,
          0.17790360015591955,
          0.19739480329221223,
          0.003903142131779168,
          -0.048520531126297214,
          0.1359261643797845,
          -0.03237599259001423,
          -0.15844311119882598,
          0.14496277208773567,
          -0.0015250405039798451,
          -0.26089676017727276,
          -0.029567891193238858,
          -0.1040037651583976,
          -0.014849632992097671,
          0.2813952395119301,
          -0.039205697580093825,
          -0.10625069586596922,
          -0.12989339656552737,
          -0.19586647467621313,
          -0.03999409505385762,
          -0.1265936877815896,
          0.3398415608317168,
          0.1654646391307963
        ],
        [
          0.006133036883167687,
          0.21821631743059758,
          0.1369676264973744,
          0.08833475358319161,
          -0.10074575752697026,
          0.01229152795558254,
          0.27805182432327363,
          -0.2553437175511977,
          -0.07711182078073031,
          0.12984916365338628,
          0.03141399289902855,
          -0.012270482964371538,
          0.14958318711419116,
          0.056434979400678,
          0.011296533680766418,
          0.012155510468655924,
          -0.25132944419219927,
          0.2272456025244255,
          0.022161510886893703,
          -0.17079100572246358,
          0.45370356670909556,
          0.07440446752509797,
          0.05693983545004344,
          -0.029114606819086893,
          -0.01650476570314362,
          -0.00378620348703873,
          -0.31153741399195845,
          0.11966555784686252,
          0.054163483381474,
          0.168182975244936,
          0.11612551530833101,
          0.05741274679849899,
          0.009871961865867206,
          -0.0393319892654244,
          -0.17222833961256662,
          -0.013531040286478519,
          0.030964971000608573,
          0.03947113397871767,
          -0.19182844174011748,
          -0.11715645664125067,
          -0.0799788289563839,
          0.012455240721354082,
          -0.04676942343973,
          -0.053482085556352116,
          0.0008085502374316797,
          0.14100079862971485,
          -0.24978963996802747,
          -0.08117723993846637,
          -0.22751894091192765
        ],
        [
          0.10963812017620639,
          -0.10174926414186743,
          -0.04095630541211041,
          0.017266555566187964,
          -0.02816424446463227,
          -0.2614944669588349,
          0.07909638487565286,
          -0.2610480804190823,
          -0.21475138843656502,
          -0.04403138206032413,
          -0.13093042432406624,
          -0.012698396431975224,
          -0.21187496720227403,
          -0.08236762918754842,
          0.1842655056561356,
          0.30557036540554944,
          0.043927304712452424,
          0.02020603471691088,
          0.12622761345312686,
          -0.032729031219902005,
          -0.11972715601753142,
          0.022335076265328702,
          0.09060111912795894,
          0.22908385856558922,
          -0.1357725276891776,
          0.0728880591573571,
          -0.04370605927472159,
          -0.03922045170308904,
          -0.05917420497930783,
          0.0696159316609682,
          0.11347027646833871,
          0.05399129665022284,
          0.025968299668751204,
          0.07742074034489495,
          -0.0315074414309341,
          -0.11276057657855972,
          0.08838698456270781,
          -0.17404675564381097,
          -0.06427048378029221,
          0.07183977818954014,
          0.13555861225944263,
          0.0505092823654157,
          -0.22149889494506972,
          -0.005451141143079651,
          0.08560229914599542,
          0.10832336866289871,
          0.02943111303089407,
          -0.05721448343227496,
          0.022217219565034366
        ],
        [
          0.21068968384870948,
          0.09898838967155182,
          -0.15560514820039809,
          0.011252139380233563,
          0.10578062960272164,
          -0.09416188894762806,
          0.28228035048602207,
          -0.0026415232263479545,
          -0.2305838109906868,
          -0.026048781075638437,
          -0.04872218205317645,
          0.1165285192781423,
          -0.2389225854662519,
          -0.20036329651806936,
          0.09586711029317165,
          0.17356489292239927,
          0.03930360492964961,
          -0.17280627337500176,
          -0.07075889531326288,
          0.1530783122664128,
          0.16533177619102812,
          0.2566775315962065,
          -0.11908347486027422,
          0.17044088007019803,
          -0.28821988629856893,
          0.03212244825231665,
          -0.0765208579077366,
          0.06091331794681494,
          -0.005736466661826815,
          0.20222774016703118,
          -0.03354133606480859,
          0.10755661486940647,
          0.07442991999584397,
          -0.2673569521478072,
          -0.06730934417536415,
          -0.20906366045232383,
          0.02926090391171856,
          0.12847343490696855,
          -0.043721825094242814,
          -0.021590022565120607,
          -0.3363095204080263,
          0.01547240662765539,
          0.0032829453242524897,
          0.10977440403798616,
          -0.017886198289743298,
          0.04240262333718142,
          -0.12722073782094262,
          -0.0692339481163108,
          -0.1887749637435484
        ],
        [
          0.04371196442183572,
          0.1323002977887491,
          -0.08439286365431112,
          -0.28805831507269647,
          0.11346213987275483,
          -0.024439558037338355,
          0.026845825837126153,
          0.04031333149199121,
          -0.09464050895540436,
          -0.03446501839718786,
          -0.11961639384289774,
          -0.20462893583907119,
          0.020036450364281602,
          0.15589851301308996,
          -0.03975753011656289,
          0.17551884193424538,
          -0.02774137345876561,
          -0.17852975321733347,
          -0.02714541900760236,
          0.01798209590161467,
          -0.2049268111173909,
          0.08660613263016567,
          0.03447557018757324,
          0.07945805384820394,
          -0.004711063734848971,
          0.04874504119664353,
          -0.05220618343440342,
          0.08485874986607383,
          -0.13737024882250712,
          -0.09543708069076089,
          0.23767117240063218,
          0.0026743344541819126,
          0.10255531396222199,
          -0.05774102789090646,
          -0.006541026050776126,
          -0.006295918595626539,
          0.0036748866006683653,
          -0.0684689074596189,
          -0.012533379214098523,
          -0.01765003094094541,
          -0.11304050523644235,
          0.0807297005727134,
          0.050481152226880856,
          0.03885990009362934,
          0.37048718205878584,
          0.2031545089713435,
          0.15717351885033276,
          0.029130152504958096,
          0.1070472144283885
        ],
        [
          -0.1182481794551193,
          0.24832681123830402,
          0.3924551063471171,
          0.06738597888886519,
          0.19200677328894752,
          -0.06726316751823924,
          -0.10389508900505579,
          -0.24251489292666073,
          -0.31194517569750935,
          0.051930107700803786,
          0.05062431136036109,
          -0.018861350207577333,
          -0.027197392952976518,
          0.015473271785514482,
          -0.07934903058331814,
          0.19619129565465504,
          -0.104694319521711,
          -0.3007515722887854,
          0.14856700786896226,
          -0.12572095035529052,
          0.11411228535431708,
          0.18562126780116656,
          -0.051073750262333455,
          0.031249464958235714,
          -0.010829418163214404,
          -0.04170208815034105,
          -0.12787156920863094,
          -0.09245723019463332,
          0.2595096245369661,
          0.206785063534011,
          0.25176712813314434,
          -0.018262270922678465,
          -0.2910422602851291,
          -0.14125180568180185,
          0.30098155021802453,
          0.022995722370242354,
          0.03708285382750612,
          -0.15302872365261752,
          -0.1849413269092043,
          0.006141188542224138,
          0.17076793045091596,
          -0.31442993225863375,
          -0.06887635188298376,
          -0.04678933957030928,
          -0.06758886073479885,
          -0.010434146387741703,
          0.05722327792960862,
          -0.1035841951038828,
          0.09250838545796655
        ],
        [
          0.17661760962360545,
          -0.27354171222853435,
          0.07821835474445002,
          -0.30332417717926935,
          0.14806754918350334,
          -0.055919650254702885,
          -0.16985746785841435,
          0.14150668078446066,
          0.16506818440203044,
          0.05401406904371558,
          -0.09644790044917773,
          -0.3188465704578503,
          0.043676209540499444,
          -0.20251949109289186,
          -0.03145944253465293,
          -0.08188006131522867,
          -0.03114231061453189,
          0.12801813517351787,
          0.031262291884097744,
          0.012765735501817813,
          -0.26173773158773694,
          -0.01820966964913141,
          0.05689469188591658,
          0.09892863259278924,
          0.20604910946307728,
          -0.14458359924328223,
          -0.1639855824437243,
          -0.09111163214205496,
          -0.12409076143327567,
          -0.015006565170884216,
          -0.10703619663765394,
          -0.16388242533201078,
          0.047638488200658975,
          0.2370654180982791,
          0.013630060631106965,
          -0.19346073125474805,
          -0.25127889893619004,
          0.2537132421288818,
          0.07960583667454019,
          0.11424754127696725,
          0.16846824772685767,
          0.11582844642601345,
          0.18421755109418392,
          0.22242948687246636,
          -0.011595670779054719,
          0.03099296184968411,
          0.03124587691003891,
          -0.050245504536729206,
          0.10444730404890003
        ],
        [
          -0.11390655934807305,
          0.12755533522156384,
          -0.18491656719492303,
          -0.10296449308505656,
          0.0674678109706923,
          0.0703657845847969,
          0.13075471704869568,
          -0.03903131025662428,
          -0.07617927336742458,
          -0.02061900921611713,
          0.10520087438755141,
          0.10951145609930861,
          0.09973908140698223,
          0.14857206669130393,
          0.25191035430625275,
          -0.1837606611443613,
          0.08101342532483376,
          0.08945889381805619,
          -0.038630975934332304,
          -0.21032958710535732,
          -0.021753719362416664,
          -0.2819908706550955,
          0.15043846338075,
          0.05370202066764767,
          0.0368454342478064,
          0.03208220260227668,
          -0.12915458562632512,
          -0.04368285580116633,
          -0.22047362021920708,
          0.19255538212911083,
          -0.0288503656188906,
          0.017129126894537373,
          -0.04734102736916473,
          -0.14434018511641392,
          -0.137194522173198,
          0.04825543312015708,
          0.14785958803424795,
          -0.22063258221167756,
          0.21117522044410045,
          -0.1408819710063849,
          0.05428374952990134,
          0.02383268631406046,
          -0.08505356797577888,
          -0.003452619460344123,
          -0.07712953369088393,
          0.19617836485577264,
          0.10179419510672559,
          0.1165312504814535,
          0.011914822959358176
        ],
        [
          -0.06474393049609971,
          0.14344899443509368,
          0.06518473336277811,
          -0.022061195343687143,
          -0.018714191748064282,
          0.1194029966154302,
          -0.06748944149979876,
          0.17909727567809036,
          0.2728515196036785,
          0.02107425244757288,
          0.0755109253831063,
          0.030182229420482883,
          0.025009147684230418,
          0.0592932261337534,
          0.1326578297458674,
          -0.09303912494706013,
          0.1500223408473584,
          0.0803565927732861,
          -0.040252769730875236,
          -0.08191179854518381,
          0.13559204431350871,
          0.15152325620030405,
          0.3997314434655845,
          -0.0031956368155726623,
          -0.1981581644344937,
          0.04160224367728215,
          0.053641642296654,
          -0.05668751756162594,
          -0.015879815226284948,
          -0.023558345770268933,
          -0.15081751797107149,
          -0.11271615154651021,
          -0.013342836223342475,
          -0.013422219203800028,
          -0.02628033211522062,
          0.20504608370173133,
          -0.15789375544668807,
          0.15224157908772865,
          0.10191071955918929,
          -0.0476020338968001,
          0.12339819087955603,
          -0.08226704907720642,
          0.1473088038041559,
          -0.12064946962213596,
          0.12268209310064158,
          -0.08855923549893947,
          0.04610390352107428,
          -0.0588262971050147,
          -0.09797723105741217
        ],
        [
          0.006676989808427174,
          0.021639811592257592,
          0.060593722316498094,
          -0.05605363986168845,
          0.10638427780969173,
          0.0022790493535043686,
          0.09695926707899012,
          -0.18595260735459088,
          0.06863503882497884,
          0.022567379697166642,
          -0.1149812944745915,
          -0.13974980158850886,
          0.05083526512003909,
          0.0038338357261236823,
          0.073625901533758,
          0.051017955539701974,
          -0.1717988583456289,
          -0.13505733052460056,
          -0.05358535610197544,
          -0.1608160600310066,
          0.014305238231537256,
          0.14945826647056096,
          -0.047298448593433455,
          0.08742778937199511,
          -0.17707624087689816,
          -0.05968953711645476,
          -0.21953794537740717,
          -0.029763852740601678,
          0.13131724262752834,
          -0.09953441440113037,
          0.10491647994159627,
          -0.058903878021458835,
          0.2216209432782757,
          0.03826498948538664,
          -0.009342189748892867,
          -0.04807861416407299,
          0.20102047962407077,
          0.15202737678816522,
          -0.08018311765750885,
          -0.028632111868956218,
          0.09057836868460283,
          0.16369044731836102,
          0.04225269999471843,
          0.08475362269320678,
          0.19014494669112947,
          -0.12183788244947875,
          0.06857602438068092,
          0.06076816475718246,
          0.17402571375913503
        ],
        [
          -0.13700179266479995,
          0.04972082156473733,
          0.15100835220228448,
          0.2747080585213389,
          -0.04254759009933539,
          0.06507822790278216,
          0.22045638956858268,
          0.2559773104739679,
          0.1280925354799771,
          -0.09427200948657463,
          0.04935511368007007,
          -0.07510966186466321,
          -0.17204395736656072,
          0.12278497722454974,
          -0.07791983323712742,
          0.03513404123452506,
          0.06577325909120015,
          0.2882560300328131,
          0.13800923773598006,
          -0.074479072458121,
          0.17088012472026962,
          0.0033902939595071503,
          0.039635750966242965,
          0.24664456161050122,
          0.06377674764240318,
          0.020789280548715462,
          -0.213889924294681,
          -0.037434674078017705,
          -0.08455706379801704,
          0.0630314766775528,
          -0.2015207060567257,
          0.09592293843683565,
          -0.11543548959990033,
          0.19388078464947892,
          0.1696140652671506,
          -0.10738152737306832,
          0.05922031170790576,
          -0.07709026009775984,
          -0.09361618264211993,
          -0.13046760700303264,
          0.1609989974124674,
          -0.2990440937271003,
          0.16526661310115762,
          -0.15026891695458458,
          -0.2464097427723493,
          0.25221465125885856,
          0.08065934534784658,
          0.1375120526473147,
          -0.029946662053705185
        ],
        [
          0.0990090548191137,
          0.11165416406626225,
          0.21235897035330178,
          0.07146769603800791,
          -0.2912770654919871,
          -0.041440912235076434,
          0.0072330373540287155,
          -0.038431580662858095,
          -0.13922843189448506,
          -0.07692055097258724,
          0.3223681882874362,
          -0.04483448808653377,
          0.08505616824424232,
          -0.02361117080263604,
          -0.23653052349969103,
          -0.03445369463432701,
          -0.08190595699168718,
          0.04442064892401779,
          -0.01697373373862558,
          -0.061710335535940436,
          -0.10216504253131617,
          0.040844441411690635,
          -0.021001574588626747,
          -0.10911301596345412,
          -0.10894472450958095,
          -0.13263990023460015,
          0.004625781886486236,
          0.08033098361488912,
          -0.1001638326699338,
          -0.1343509058577298,
          0.10329445372330272,
          -0.01592774256215742,
          0.030929063386079578,
          0.07276140059143708,
          0.0607882372146643,
          0.03665088714261889,
          0.03705544567371811,
          0.07791309038819877,
          -0.02354447684372169,
          -0.21039032939772873,
          0.05184147977035284,
          0.08193522982167281,
          0.1437045627506045,
          0.12283361792216255,
          0.1256775864544419,
          0.01593815256461422,
          0.0038304764442231394,
          -0.1537007254980976,
          -0.0736916848525484
        ],
        [
          -0.09310213898432208,
          0.19761265463639527,
          0.014718033287064763,
          0.033269671975045725,
          -0.11377460351225868,
          0.14863195166560528,
          0.08871695636417994,
          -0.07719301621908747,
          -0.15272288673038187,
          -0.0598135560951599,
          0.12532232189208006,
          0.11170457825489553,
          0.048608505854290454,
          0.0835525151333717,
          0.0645065271891047,
          0.0342762844992122,
          0.27507127367800255,
          -0.13408215627214431,
          0.0858347149708081,
          0.1394461287763828,
          0.03676104966459205,
          0.3047484192674535,
          0.029677082784421317,
          0.17473112740262753,
          -0.0027421458234621102,
          0.1646251696455895,
          0.01702115193322675,
          0.17045906886092435,
          -0.08547510112078228,
          0.025894910094351884,
          0.25714672289814033,
          -0.1111511053575449,
          -0.004570769444276507,
          0.09738777777817835,
          -0.05157521202039184,
          0.018649362268106495,
          0.18042251293149694,
          -0.18355956267792503,
          0.1392967794077386,
          -0.04111405571609144,
          0.1865001760129023,
          0.16304072883546847,
          -0.01595950580555996,
          0.10415059161768553,
          -0.12385122570729737,
          0.06535156276753161,
          0.04108235318472729,
          -0.1230907976932198,
          -0.04031013464345877
        ],
        [
          -0.08616687293871088,
          0.047577800285206494,
          0.041046773536323515,
          0.005957385478298823,
          0.10483880620740463,
          0.04103983850039525,
          0.08743271223885211,
          0.12523197620960988,
          0.02394505324261581,
          0.03025313396381693,
          0.06773853848392575,
          0.043869103963691355,
          0.26572942525398274,
          0.2181471445704288,
          0.07890316705625572,
          0.1205772169898992,
          -0.1246972166050619,
          0.01798863007186289,
          -0.12607406228574444,
          0.09439242001172404,
          -0.01616651697854242,
          -0.12243091235024323,
          -0.06507443363544586,
          -0.1937284284784013,
          -0.043159767358672975,
          0.21922892765202934,
          0.011202272225420282,
          0.012269493684137272,
          -0.21022566262941395,
          0.006393006150091513,
          -0.16596574023644667,
          -0.07039754542519022,
          0.005711841829046886,
          0.0682333040062161,
          -0.2504156504236878,
          -0.21922176986933362,
          0.0010281394894349261,
          -0.08615432934712344,
          -0.17236876878069213,
          0.04412684075519627,
          0.040951786521120394,
          0.13158661892839874,
          -0.06973385960433,
          0.11342108577195092,
          0.0361259985768079,
          -0.05382685967749568,
          -0.13832162028032177,
          -0.08095543904437982,
          -0.042683500152507506
        ],
        [
          0.18920869595319267,
          0.08299861316446486,
          0.19642793657436228,
          -0.19681046973183686,
          0.26697535055198873,
          -0.02584517658643174,
          0.23946685789033745,
          -0.0723454538414674,
          0.020612947162639512,
          -0.08018092026705165,
          0.13554140035962478,
          -0.13871347004536255,
          0.02654184238203322,
          -0.03903075535432113,
          0.01904986024004688,
          0.018713115741337025,
          0.004460353740083501,
          -0.13258567487047285,
          -0.022980218965014627,
          0.06579062331315862,
          -0.1746015125913004,
          0.08807713769236647,
          0.22027623403172567,
          0.13963100817841273,
          -0.09611769400883013,
          0.21050771206223576,
          -0.3534791178226839,
          -0.05958718512723094,
          0.05083753609263913,
          -0.1638171968071865,
          -0.026472156444946954,
          -0.033384495433460684,
          -0.13075940386361984,
          0.0865419145006944,
          -0.004030383672838584,
          -0.11621510147836346,
          0.030858904011856605,
          0.17858429330096262,
          0.1980098486992349,
          -0.051827731974351185,
          -0.04752148496336659,
          -0.12733975846229367,
          -0.23503901253667475,
          0.12852086281288408,
          0.09771805791156479,
          0.07687427469704598,
          -0.22362611073767716,
          -0.16407778436319528,
          -0.025251748278153602
        ],
        [
          -0.15306187919377984,
          0.18970571844412093,
          -0.002527439507618758,
          -0.06905889149401113,
          0.1666056143612872,
          -0.09555238548313881,
          -0.005661186045515081,
          -0.1782185404769566,
          -0.040109311890064135,
          -0.038475556115660836,
          -0.09131280132801395,
          0.042097001567096434,
          0.11080112761969073,
          -0.2893289102542069,
          0.09979563980160215,
          0.11356239243653876,
          0.16783359904135434,
          0.14002872683080791,
          0.1851578423677453,
          -0.044701905060801086,
          0.17152909128611327,
          0.04488041078056927,
          0.11910619761006419,
          -0.18242239156968185,
          -0.12854866644319635,
          0.17329006173412287,
          0.06016943650707202,
          0.0957705821398319,
          -0.11936840343131212,
          0.07510388993531748,
          -0.06925830033997553,
          -0.2406608903998851,
          -0.0048722194159572995,
          -0.06492247604724173,
          0.2343188405611609,
          0.11431218499387451,
          0.024567503434404492,
          -0.006347229035672303,
          0.28138720620581237,
          -0.1725043656816249,
          0.07699784774657407,
          0.06748831615575503,
          0.018029114750845655,
          0.09790548493118513,
          0.1857680461117566,
          0.06626015402864426,
          0.09682899068105003,
          0.034017417972005526,
          0.046802905507736026
        ],
        [
          0.0721668687208431,
          0.06578132165319611,
          -0.14833478649061999,
          0.014845394907294867,
          -0.1807291703395144,
          -0.04280737943581448,
          -0.05513179348813251,
          -0.026095668991054203,
          -0.10506286419601528,
          0.11837814138107955,
          0.007888587248183209,
          -0.10791244270135097,
          0.05088325492886249,
          0.23094776622781973,
          -0.14110656862978505,
          -0.1648429818213651,
          0.08060644562397529,
          -0.0701978245436257,
          -0.20556455470603455,
          0.2351589141353472,
          0.19338083082328464,
          0.015424295343116162,
          -0.07478998100607893,
          -0.1161901254529887,
          0.14307932845586235,
          -0.09650479174440567,
          -0.12691309694140238,
          -0.11394323915069215,
          0.14382060689055906,
          -0.16190434411671678,
          -0.08112438924770729,
          0.10731003781399942,
          0.0476937775168449,
          -0.1174096405186951,
          0.1632274056312432,
          -0.019326187341505246,
          -0.10039297956693212,
          0.06448856937275464,
          0.012409914704358151,
          -0.06450421723688851,
          0.14639805665234099,
          0.23659772395150336,
          -0.12200403079220495,
          -0.1233037405561507,
          0.1251557001213825,
          0.22395848461537254,
          -0.0064188754106823485,
          -0.027010795972264204,
          0.12315584348610688
        ],
        [
          -0.13688584642745782,
          0.1081971977188302,
          0.03625709253905978,
          0.01558289027258136,
          -0.24245961418503698,
          0.011165692227228168,
          -0.03639619253430691,
          -0.160976884246596,
          0.08759700372188159,
          -0.054462533114437855,
          0.024730817446717276,
          0.13610434471426247,
          -0.03485002669018818,
          0.22997086527427416,
          0.015143965524733481,
          -0.13491996640741838,
          0.17382918790329274,
          -0.28032317439704413,
          0.14384179568982589,
          0.14453886258562498,
          -0.07561662946563388,
          -0.012875207762093005,
          -0.08611886334093616,
          -0.13752670985057017,
          -0.002177843307943005,
          0.11214503572779737,
          -0.11356973557463852,
          0.02486010545737078,
          -0.019586569687549904,
          -0.04766245911339984,
          0.05821785563878965,
          -0.17332709382208458,
          0.23391874864922763,
          -0.2131379295803418,
          -0.2947913696292501,
          0.08761653442197005,
          0.33273683309801,
          0.05778216907788427,
          0.0037966895347648685,
          0.10706324194319576,
          -0.17810351454769546,
          -0.007791398728021702,
          -0.16097690719378335,
          0.06561304362453645,
          0.09023685187513915,
          -0.14396473267202234,
          -0.13837068650916223,
          0.12501993934119524,
          0.08935173063676538
        ],
        [
          -0.12522731252152128,
          -0.18477345850735968,
          0.04011626003681501,
          0.3837067893317164,
          -0.1512248127819178,
          -0.0913429093862281,
          -0.07205957288829572,
          -0.05008898267720558,
          -0.04112372931013326,
          -0.01313467159223115,
          0.17944825897393035,
          -0.11251486544925086,
          0.01784116621910776,
          -0.00827548926893585,
          -0.18162221874559245,
          0.12228322179017918,
          0.02514301294728974,
          -0.16281515362473042,
          0.05544635871669936,
          -0.07065011028639781,
          0.0889854334890857,
          0.21948559376281165,
          -0.07694899213136493,
          -0.218473699905409,
          -0.28490703733607947,
          0.06192778889773367,
          0.13546631314923982,
          -0.183600173001867,
          -0.15353890029344236,
          0.039860538049990964,
          -0.19301640437423537,
          0.06755331581199947,
          -0.035617412862001145,
          -0.04410041642292278,
          -0.17094581680653267,
          -0.13024829054607365,
          0.1207477262693907,
          0.12282624562972372,
          -0.08729322639854308,
          0.1081923751275555,
          -0.22614650184224777,
          -0.005139203683471633,
          0.1913827346527001,
          -0.07881403074888697,
          -0.042477289372581994,
          0.0396417648546199,
          -0.1339635206706172,
          -0.12901371342091622,
          -0.018597087732796863
        ],
        [
          0.15521727189354662,
          -0.1607893808632382,
          -0.10189647727833158,
          -0.2639218631536604,
          -0.10578219461667634,
          0.1151913047115186,
          -0.13578617546601066,
          0.03982253638498345,
          -0.0483972440648762,
          0.02408358594049973,
          0.09522701000939429,
          -0.05886153812229194,
          -0.016162407192676274,
          -0.05967545870776367,
          -0.14692698325073147,
          -0.08597790973339202,
          0.018350067358977026,
          -0.06802824261656165,
          0.25145333164130407,
          -0.07337355347231563,
          -0.10758851065451085,
          -0.11344801104619548,
          -0.08230292393315276,
          -0.22094080708859018,
          0.14796937642387825,
          -0.11147311786272036,
          -0.022727431165838873,
          -0.30598965625845753,
          -0.11279732856679021,
          0.05465859185148394,
          0.12622722071926817,
          0.1274451195495963,
          0.14119556974201575,
          -0.008954069117825755,
          0.10608908136064309,
          -0.2138632756163507,
          -0.03969380689748163,
          -0.15499903061281614,
          -0.04824563918034078,
          0.11040365961983119,
          -0.10920514058993178,
          -0.016798084443611954,
          0.01115580409428093,
          -0.23882933566379994,
          -0.020743911421083634,
          -0.0907465149913797,
          0.17828893078222038,
          -0.07791253952435187,
          0.08444200436617515
        ],
        [
          0.2170109474098644,
          0.004276416049885149,
          0.09753343499751292,
          0.2845124054435699,
          0.2812670061864686,
          -0.09642179343988838,
          -0.24345904294280243,
          0.11943622684691872,
          -0.2695488974362595,
          -0.1638772006466922,
          -0.18357163112571329,
          -0.10666398023769683,
          -0.11668317929869172,
          0.07243906125507814,
          0.0799088854397412,
          0.06368495112483792,
          -0.18819329799218334,
          -0.11487680568442311,
          -0.00776209098228877,
          0.13277548318468863,
          0.1581909626030722,
          0.030533891442899544,
          -0.04950127876195703,
          0.005030312502671351,
          0.07000125836529643,
          0.041475274449417406,
          0.04404174465702238,
          0.027545687821191902,
          -0.17321448476923962,
          0.030644307957244075,
          -0.03636262501153864,
          -0.01781370703813722,
          -0.09478694370378506,
          -0.05278458386000708,
          -0.15417378835816314,
          -0.3063409355125591,
          -0.21162371400723154,
          0.08241234649690567,
          -0.1660347457512429,
          -0.13861866353083485,
          0.19476901958235077,
          -0.09870340860909672,
          -0.24787315976301685,
          0.25032515927176685,
          0.004781470859758537,
          0.13607071199959125,
          -0.1612290691887524,
          -0.045513361306276104,
          -0.224814308660877
        ],
        [
          0.010961068329302078,
          0.0336895076182636,
          0.01631614194748643,
          0.06299951607279032,
          -0.04896185180696114,
          -0.16447105819246838,
          0.20879238735137043,
          0.20578991177049938,
          -0.07227707658265912,
          0.00034991494254470645,
          0.059078732417938054,
          0.04666702705463415,
          -0.08434261424021378,
          0.11731258976193643,
          -0.12971412653053976,
          -0.034724336394161635,
          0.16186700531709514,
          -0.016920628968693743,
          -0.1750229563649523,
          0.08269042058343454,
          -0.1994302180025769,
          0.26204054647381814,
          0.2948066877950874,
          -0.06586399790727764,
          0.08176345009641751,
          -0.010134855595377659,
          0.11896259345196376,
          -0.041656300386163664,
          0.1457503396888428,
          0.08029466841961463,
          -0.24746309575750572,
          -0.05336952764852685,
          -0.00236336945141953,
          -0.10830692553454833,
          -0.0641315043812469,
          0.1527162127550773,
          0.10366123588107543,
          0.14175175600177428,
          0.003913958143021746,
          0.2379696085271148,
          -0.07089128264202821,
          0.05030736279425587,
          -0.07137332503937546,
          0.2399244602810833,
          0.022282461388018943,
          -0.051391942462859184,
          0.14423715171862891,
          0.05579126578678201,
          0.09554049984533901
        ],
        [
          -0.18957731158405064,
          0.039654063680639215,
          0.20747072678560682,
          0.029063831339931772,
          0.1482487995634563,
          0.03661729184894499,
          0.07333250975516734,
          0.15328226161716035,
          0.13074123573849022,
          0.05000094709844356,
          -0.06594845020931187,
          -0.16635062635239115,
          -0.11425231779737448,
          0.07173292613716618,
          0.1389902264557088,
          0.06374889770857257,
          -0.06860950996637746,
          0.056584946268895916,
          0.0052958416461750995,
          -0.2982771443898059,
          -0.16577910130080545,
          -0.09744861846188768,
          -0.012790649511893824,
          -0.20295618950868058,
          -0.23621933594793454,
          -0.005621862330813176,
          -0.03499316928108466,
          0.030502508809785854,
          -0.14139388532675873,
          -0.049291359419035174,
          -0.05635730339616514,
          -0.07065647761168134,
          0.09181050261987879,
          0.20651821990815095,
          0.16289040837766308,
          -0.03572789944441306,
          0.08412581207560961,
          -0.11910740158743725,
          -0.3645374888971446,
          -0.13711389197213958,
          -0.01329317005842876,
          -0.0794198090070947,
          -0.04288086317300137,
          0.0074151176427604895,
          0.33077415282922923,
          -0.075188658176936,
          0.06193908405491797,
          -0.2022029203509602,
          -0.10649523117165989
        ],
        [
          0.14333888435433054,
          0.07852126631815623,
          -0.0986816670286251,
          0.08032403246220837,
          -0.09156193335070023,
          0.03601381675787557,
          -0.1761081357996847,
          -0.14991599002444306,
          -0.03608950621187709,
          -0.13745252385978438,
          -0.09552436563945264,
          -0.1631812549474926,
          0.2491542281712501,
          -0.04630715583660819,
          0.10340233951557588,
          0.0950425816221302,
          -0.2531815454848911,
          -0.09907432593584546,
          0.07249148703760071,
          -0.04084479375797288,
          -0.037238183789917716,
          -0.009920371957669231,
          -0.16560357250907048,
          -0.1850694771041214,
          0.13561715300380175,
          -0.007415525178189113,
          0.013179885673292728,
          -0.10913284233448665,
          0.010948877185532838,
          0.01213578628941969,
          0.04217977538767124,
          0.20664083919972565,
          -0.0865032229426895,
          -0.17015589089813518,
          0.04863545402341164,
          -0.06989045314823268,
          -0.048789140883717455,
          0.14930883281144475,
          -0.17584945235895835,
          0.28248541995863813,
          0.09128572639201203,
          -0.04580910001539325,
          0.14632197163944374,
          -0.03377139813251415,
          0.012565872066277892,
          -0.32553445932004804,
          0.08017505775618605,
          0.0835957751611721,
          0.13903481609193796
        ],
        [
          0.009766123868615851,
          0.10865909946839632,
          -0.0699202804626717,
          -0.028181216868994448,
          -0.10592991552020538,
          0.27169781129349374,
          0.12159744975209533,
          0.13311441366433052,
          -0.01137644855481767,
          -0.171683729959146,
          0.047177436161960226,
          -0.0890119151002706,
          -0.18141065006013823,
          0.168813491459979,
          0.05973929029733395,
          0.29757388236846316,
          0.049668931884485346,
          -0.043319394507405976,
          0.05699933877249955,
          -0.05717317383374581,
          0.23254250075935848,
          -0.029951367946997546,
          -0.035275351115331165,
          -0.08687793708582839,
          -0.15354077146910952,
          0.1419983735762783,
          0.021834458997249076,
          0.037337274129595255,
          0.07491979665878698,
          0.17731372075270888,
          0.05293228576800404,
          -0.04415888836153492,
          -0.10633276907943309,
          -0.14740674361556222,
          0.22516146836661635,
          0.0628195816946235,
          0.04513937286801002,
          -0.04060768714840314,
          -0.06251850396812074,
          -0.12632852728311725,
          0.051196894632315915,
          0.11936767025977113,
          -0.008774407411165442,
          0.0310833697703166,
          -0.11613297886634681,
          0.02679710802363349,
          0.05453057781029087,
          0.021348212416528987,
          0.05127330377969902
        ],
        [
          0.12981643467257922,
          -0.10576906219850717,
          0.19083931135022045,
          0.24651691956019378,
          0.05627920220683663,
          -0.2229425488614777,
          -0.14052546229619897,
          0.0033899986049064548,
          -0.20814499743132517,
          -0.18248748020678515,
          -0.041419537898881094,
          -0.05105061389023138,
          -0.02132843239217607,
          -0.22047315093098954,
          0.22639473961884804,
          -0.07563472065913061,
          0.05315154768267272,
          0.21515979264552965,
          -0.13330228416521317,
          0.14716117715053134,
          0.11335601483970698,
          0.030156080212741916,
          -0.0575464530535367,
          0.11319163922200944,
          0.09672163892193565,
          -0.015214490006399744,
          0.05365353365904047,
          -0.07792509057412196,
          0.03382374523779697,
          -0.16792864343231054,
          -0.006692372266664858,
          0.06663385339992357,
          -0.014370327839870444,
          -0.013313696710835873,
          0.09943052355283151,
          -0.030959787129072,
          -0.03156778559669233,
          0.005445227971369082,
          0.09309302775194704,
          -0.002990698283044662,
          -0.06789806221545261,
          -0.19718407490881107,
          0.059732675461891135,
          -0.041114766862579116,
          -0.04464054949220093,
          0.1465890631304613,
          0.03910581075876669,
          -0.09867487246384804,
          -0.2962661887676026
        ],
        [
          -0.042989570145847346,
          -0.1735186957184159,
          0.04818616136037386,
          0.07477562720564374,
          -0.0725731409299469,
          0.132690758256251,
          0.17245091969853588,
          0.09909388304671514,
          -0.1262123772241967,
          0.11338226531980745,
          -0.04799136447315693,
          -0.007393571446278091,
          -0.0527786441719553,
          0.09784078685882251,
          -0.1613250055174538,
          -0.20330753161883436,
          0.11798892342985683,
          0.0901454732285851,
          0.04537779109234658,
          0.13833723530686728,
          -0.05014971463600712,
          0.18000295450696324,
          0.10541184182653739,
          0.04828074799653484,
          0.15685766192602496,
          0.2175687020229398,
          0.189703973984566,
          -0.120344716546301,
          0.010396531924226304,
          0.24591445007478843,
          0.15513181079449095,
          0.003983907595433855,
          -0.18726776741793047,
          0.19066329441591154,
          -0.05833952070543994,
          -0.20303662530386837,
          0.04290230591718517,
          -0.12148018657169528,
          -0.0652982433886644,
          -0.004882403484269952,
          -0.10350255496940382,
          -0.053010207735424864,
          0.06542433035486003,
          -0.08981736194621609,
          -0.004175018165106213,
          0.051208347578107626,
          0.11916703464916882,
          0.055063729554336555,
          -0.14124846480422165
        ],
        [
          -0.1269478770039363,
          0.14877170020882077,
          0.05286086853017725,
          0.1142742344216607,
          0.03628731273994889,
          -0.14382118756957663,
          0.14551435096727894,
          -0.03618867673018797,
          -0.1400594535482429,
          0.00604645209325555,
          -0.24203914854222958,
          -0.2960096541772355,
          0.10174425289883858,
          -0.05745293061985468,
          -0.16661566870653205,
          0.027170846270558976,
          0.003707811837591107,
          0.20311558131982888,
          0.009925823227435633,
          0.045340809613588065,
          0.10611626004222072,
          -0.09061825138349879,
          -0.01613292083479478,
          0.10170904441012199,
          -0.14479528509673142,
          -0.021538409395937284,
          -0.004205780290899254,
          0.0006689812937675793,
          0.16456547956719159,
          0.24688696177002203,
          0.21918436834063487,
          0.19146197558322958,
          -0.022168660475690376,
          -0.07028038052399374,
          -0.04876203695331796,
          0.08742217051152908,
          -0.3080616023159783,
          0.005565851599423064,
          -0.07006647798053003,
          -0.2378498932007699,
          -0.1889558993255967,
          -0.03618043652207653,
          -0.035307894929567665,
          -0.05548041099760385,
          -0.056268460816215664,
          -0.04703550029867995,
          0.28920727775686167,
          0.05122693008807625,
          0.03100182253661684
        ],
        [
          -0.06588308520939565,
          -0.0010927617440307333,
          -0.0042595525204870985,
          -0.0610785611196446,
          -0.06108092621423047,
          0.0448902825063467,
          0.09951150130271359,
          -0.04381157138000887,
          -0.29919306978556953,
          0.20357394423563532,
          -0.019041140697423523,
          -0.009042859558067043,
          0.06333183339331072,
          -0.03035594902470552,
          -0.005721330618512771,
          -0.07747595187764568,
          -0.031532810691379344,
          0.11075397579553876,
          0.08540021825950793,
          0.0042581415608080805,
          -0.15842860963708738,
          -0.17551038563105661,
          0.12721562336234934,
          0.07715332427258927,
          0.27842295510370124,
          -0.14846526895619278,
          -0.054199199857631414,
          0.05934908566505063,
          0.026621891305789343,
          0.01891248301139486,
          -0.1362067835215292,
          -0.20211810989451098,
          -0.024597367423107242,
          0.0093663294325314,
          -0.003534563044545906,
          0.10866827870118773,
          0.008656348864793719,
          -0.17802993455743377,
          0.04911258143670325,
          0.0858353889717479,
          -0.04129937613611555,
          -0.05282155037222187,
          -0.21666178204334754,
          -0.033314102639498314,
          -0.04327808411933687,
          -0.08126127527315234,
          0.20201227884068038,
          0.2794168086232828,
          0.0759537579934833
        ],
        [
          -0.09541402918641857,
          0.155145507666982,
          -0.0025251862983428465,
          0.04277856817718847,
          0.003313332420863069,
          0.21187750359093777,
          0.09268681104747169,
          0.18014322401608643,
          -0.002276004165489576,
          0.06129295778225869,
          0.06169122968567618,
          0.04331037753580456,
          -0.2035292837334734,
          -0.03661092313905304,
          -0.12343704831772995,
          -0.11772606207625168,
          -0.07153732373334776,
          0.09039796417091293,
          0.033042140403726196,
          -0.05851922410636317,
          0.07508130435491152,
          0.03305693490208728,
          -0.11425808899687134,
          -0.1201375509686983,
          0.08495190620414976,
          0.1759280482274683,
          -0.009409515010370573,
          0.3225498817439947,
          -0.08027940572774979,
          -0.12208124356167248,
          -0.024883674505266698,
          -0.032077244652381376,
          -0.033522197773240205,
          0.04374889088776048,
          0.10815110083717033,
          -0.10791223848772191,
          -0.002299887617529438,
          0.10356741224094602,
          0.027396130481477533,
          0.059795081492645535,
          0.15058485476565817,
          0.009920276818150265,
          -0.14554985881450655,
          0.10232628209025078,
          0.28539812803403536,
          0.13909180337038926,
          -0.28661763270576257,
          0.09944862544872367,
          -0.012781914661098051
        ],
        [
          0.1116406859861047,
          -0.012303863260206707,
          -0.12934758156842194,
          0.10158329140923777,
          0.2474957666676107,
          -0.0023265223663082677,
          0.010360983798083487,
          -0.004206319715781101,
          0.1463212449930769,
          0.023840789397691887,
          0.015136380392935902,
          -0.07132115646428942,
          -0.016347686829436135,
          0.1871195210205423,
          -0.136499595533998,
          0.1606101400185806,
          0.045302083171991275,
          -0.0176450139535438,
          -0.011737340900925491,
          -0.24951598391828717,
          0.01974131968744479,
          0.1491185311830686,
          0.05364119923391569,
          -0.04749895459871551,
          -0.19626282807486933,
          0.026558843803880985,
          -0.08679990290559898,
          0.28113477707015855,
          -0.00012570612301873287,
          -0.06436945552347846,
          -0.16870232550236794,
          0.19861643542493165,
          -0.021252986805666875,
          -0.06405231619911816,
          -0.20676127129015032,
          0.02925525709922502,
          0.177864800638386,
          -0.09181707782469992,
          -0.006024571203704264,
          0.05697154257493984,
          -0.06075884732637615,
          -0.07610046243725012,
          0.008656442383114424,
          -0.07492585475641587,
          -0.05671127412752808,
          0.0005820816786541679,
          0.2130159311216348,
          0.20045213225106526,
          0.03949057386026767
        ],
        [
          -0.2155673605209831,
          0.024188994126077466,
          -0.1659817862160986,
          -0.01582010665051587,
          0.07383648626045113,
          -0.18169711480433645,
          -0.15497179247461937,
          0.08546823082697876,
          0.029665070092798805,
          0.05124303267557192,
          -0.28152110052282453,
          -0.029337116675493886,
          -0.13970762248936056,
          0.09706974081768062,
          0.00031009507643189746,
          0.11570090507754291,
          0.04702119255085286,
          -0.0878083722786711,
          0.030576226464168323,
          0.03813829353736814,
          -0.048062645490888345,
          0.01618884033023527,
          0.061815280716123494,
          -0.018884685908218263,
          -0.15163428748867358,
          0.19831007202182746,
          -0.27853723317585727,
          -0.10012198142687737,
          0.0581192850027455,
          0.010178097429129203,
          0.15883752433859305,
          0.19083554619302182,
          0.0692212226497993,
          0.1361516592259285,
          0.05747638445757532,
          -0.17789950729802748,
          -0.3086535202638073,
          0.1390999567910125,
          0.060051369233715866,
          -0.04915783869459436,
          0.17929780845223747,
          0.25503204561766574,
