{
  "architecture": "49->64->32->32",
  "layers": [
    {
      "input_size": 49,
      "output_size": 64,
      "activation": "relu",
      "weights": [
        [
          0.3028318055825902,
          -0.08092802064737176,
          0.1546786272337396,
          0.009032518812192226,
          0.0067202276581577345,
          0.030461332751490384,
          -0.19260929513965028,
          -0.18496701992809067,
          -0.23846015729595832,
          -0.0708086259754254,
          -0.15356078026205283,
          -0.020863523308481957,
          0.02384826845309803,
          0.15848593578013176,
          0.055398682838128877,
          -0.10095465708418641,
          -0.026367474481494055,
          -0.15481845461041724,
          -0.11475145273359591,
          -0.07831841553413911,
          0.05022111620964249,
          0.21319146669039749,
          -0.17697413448246607,
          -0.009576124060504424,
          0.21546369343417407,
          0.19045862393543794,
          0.12106574929456308,
          0.29048968773324546,
          0.01729771366097054,
          0.022412650632961356,
          -0.1953815554785107,
          -0.0757669294408344,
          -0.173197975418368,
          0.22314564736460696,
          8.310739474224539e-05,
          -0.1921123159192567,
          -0.1301123251257372,
          0.055363199131384044,
          0.056152840805225465,
          -0.09972239857137585,
          -0.011041743688077988,
          0.06586059941447392,
          0.03345741637244146,
          -0.05307810900469045,
          -0.05298733644591655,
          0.1622977996221889,
          0.020842596557560107,
          0.13442888575804823,
          0.18669818393693208
        ],
        [
          0.13991567158045845,
          0.05762169258293963,
          -0.2393819540143474,
          0.29562471437410676,
          0.11034640557901217,
          0.2382960315019738,
          -0.18947310692223268,
          -0.041859951029144256,
          -0.09727849105099567,
          -0.01615241022437521,
          -0.05928149415891024,
          0.04759127011614963,
          0.029600959766841423,
          -0.10257202851032661,
          -0.06300681880280078,
          -0.056333411801731514,
          0.16027568170421574,
          -0.14096463287764785,
          0.07858086818175557,
          -0.20230609165510421,
          -0.2082813287821679,
          0.015554064042752181,
          0.08967495386732904,
          0.09343366327257818,
          0.03724529974930358,
          0.1571551326473699,
          0.2163049462359125,
          -0.050459786608670204,
          0.16088667242003785,
          -0.03010758394910753,
          0.23367036791851273,
          -0.19618337625639617,
          -0.13666508912804676,
          -0.2177260203395606,
          -0.06300152123847409,
          0.12259094943764254,
          0.12164275193064689,
          0.048710921543758626,
          0.08984338970464648,
          -0.023840741873043907,
          0.07490798620198989,
          -0.26346167602811005,
          0.04580308464284281,
          -0.06367893821167513,
          0.011654844150729758,
          -0.0022591025623514105,
          0.2973823305673723,
          0.030445429039113518,
          -0.03511354017948868
        ],
        [
          -0.042902643611462704,
          -0.09097679441324198,
          -0.08249656677556011,
          0.11098365726977473,
          -0.10772442669584018,
          -0.04104673722283228,
          0.028820096206398752,
          0.11891171178294689,
          0.04607738760118152,
          0.22556424006649872,
          0.06099110551494453,
          0.13787653662784832,
          -0.029104279237545553,
          0.045627724223939715,
          -0.04039023480474571,
          -0.2977753966955492,
          -0.03856045938066229,
          -0.3374379322896553,
          0.24462998172261646,
          0.08091933773737195,
          0.13041997120434115,
          -0.018823695879854455,
          0.11830455317658303,
          0.1393909309042924,
          -0.15624377810510567,
          -0.08347753389239346,
          -0.03381838404945403,
          -0.10353540034408884,
          0.08706657886305202,
          -0.3603288877746528,
          0.0363919461543541,
          -0.09794717300864247,
          -0.08058124928964255,
          0.18449654764336632,
          -0.07732265490291146,
          0.0978310686457777,
          -0.08207195845604823,
          0.09822135034852396,
          0.13046546052340915,
          0.06151603914010346,
          0.15132666956035443,
          -0.048863886616637375,
          -0.2867550010347402,
          -0.13594701522975877,
          0.1890539002996628,
          -0.0938699496902086,
          -0.2352428691354322,
          0.020014849761710623,
          -0.11583903619505904
        ],
        [
          0.03678393463950564,
          -0.11779519894392758,
          -0.11332047584823506,
          -0.13064151516121933,
          0.12530030824472013,
          0.10820360677478304,
          -0.06549863354462485,
          -0.01240768724046014,
          -0.10698549799340051,
          -0.0893209635831011,
          0.11407836021866032,
          -0.1411082312459356,
          -0.04871779377674374,
          -0.11662292482235836,
          -0.06311017628888611,
          -0.0022527969764264844,
          -0.25070560805894515,
          0.07309579703876312,
          0.18217704827923098,
          -0.007715422515496709,
          0.06156617102967986,
          -0.23323133424048947,
          0.17350303868320194,
          -0.1365070578258365,
          0.03497458081950995,
          0.24290989005676586,
          -0.09765203825455623,
          -0.04186907902307107,
          0.04561199344758571,
          0.1690033271902571,
          0.10165718856736153,
          0.2588001767033719,
          -0.08691549253200567,
          0.26009850014821406,
          -0.11663536620983826,
          -0.08544255029853187,
          -0.098967340954946,
          -0.038210281284681874,
          -0.0671546753843184,
          0.08514183491568554,
          0.01004530793507218,
          0.020169656895612637,
          -0.006824847160279212,
          0.05995680690785218,
          0.2150337839860928,
          -0.15009367515309988,
          -0.134014021575111,
          -0.05559381350104327,
          -0.1386661166962246
        ],
        [
          0.07133127250784699,
          -0.047005734534194946,
          -0.12835545604173113,
          -0.027708164670931127,
          -0.1750254326050634,
          -0.18371039584986923,
          -0.06641339138152513,
          -0.03181483272294403,
          0.0966881999344342,
          0.13700957043351922,
          0.10821434044609324,
          0.0630766740464257,
          -0.01767756596587542,
          -0.04475674338468743,
          0.1848750753659387,
          -0.11024999283692996,
          -0.29678451687621077,
          0.1409895097663778,
          -0.0403987863866522,
          0.019633891932978466,
          -0.24744040210927462,
          0.039920257837926756,
          0.06855444933945574,
          -0.04677928653944027,
          0.04313924734915933,
          -0.16861184318659686,
          -0.13921134679738167,
          -0.3287293293203877,
          -0.1384365432744511,
          0.12148771086737077,
          0.24685238442306465,
          0.017089619878257276,
          -0.10838112754194251,
          0.00612074884617813,
          -0.03785794828019886,
          -0.29141615960898537,
          0.05027319954371482,
          -0.11149844870323884,
          0.23446680164199357,
          0.0685865478490179,
          0.18302176719518767,
          0.009102712579686242,
          0.03717197616951665,
          -0.09670635750971641,
          0.25100241394472944,
          -0.004808336430911629,
          -0.36272234018986954,
          0.06749377001971597,
          -0.12910402216462227
        ],
        [
          0.06139271702692112,
          -0.18223857915951247,
          -0.027131400242323484,
          0.14826436361514436,
          0.16898356542887855,
          0.17940444285903018,
          -0.0863060083844369,
          -0.06534549005166596,
          -0.1061627153665592,
          -0.22092863146127056,
          -0.025036642544818133,
          0.03974773975530682,
          0.09507890650679619,
          -0.20797134231548822,
          0.03102775870538616,
          0.13789908772576523,
          0.12814134709547334,
          0.09105397577418647,
          -0.010885139045711584,
          0.21085426432103038,
          -0.08798646774960404,
          -0.25819121234656156,
          -0.07486700523866174,
          -0.32935072175062596,
          -0.01338858439932097,
          -0.24350231789565124,
          -0.19406701711316296,
          -0.05358191838817105,
          0.3554364358168817,
          -0.03301395904481696,
          -0.05930091865468473,
          0.16555926463112672,
          -0.11979504472029426,
          -0.18754885538786972,
          -0.04959357569428907,
          -0.019415171253137225,
          -0.0973378214262956,
          -0.10910492143777421,
          0.021745842707607977,
          0.06663925807945596,
          0.01721857719122122,
          0.18417946903729573,
          0.04096071044229369,
          0.06973689861450136,
          -0.13443184979707448,
          -0.08610858820167164,
          -0.07210755278196183,
          -0.2178558720407205,
          -0.03524299261108006
        ],
        [
          0.20476627386681817,
          -0.006239574148555384,
          -0.1995097077371379,
          0.014517795351124947,
          -0.038262504313553714,
          -0.1043914214114426,
          -0.08377610353351843,
          -0.011104151332592122,
          0.05043410618823084,
          -0.022604912181499653,
          -0.11254850899103748,
          0.08057464709348679,
          0.16710904502758997,
          -0.03376887890516691,
          0.19387499904318872,
          -0.28086124264905393,
          -0.06586940278538551,
          -0.11019709105286869,
          -0.07873527762918439,
          -0.04366100984356779,
          -0.2349675006914705,
          0.10016182311987695,
          0.3853490649720888,
          -0.024677869982897116,
          0.15782884548209086,
          0.10858333828342129,
          0.01520888021491631,
          0.022716725937050167,
          0.05168068105435133,
          -0.2682129962854057,
          0.13930861565606423,
          -0.15009639455131668,
          0.0720305700415102,
          -0.14232758601518722,
          0.02692860509224828,
          -0.0011302652332570646,
          0.013439855155773103,
          -0.02448288844668645,
          -0.19924843820878746,
          0.13742434387152888,
          -0.10589292493701528,
          0.06495752596024465,
          -0.16109897924997893,
          -0.25440482144318344,
          0.06335525053995197,
          -0.05940633701070157,
          -0.3017079849224034,
          0.11874780180651787,
          0.07049133891745905
        ],
        [
          0.01480835672708137,
          0.16567712404088583,
          0.17522507716086275,
          0.12252290613075435,
          -0.10325967289549713,
          0.10102561473725413,
          0.19361454536266498,
          0.06487645187028891,
          -0.014674856544850743,
          0.20006358856497433,
          0.06268029328347767,
          0.03903996920435201,
          0.3142142621702004,
          -0.07794353339261455,
          0.03111931201531991,
          -0.08866687532090892,
          -0.009892803091269829,
          -0.16548148897395742,
          0.18494081076873747,
          0.03793358120958767,
          -0.01827562872816168,
          0.06382173053372554,
          0.36803954814104456,
          -0.011818630311043075,
          0.005916741513015727,
          0.28832682338904997,
          -0.1662791806979835,
          -0.19978979700637062,
          -0.021957708631448265,
          0.28553515814825126,
          -0.15922691394383806,
          -0.11996421706874591,
          0.15167832943152523,
          0.1773910020263876,
          0.1322748374181139,
          -0.11645172914009684,
          0.03047085672109237,
          0.06627378085027796,
          -0.032756182444473536,
          -0.18277987314360875,
          0.29392840124070135,
          0.1345049381815032,
          -0.06822150034203607,
          0.21251501557391395,
          -0.028744157940960965,
          -0.13799420399261894,
          0.09033625501498649,
          -0.16528133838570083,
          0.08093945418220404
        ],
        [
          -0.08605105804705182,
          -0.10342878270112917,
          0.010604643967105282,
          0.16917325936788993,
          0.1655813571145462,
          0.18608586879699499,
          0.29843329314594397,
          0.04575019063003777,
          -0.09061195927510261,
          -0.14659601758871907,
          0.1768055433820325,
          -0.010629635103257245,
          -0.14396629677955444,
          0.26105289052173114,
          -0.34960463844810746,
          -0.2818435289816937,
          -0.11551161913312802,
          -0.15025034647958269,
          -0.1373937153005998,
          0.069286145667385,
          0.11688673758215021,
          -0.05257755946930523,
          0.2571277600751597,
          0.10727107277356934,
          -0.06702135894995906,
          0.06094641974621,
          -0.043845087948820395,
          -0.06624571071048088,
          0.17081658179556605,
          0.1127604234101687,
          -0.1147827059402604,
          0.20461925383059987,
          0.2580544743709764,
          0.025841535612748566,
          0.008201144651265218,
          0.14965243492265248,
          -0.045081144486584165,
          0.011414417610929132,
          0.005563886570602058,
          -0.026289107408484634,
          -0.12673635293553712,
          -0.22506539977895593,
          0.09856760174885618,
          -0.2533448591961959,
          -0.28595394744380376,
          0.04215898560411901,
          -0.02097896952927656,
          -0.012258076490677108,
          -0.06850526652162946
        ],
        [
          -0.08838884412497183,
          -0.24654757671242603,
          0.1695689397494107,
          0.0836507036020542,
          0.04475305120315183,
          -0.06160808880347661,
          -0.05080441678094087,
          -0.17009089711935207,
          0.33405830172496104,
          0.12731944331220782,
          -0.10160208638220436,
          0.1853050448867053,
          0.0011046362265613536,
          0.21409931999300452,
          -0.02163628472181338,
          0.1918806330392594,
          -0.07220243093567937,
          0.3238297963135504,
          -0.027786719039530554,
          -0.06547501316593042,
          -0.12067439360691636,
          0.042699041935759616,
          0.11010164083101741,
          -0.003314040376812485,
          -0.22027463914318926,
          -0.10102013940778262,
          0.10210919491602749,
          -0.09306528362279412,
          -0.15171488975172026,
          0.13712724174210886,
          -0.010965734397460217,
          -0.012711863209965204,
          -0.039383898126276455,
          -0.10568145493234905,
          -0.07099101786259186,
          0.04766413775280173,
          -0.059565705040545494,
          -0.04283443695019693,
          -0.07165977488948892,
          0.22154019962885274,
          0.06869083537241528,
          0.1337437775486246,
          -0.0273333442246388,
          -0.008842792085519814,
          -0.00571403920154589,
          0.11475435799099143,
          -0.13392006909054835,
          -0.15543540175225898,
          0.019416511070116785
        ],
        [
          0.04460620220579827,
          0.10684187810456613,
          0.12124361199625737,
          0.1517463088343815,
          -0.14380215490798626,
          0.19500186381727508,
          0.11597057704586736,
          -0.1995893444491,
          0.16284160618235785,
          0.1917150069623797,
          -0.005115318787284917,
          -0.10495757015402982,
          0.00030948757537500155,
          0.03172548421384507,
          -0.23465694487256708,
          -0.08215804369561065,
          0.0856471510215007,
          -0.1492379616520669,
          0.14080904995854324,
          0.12372140969179625,
          -0.005066901605736605,
          -0.041795849947247034,
          -0.005543260832022232,
          -0.22646265750249855,
          -0.10937222316703467,
          -0.15761120726006203,
          -0.3157015839477314,
          -0.020558801429088388,
          0.06658764082303352,
          -0.07548839028056926,
          -0.009058931375371016,
          -0.151999262125031,
          -0.08908273518324367,
          -0.08157083129411227,
          0.2308057295950255,
          0.05568459347930041,
          0.14065366976331475,
          -0.2553026727603994,
          -0.025932581438699222,
          -0.025276055730466818,
          -0.09260826362563242,
          0.011188499033593934,
          0.004475019960300271,
          -0.0651276447556441,
          0.014791262827559182,
          -0.006210578266392452,
          0.0770883186229712,
          0.08535097353131438,
          -0.08003631444611407
        ],
        [
          -0.08224944604951125,
          -0.03709576848019356,
          0.03916241049124423,
          0.0529592079002747,
          0.16607079317369372,
          -0.0640952334265643,
          0.1521655227904303,
          0.05331754529963046,
          0.0029456588393455157,
          0.027258265010484898,
          -0.019530431866461317,
          0.08659453446571296,
          0.1734221793940052,
          0.08994837490369739,
          0.01658980344043954,
          -0.061271907761818525,
          -0.3298373577584886,
          -0.12036182534108776,
          0.0914518574830857,
          -0.14983115481546574,
          0.170038424679238,
          -0.005278864055906111,
          -0.05209414853309179,
          0.21704199530194793,
          0.11311411954093756,
          0.3259455748663782,
          0.0666008397985473,
          0.21683140382426966,
          -0.11165465055111971,
          -0.21232322198486972,
          0.19541853519634542,
          0.010599054787680622,
          0.10628639747273519,
          0.2798070959465924,
          -0.07020925449899124,
          -0.11091372376649174,
          0.05951920883159168,
          0.06980400570549139,
          0.026024099166127548,
          0.0905432372495175,
          -0.10888945352374978,
          -0.15389970975743314,
          -0.1286857614019362,
          -0.21636440191392703,
          -0.15658031986217671,
          0.039112220093492814,
          -0.1209415656768409,
          -0.02674445366300871,
          -0.0624497641320779
        ],
        [
          0.11419881408440816,
          0.08054148245664858,
          0.15483650945027072,
          -0.14765079527630925,
          0.012429462601973891,
          0.09323830692865849,
          0.010197584200758896,
          0.19494950778142695,
          0.06342504465179839,
          -0.04445567775107317,
          -0.15061008310744364,
          -0.1402168040471132,
          -0.01599636124712894,
          -0.07202609837044502,
          -0.13178159048198557,
          -0.2162967898343565,
          0.01084711904428694,
          0.04020127884068031,
          -0.0016673751900628017,
          0.08896440257452011,
          -0.1656428973712685,
          -0.2231293116119902,
          0.002606352541711529,
          -0.1855387142356054,
          -0.122444793872649,
          0.09900205608099724,
          0.17932582336302103,
          -0.2239958873418221,
          0.08477670453506615,
          0.15656183800052328,
          -0.05838081140110141,
          0.02601874450747293,
          -0.31038596694728704,
          -0.14513710977368469,
          0.19730340644791602,
          -0.1353715648880726,
          0.20681471918230251,
          -0.2804756281992839,
          -0.29175819559770394,
          0.24942675901649494,
          0.03682714235605208,
          -0.04334645895076249,
          -0.07605458982200013,
          -0.15520245711497618,
          0.2687711016316598,
          0.09600580494289104,
          0.15484374787133012,
          0.13169002321127066,
          0.21390248232175874
        ],
        [
          -0.1478689895299057,
          0.12871284860194765,
          0.005996117191112602,
          0.26877872971457145,
          -0.021117216735522793,
          -0.08633539196295083,
          -0.010110739338564396,
          0.10702708324357389,
          0.1884054214907114,
          0.010484623710856317,
          0.10163619161377276,
          -0.10052636822153715,
          0.07212114023662286,
          0.015947083057591845,
          -0.07013757988689048,
          -0.1859236674772748,
          -0.054445926351814465,
          -0.14399322688254843,
          0.031373461139760125,
          0.06206861661943783,
          -0.14711740692205322,
          0.019892605917155172,
          -0.0101544096071354,
          -0.17422341701983982,
          -0.009389362761490274,
          0.16657812975531144,
          -0.12246566376856832,
          0.09667476819112947,
          -0.018839081703691276,
          0.07381340391581835,
          -0.008858453335185555,
          -0.09952227088181234,
          0.12310843331206776,
          -0.10090969776151117,
          -0.04995551095501771,
          -0.02504960622174334,
          0.0828114329142207,
          0.3625658514319896,
          0.08366750230457423,
          0.15570934711002327,
          -0.20611444338997298,
          -0.13157501516653272,
          0.021910245559357906,
          0.027728652975390095,
          -0.10058566618662682,
          0.2935803210248783,
          -0.018767570594046847,
          0.3173171044680251,
          0.12215084252848266
        ],
        [
          0.0743325766585352,
          -0.11724792219922976,
          -0.09900691638411875,
          0.21381143502331726,
          0.07635592608193766,
          0.24011684744682732,
          0.019853889637450228,
          0.09141203505345236,
          -0.020042016810382337,
          -0.006404296738443132,
          -0.03282250649843879,
          0.037473913164028434,
          0.18254978038661868,
          -0.26031719421337723,
          0.026902958860827324,
          0.02120000391894514,
          -0.024298433994021804,
          0.06827167754793995,
          0.0931600758678952,
          -0.03679627887260581,
          -0.08991004216278524,
          -0.16875093093086752,
          -0.07292204276002874,
          -0.05592517842098303,
          -0.04591063238971613,
          -0.015193284364860355,
          0.13362793114869154,
          0.12882275329254236,
          0.04659292162635151,
          -0.09671860322663697,
          0.03531826541343402,
          0.014763781760260868,
          0.05622583800972492,
          0.08817459477894596,
          0.08465903971680981,
          0.06490226173825643,
          0.35151065664963965,
          0.063044459952674,
          -0.035366697656078715,
          -0.12461901149018928,
          0.19840827746545633,
          -0.016614812297174656,
          0.12077325554755476,
          0.038796287343000925,
          0.07789040412513451,
          -0.17955889115029072,
          0.10511388927647165,
          0.08928798715548143,
          0.21153902202391583
        ],
        [
          -0.06926131368721043,
          0.056159977076761076,
          -0.04549396218628218,
          -0.081660513361525,
          0.18254160302331016,
          0.018131453304894234,
          0.08089336664946886,
          -0.033998519948012604,
          -0.12169151121987433,
          0.18353941545594132,
          -0.339609166879796,
          0.12677144875816423,
          0.14026051442636872,
          0.14676940171038527,
          -0.05361294837762534,
          0.07858042906864114,
          0.03836221202048518,
          -0.19840671248235162,
          0.19385691675125508,
          0.12759746126345098,
          0.029394654584653842,
          -0.16009506745263216,
          0.03236116894934375,
          0.09921996132378819,
          -0.21246364078408464,
          -0.19648113135031697,
          -0.06684931367618048,
          -0.09142168961669667,
          -0.06316955687867232,
          -0.27075174358108267,
          -0.08507832416222137,
          -0.24981152217220978,
          -0.06888890308844477,
          0.1318637202433027,
          -0.1480437077863092,
          -0.046311135454729514,
          0.021652656590737958,
          0.08093912736671564,
          0.2143851707900498,
          -0.12050307936762239,
          0.15708120473905673,
          -0.07705242039334245,
          0.04977255333182927,
          -0.051364219853409776,
          0.012188997585877976,
          -0.06997165066919962,
          -0.2609307449157897,
          -0.09193790215904293,
          0.15837245789831358
        ],
        [
          0.08461393559430266,
          0.1874926855985802,
          0.01880608641636326,
          0.2899990181366233,
          -0.18818506017605993,
          -0.019387117300851138,
          0.03102176678217699,
          0.13166490074701656,
          0.01930412346866713,
          -0.08105149537366856,
          -0.24901314846477685,
          0.07253625937775952,
          0.07550211573668417,
          -0.041991011513388875,
          -0.12253176327066594,
          0.06608804036611436,
          -0.03313858504493924,
          -0.13085524098461954,
          -0.003977620158318111,
          -0.0074402890062187045,
          0.13533575272023432,
          -0.09182873924431824,
          0.07176575912525247,
          0.017550108085241645,
          -0.07528944945958,
          0.10451037634193866,
          0.17767231953266915,
          0.1817152972021316,
          0.15246493934700933,
          0.18235132139797144,
          0.04670045970468597,
          -0.13643795956167332,
          0.006059686090442364,
          -0.0717574625834197,
          -0.07445425451497606,
          0.1485435604815751,
          -0.1389650031945664,
          0.032631333490347685,
          0.036469664495911984,
          0.042893261879962744,
          -0.027846151022756876,
          0.20390747670251236,
          -0.10409142243345598,
          0.04117446334849646,
          0.12319360947678212,
          0.13895410773944364,
          -0.0340637968595999,
          -0.13061569825270536,
          -0.004750115373065019
        ],
        [
          -0.21219193348560253,
          0.0007322122962239165,
          0.004679247446974887,
          -0.10085898301461284,
          0.19146953295449265,
          -0.1441402585373272,
          0.18710878418587204,
          -0.055776684137786615,
          -0.30475769064588276,
          -0.26279741878596424,
          -0.11588323710160982,
          0.053035756806068646,
          0.24673470207495593,
          0.19005288798828884,
          0.08155867874962497,
          0.08318975231373985,
          -0.09274490933097626,
          -0.002038774376388298,
          0.12091960611662822,
          -0.20579491529567834,
          0.2313011935891995,
          0.10984659531786799,
          -0.10885730606776528,
          -0.2706455556096781,
          0.021443445662494374,
          -0.005928884233934404,
          -0.030205092480058565,
          0.025632908983516296,
          0.1462436765056186,
          0.1461113394868661,
          -0.07854906457976522,
          0.017553030118396665,
          0.1566228885847066,
          -0.07711410380596606,
          -0.12026764669889498,
          -0.04658035602105183,
          -0.14589442065554192,
          -0.04050506179671796,
          0.08929013797932817,
          0.024466853357804207,
          -0.016810892854673597,
          0.05185912404423199,
          0.13788063852481977,
          0.02220780892654658,
          0.04468009964112045,
          -0.1765598258608051,
          -0.09187433598468317,
          0.034090044691763875,
          -0.2716411272974623
        ],
        [
          0.032601095889844174,
          -0.11581072108068884,
          0.011190972129614155,
          -0.06500387544739507,
          -0.045045283768628555,
          -0.03168138598037708,
          -0.41291530592425485,
          -0.1427769657630917,
          -0.03500909294509799,
          0.02935492890143733,
          0.09485494200811498,
          0.25212973421957635,
          0.1284466704399999,
          -0.043955668485217,
          0.08600959043627812,
          -0.018016496877837514,
          0.023067103747676905,
          0.15736088198307122,
          0.11928470438984745,
          0.11380439138829634,
          0.3870286565224078,
          -0.18307064493062694,
          0.18017822376098588,
          0.1422995373573168,
          0.1024314772036725,
          -0.1627246126472467,
          0.03398092492428476,
          -0.23087497021491496,
          0.0029676831248459405,
          0.30930899528237144,
          0.1473457093856864,
          -0.0027352627850796046,
          0.1281477687857073,
          0.2665234769734756,
          -0.0062901644146821645,
          -0.167821563345121,
          0.02483632825066985,
          0.10149058460136962,
          0.15178066232528037,
          -0.023325929054103287,
          -0.19188183585541232,
          -0.0895014194218367,
          0.1438871725495421,
          0.057293735944828325,
          0.061266557087150474,
          0.19602194066734266,
          0.04227990343019158,
          0.04137633469600975,
          0.002462824958517681
        ],
        [
          0.07995388691913552,
          -0.004283488374794641,
          -0.11177567104224617,
          -0.11068245906088232,
          -0.23266172740161925,
          -0.26201183557029833,
          -0.01217975109935375,
          -0.034024069883079246,
          -0.027445017251900634,
          0.12064263579188449,
          0.06992490359589953,
          0.03038088079540283,
          0.09359458370088161,
          0.03512284755088459,
          0.2155581547753582,
          0.16307791279378042,
          -0.045725429374085705,
          0.002384875006114035,
          -0.06643341213881589,
          0.03648647549485436,
          -0.10805251556599244,
          0.045144661770586174,
          -0.18504362162309704,
          0.17361055702393594,
          0.0409839856122229,
          0.04104702540023735,
          0.26126578341941115,
          0.3026475878880934,
          -0.04672937764668818,
          -0.13876248451431059,
          -0.010251204935352429,
          0.2072398086624315,
          0.011666038173245777,
          -0.28506200064857024,
          -0.1504116852903308,
          0.008537045600554988,
          0.22258844962339994,
          0.05706802751617785,
          -0.053174023481989345,
          -0.2517979160553625,
          -0.12286083701165834,
          -0.3107976034620648,
          0.1476269174179628,
          0.15746834247832686,
          0.11177374905549438,
          0.12423347780956855,
          0.14932856066604955,
          -0.07528974001551428,
          -0.021068351129539007
        ],
        [
          -0.07400868775172197,
          0.10366368494478172,
          -0.04769043219741253,
          0.05955877078644589,
          0.06511496883426744,
          0.10561011228940523,
          0.12397066039439952,
          0.024874797365390576,
          0.10995297425214123,
          0.10106915952039305,
          -0.18904214467497632,
          0.04504540317394791,
          -0.23614960434872054,
          -0.10998091242514003,
          0.11888520253154274,
          0.0971622412457037,
          0.0009755181016296615,
          0.12720346727278725,
          -0.057183975783890846,
          0.1257843522498028,
          0.03819142683696834,
          -0.0316273057878924,
          0.05742432128942931,
          -0.13208989864884416,
          -0.3188764859168817,
          -0.11111018751213537,
          -0.09971506363645637,
          0.15256716497044545,
          -0.031346820585248354,
          0.05694497208326118,
          -0.04168097332493889,
          -0.024462724410868084,
          -0.0013880330159931839,
          -0.03205764201175409,
          -0.05140508447309048,
          0.1245384336510411,
          -0.3436848160391585,
          0.07361287870746602,
          -0.13773532105707453,
          0.03827267089948731,
          0.18039812936368904,
          0.17552052193360068,
          -0.07795681969348645,
          -0.02244254256196914,
          0.08022077456506094,
          -0.15776494582037737,
          0.07470261558957018,
          -0.009566587032925834,
          0.046547245347564374
        ],
        [
          0.09209473972799115,
          -0.049923124942533224,
          0.0746734283411744,
          -0.03607795361614842,
          0.16762915303618883,
          -0.07675673010967723,
          -0.15929685968227986,
          -0.16480504076746788,
          0.10064921740624179,
          -0.15482610456117768,
          0.011015602764666524,
          -0.04141806512279586,
          -0.061120369130944326,
          -0.07361655879209156,
          -0.007275019527929679,
          -0.05956067745194406,
          -0.10376224617678616,
          0.06934792326365585,
          0.05483785065622001,
          -0.06296358678015537,
          -0.0015837728502404054,
          -0.06199307622881858,
          0.17992081320702522,
          -0.12862323900522793,
          -0.12204691978217722,
          0.16610102882028902,
          -0.07266572964316885,
          0.13281158662401576,
          -0.23884328591063253,
          0.14459457101370984,
          0.10169696147437172,
          -0.14751609280885716,
          -0.10387762309886014,
          -0.16632642415875484,
          0.07700990424252806,
          0.005933610602042449,
          0.06797822501658302,
          -0.04780999328100869,
          0.022846685459127544,
          0.13853304348234693,
          0.2107180216816849,
          0.10633763114827828,
          0.09444623838077064,
          0.06567788856195804,
          0.05300567318209471,
          0.0013583723335903347,
          -0.08565348524447816,
          0.006843759157972906,
          -0.00744093501175966
        ],
        [
          -0.09229314782758069,
          0.10899512935240685,
          -0.09997268830202553,
          0.13964546175367257,
          -0.02530603823672705,
          0.08915986262237775,
          0.17157832167028075,
          0.13992673162524238,
          0.1255527834253063,
          -0.3410740849814502,
          -0.0076829732149392566,
          0.22992420239257488,
          -0.010226192026761045,
          0.17526864360447778,
          -0.06678387763907383,
          -0.20797625063192765,
          0.10379302968351285,
          -0.07866897372678903,
          -0.036620938591231916,
          -0.028596807586271138,
          -0.17153690824096848,
          0.097001183170455,
          -0.05768500039263977,
          -0.21489032688301715,
          -0.05165251579248024,
          -0.11617599612626463,
          0.04870913940316846,
          0.00591692180813261,
          0.07043294002891634,
          0.06693946473574086,
          0.13123286127327188,
          -0.039510695528918345,
          -0.07873589901185042,
          -0.03792376612990094,
          0.08885372085969719,
          -0.09639710745936592,
          0.18228992411589387,
          -0.13600070978371928,
          -0.2522863305984022,
          -0.06985410986753866,
          -0.21101451931011814,
          0.0018003894603303228,
          0.04084128322352915,
          0.008840296864427616,
          -0.1896126891914887,
          -0.1933013604747342,
          -0.24600227154453075,
          0.06943932606940766,
          0.18778292794725157
        ],
        [
          0.15546123152829916,
          0.08573781181451044,
          -0.2273460032332144,
          -0.019218545134573634,
          -0.006221912618646499,
          -0.2365185797948047,
          -0.03179933239457351,
          0.05406224722228357,
          0.36210578681635464,
          0.07211625935106054,
          0.004143528588396488,
          0.0955189563114445,
          0.14994932031713107,
          -0.20184988605114734,
          -0.15998843430174975,
          -0.033702762081894086,
          -0.28341870995142204,
          -0.02604519200883661,
          -0.0608173581845202,
          0.18866405068597664,
          0.026705134720198226,
          0.01091360201356966,
          0.022971644297602817,
          -0.06905291639049208,
          -0.12275221745059212,
          0.020760794631612362,
          -0.07786877500931112,
          0.05007764345097304,
          0.07592481588609763,
          -0.006647579858384824,
          0.3453301658253465,
          0.1749778090693052,
          -0.009274994467352261,
          0.10612126299973482,
          -0.21531302079049025,
          0.21847198610305715,
          0.12879663006858158,
          -0.09288425035746571,
          0.0516407539851046,
          -0.1811675880100225,
          -0.028067866081647144,
          0.10938089437021806,
          0.1131289850994025,
          -0.1610486666777994,
          -0.15944940599133303,
          -0.03304990117148579,
          0.01603287918022769,
          -0.10802220279299722,
          -0.1309143416507978
        ],
        [
          0.035286198918192194,
          -0.013360141144569529,
          -0.21632394676997752,
          -0.31243597565205544,
          -0.0030456049026885423,
          -0.04583639433049365,
          -0.08852019749004228,
          -0.20635802581073218,
          0.05880968509721493,
          -0.0012045194311998476,
          -0.04382679741587676,
          0.21629089225877532,
          0.02638611947684568,
          0.11387489215304894,
          -0.05168930802845334,
          -0.09481109197243172,
          0.11146623941028287,
          0.027207622022729236,
          -0.03930694604446619,
          0.1187405772093586,
          0.036492784624760626,
          -0.10131378853642864,
          0.05993599579234739,
          0.07176830802114065,
          0.16665487449266503,
          0.18185864533844118,
          -0.22633469197639663,
          0.06686052100712546,
          0.30335871980623685,
          0.18473572099583643,
          -0.03741019811446312,
          -0.08570832194831342,
          -0.21268167623031248,
          0.1986925170503983,
          0.07807394981147463,
          0.02534385969778221,
          -0.0472357424097048,
          0.029184712845952747,
          0.13943000260027844,
          0.02656237304369107,
          0.023241501191253667,
          0.20563163024897838,
          -0.09840324174487507,
          -0.2688299558760992,
          -0.11096546926303208,
          0.03184737179466117,
          0.16478909975585923,
          -0.2592013087446514,
          0.08615526034377867
        ],
        [
          -0.03530850811005723,
          0.07723511302310057,
          -0.07580800195103765,
          -0.06875605435967226,
          0.09292101614412111,
          -0.060336208817921434,
          0.030312216739958753,
          0.18971512362218795,
          0.2221507991522721,
          -0.40747918717131376,
          0.0038113351736333836,
          0.08273463990657469,
          -0.0959089977741397,
          -0.027744549467671655,
          -0.03451263850531092,
          -0.1870435022394437,
          -0.00608265770757689,
          -0.14264557245378387,
          0.14493138107002615,
          0.009665145965357828,
          0.028895205050869295,
          -0.160810417992528,
          -0.1376516300837402,
          -0.12665903968518533,
          0.05862880184161475,
          0.031265897724171224,
          -0.05790668978649715,
          0.0990264741493175,
          -0.017379582793985198,
          0.07771606494488807,
          0.015665585093420063,
          -0.014608793839102355,
          0.19049202000693494,
          -0.16557403675468357,
          -0.07622707959330788,
          -0.04074602739855712,
          0.19018415142136585,
          -0.018260649347968776,
          0.0038374331542131664,
          -0.25789158703510495,
          0.10534501463799766,
          -0.22833200861969088,
          -0.05853119192604977,
          -0.23601684305109052,
          -0.07162433358370666,
          0.14139227178185698,
          -0.14614183047735305,
          0.05439201083364992,
          0.014087217203543306
        ],
        [
          0.007458143710327491,
          -0.07744286178005522,
          0.06264791338500675,
          0.1736520917022701,
          -0.11828261527370044,
          -0.17522380183822495,
          -0.05672783540443264,
          0.061142801974300436,
          0.11888824162652632,
          0.025537907572277113,
          0.17819614985867688,
          0.1483916455046968,
          -0.025299905072031812,
          -0.07231550823771843,
          0.14250312667043422,
          -0.06269109388225098,
          0.021144472173790743,
          0.2115484938652955,
          -0.008987058780982684,
          0.007609873848706165,
          -0.0947142699534366,
          -0.1328601158040469,
          -0.16060754644585734,
          -0.07646325607340684,
          0.22505381524253004,
          -0.02029955833616796,
          0.10054521210794289,
          -0.17175589353346365,
          0.2123266701616575,
          0.034922323804999114,
          -0.03706305910079986,
          -0.23552778690836615,
          -0.001128270185392153,
          0.011956621714586491,
          0.22238793559530273,
          0.00851274604764641,
          -0.019491112033783488,
          -0.15094124265417191,
          -0.10904151500358893,
          -0.16163700078630822,
          0.03625681359567155,
          0.1849762441532882,
          0.025057560854412415,
          -0.11162478360774832,
          0.20242155208153687,
          -0.15017609037656374,
          -0.28651423269439796,
          -0.16983759494937503,
          -0.10669789675784096
        ],
        [
          -0.018287472733070565,
          0.15184930005344593,
          -0.013053235660266138,
          0.06465504345667938,
          0.07983946326973537,
          -0.0589476009509206,
          0.041001413095339154,
          0.11539326420667906,
          -0.13268941723331362,
          0.2532221255046408,
          0.13651227290274626,
          0.010380066480561173,
          -0.06258941956884953,
          -0.08278133884341919,
          0.0052605449805817805,
          0.09715707350433678,
          -0.18433859811429165,
          0.0038116701634268065,
          0.07369040261662635,
          -0.16395782979721646,
          0.20051469835435518,
          -0.05532092526243417,
          -0.03470566671152992,
          -0.07322736984037109,
          0.11944679085007201,
          0.07650073056583484,
          0.017485332423360204,
          0.11324109093098549,
          0.06404967341025788,
          -0.04069447839496187,
          -0.11464983163294283,
          -0.07553379014451544,
          0.05876521356149132,
          0.1932472267277543,
          -0.0739719971128655,
          0.06842649177915727,
          0.11015587103344786,
          0.19920945624485908,
          0.040706981998761445,
          -0.2555122244333258,
          -0.1225961590846099,
          -0.17674567023928467,
          -0.13513077560114314,
          -0.051657916107134556,
          -0.022899557712037298,
          -0.20730008918987222,
          -0.04203787924137141,
          0.08055605563074167,
          -0.13432035256649602
        ],
        [
          0.21202279872096363,
          -0.20010359820328333,
          0.12873085899446624,
          -0.053906362165150205,
          -0.2371426276833621,
          -0.08332603995491615,
          -0.030959416342357195,
          -0.0646266479433359,
          0.15149603027054084,
          0.20658893662454503,
          -0.07096910094956607,
          -0.021396583453044186,
          0.10940602965426882,
          -0.07804086031133059,
          0.0103411916126034,
          -0.14100337657737,
          0.17893997259494007,
          0.08379084419912199,
          -0.14215315813493526,
          0.23173957257021527,
          -0.037130588750543786,
          0.033735903855778605,
          -0.05873786307242037,
          -0.0558703330904901,
          0.15394598830694192,
          0.07612794432314124,
          -0.011267693297362208,
          0.154260785190596,
          -0.0402166098857475,
          -0.011278229480802633,
          0.13811005142930685,
          0.23740530702729726,
          -0.11382944896341679,
          -0.015231693675709018,
          -0.08696721824666787,
          0.05431832987081447,
          0.10617080051718228,
          -0.17152247354638214,
          -0.3003736033016894,
          -0.17380871331971512,
          -0.15956016374138798,
          -0.08660435503721726,
          -0.11089698793001555,
          -0.024988766548199905,
          -0.0230171256801536,
          -0.074275058702261,
          0.24591374106069938,
          -0.06021809364914231,
          -0.22715607626910514
        ],
        [
          -0.11292343337900926,
          -0.1201964189560574,
          0.26078802719791944,
          0.12166636920848718,
          -0.057372811027541964,
          -0.010407565709880044,
          -0.10918050031430582,
          -0.04059161309397483,
          -0.10899223064924246,
          0.274578904896931,
          0.29969526248995043,
          -0.13513388076006996,
          0.13394420520743136,
          -0.3198016246003717,
          -0.09288517962510515,
          0.10340562215315972,
          -0.12082961058459721,
          0.07846193723640427,
          0.02838856594983909,
          -0.0095793167262579,
          0.06690068727679645,
          0.18950786502451472,
          0.4378896304216166,
          0.09660397529425346,
          -0.22412916392045057,
          0.25315564849678973,
          0.05711182367306616,
          -0.13718172025727504,
          -0.19385637439365486,
          -0.09053292434178517,
          0.1343833054957565,
          0.09119823256581294,
          0.16587270451179473,
          -0.01924843457966281,
          -0.1802181337991073,
          0.0214989675470267,
          -0.15672215393034664,
          0.07068581342965799,
          0.19063666150066014,
          -0.13231372247722312,
          -0.10640447321328654,
          0.11144957736361893,
          -0.04506039626258749,
          0.1730291735612974,
          -0.0021451586748318634,
          0.2994483445140012,
          -0.08550104325495667,
          0.1379475777060253,
          -0.2568246565302246
        ],
        [
          0.02538576168397314,
          0.010773220535971111,
          -0.016181748588772263,
          0.04818716252610619,
          0.07490989988576927,
          -0.03525535637201858,
          -0.1367499680997677,
          -0.1460605517102815,
          0.021692627312557968,
          0.1610005114696338,
          0.11159671553770921,
          -0.03287957327711802,
          -0.1672138331745764,
          -0.11416292967917473,
          -0.24149318738512282,
          -0.11175954416098997,
          -0.07730048678610227,
          0.04265885164208137,
          -0.1309441346156027,
          -0.26120573573046,
          0.2918767740603393,
          -0.135364161794862,
          -0.04916444092115579,
          -0.012996314408355919,
          0.04601965584832922,
          -0.09527897812413139,
          -0.08053300827382058,
          0.07092666825978741,
          -0.008299174077962294,
          -0.31767336414512887,
          0.2378120511988573,
          0.0298992937672725,
          -0.15032167068221078,
          -0.004113964122947123,
          0.1006836109499198,
          -0.07516846032760759,
          -0.098722682850887,
          0.030051402396548688,
          -0.04746320503250332,
          -0.030234058836521995,
          0.13337901402048064,
          -0.055376313995581426,
          -0.2448526342979197,
          -0.013862503858177236,
          -0.010411898848814514,
          -0.12566465657120263,
          0.16303232819204985,
          -0.13725280062005274,
          -0.08838429322046423
        ],
        [
          0.026330025847266313,
          -0.03771243829292955,
          -0.03398332403327515,
          -0.07108091000846149,
          -0.04314954926605247,
          0.1415905535244813,
          -0.027365029474032954,
          -0.18483727649306425,
          -0.2005729847684118,
          0.042862041953894744,
          -0.23917995496082162,
          -0.04541236327483976,
          -0.04213516241553537,
          0.026617241931858937,
          -0.10805205315707447,
          -0.14111328958660901,
          -0.22508814611013322,
          0.031512279009608256,
          0.19811740914663103,
          -0.10329455020382998,
          0.04175083167483057,
          0.16519763999815934,
          0.23083970282843408,
          -0.08445491754897685,
          -0.0750727957437211,
          -0.11801639509458589,
          0.008102271281829993,
          0.11885812420299856,
          0.29280431033179777,
          0.21375923899746774,
          0.3366960982545444,
          -0.01975509920994732,
          0.018784144574847395,
          0.3119918089114472,
          -0.024583298653587677,
          -0.02475719020707949,
          0.19634808099032977,
          0.21945237048098973,
          -0.18753970648152526,
          -0.11925665216635395,
          -0.16742202536773285,
          0.13684445024131414,
          -0.046468623681714186,
          -0.15832522339907365,
          0.0959792266634172,
          0.004812330857928283,
          -0.13400450147867907,
          -0.09457452149219624,
          0.009783435474109564
        ],
        [
          -0.10843014833470396,
          0.03870814513182755,
          -0.08791883662971187,
          0.09340056616630896,
          -0.10557317074108798,
          0.10658957785171631,
          -0.009355500327336872,
          0.1443146559612444,
          -0.002772990126213621,
          -0.026463083705108883,
          -0.013122067331079429,
          0.01624083676503997,
          -0.19643732605390873,
          0.36824659033192403,
          0.002818161491168756,
          -0.059023857487705604,
          -0.26907435774559646,
          0.2413932022242651,
          -0.04344255214345226,
          0.03441788205815776,
          -0.0824535407172747,
          0.14601558286685584,
          -0.1506689633241995,
          0.19187386117966387,
          0.1455414095737588,
          0.14814648193328694,
          -0.09839935598518139,
          0.06649845112550594,
          0.0789997249791938,
          -0.0489653922361929,
          -0.23894099637827143,
          0.0823305908093864,
          0.1633850832180788,
          0.08300868678732233,
          0.1606951921374287,
          -0.10706777679069793,
          0.17155443621067898,
          0.19174279618788792,
          0.09312044713352688,
          0.13258411584033145,
          -0.017300214280079107,
          -0.2149050290594302,
          0.41053704024865917,
          -0.006542199728619652,
          0.15123955904310218,
          -0.13576090827409415,
          0.11021711709064173,
          0.13090961232503445,
          0.04504901628617624
        ],
        [
          -0.041670120224926895,
          0.0801966437195143,
          -0.0235513705489429,
          -0.07831057772190722,
          0.12063575518319956,
          -0.025258249881396504,
          0.14823284627704245,
          0.14594046871827812,
          -0.090988967516104,
          -0.13724567251786246,
          0.1685927800737091,
          0.04657804389133917,
          0.15066740719179592,
          0.28584073326449166,
          -0.12123185136295153,
          0.23241165643030975,
          0.014724985828215296,
          0.19701856804354484,
          -0.2034072173740866,
          -0.13901841557807842,
          -0.06103758792057814,
          -0.17027339371093636,
          0.12359194547773594,
          -0.14237788384552988,
          -0.0267932248663782,
          0.07696637814755973,
          -0.013119691627536345,
          -0.19353128203990738,
          0.05924110893416314,
          -0.22790447837691485,
          -0.0053504420301756315,
          -0.006052323383539457,
          0.06670620285179873,
          -0.08825326583815937,
          0.01007257815143313,
          -0.045584507821679436,
          -0.215077903732892,
          -0.11424495433720036,
          0.16780399813205318,
          -0.027164274562179652,
          -0.14536682447077293,
          0.0317720630710994,
          0.2570299756689149,
          -0.01238805861729948,
          0.20005778748617375,
          -0.034969848059948176,
          0.0030525978897955825,
          0.08372529321450248,
          -0.009371733798870331
        ],
        [
          0.1674503132025041,
          -0.1008313179488659,
          -0.13393757099683948,
          -0.0770212774822711,
          0.013377956259624818,
          -0.012660559138716278,
          0.18644634894561452,
          0.02024415731632878,
          0.03646901779645916,
          0.09471731902408027,
          -0.08348581941427584,
          -0.1941585124479232,
          -0.0543708901724206,
          -0.06418607101445059,
          -0.09679818310819159,
          -0.13308827559131195,
          0.035021744216804734,
          0.16019434693810222,
          -0.18253938130236017,
          -0.17586854586985134,
          0.21226600568312057,
          -0.16066576537326394,
          -0.0922289288490133,
          -0.2952868674275217,
          -0.015428496947072077,
          -0.09882166693912373,
          0.058588685752998644,
          -0.04855418705983195,
          0.050605031814826486,
          0.09632239728255493,
          -0.21801939328629155,
          -0.0035401613201469125,
          -0.11380977029826828,
          -0.10815486569848176,
          0.22067475925457714,
          -0.3267242188403798,
          -0.0054901142753460185,
          0.12056656857526075,
          -0.13874011785835788,
          0.1182761054941659,
          0.014723679142564138,
          0.3745665222223531,
          -0.020909586551858927,
          -0.25841093407216825,
          0.037469025858505874,
          0.22077434621342523,
          -0.25153298965203813,
          -0.3163134746011969,
          0.11925627648744264
        ],
        [
          0.1546129619841097,
          -0.29441242023067754,
          0.011825594106190194,
          -0.03106293207555076,
          0.0840962075830341,
          -0.018801669755818068,
          -0.10260812023399904,
          0.0015205967082997645,
          -0.19462757566774297,
          0.18345972486711076,
          -0.015182890717376865,
          -0.08358957106778946,
          -0.030917596056921997,
          -0.07968465687468959,
          0.1238982345330458,
          0.02040222420755651,
          0.14737288065042858,
          -0.04898012052011802,
          -0.10145366324893439,
          -0.07836973174788812,
          -0.18761063988713855,
          0.13168492807430363,
          0.07670681309057979,
          -0.058310399233625736,
          0.11336376916553316,
          -0.044551265495647904,
          -0.0135784379590742,
          0.054892601499285,
          0.06961078982590362,
          -0.17820574649189297,
          0.06772152484653315,
          -0.2555972071732233,
          0.1668183176571957,
          -0.15213924826383504,
          0.006414932144029965,
          0.18136036727441834,
          0.14644384369699426,
          -0.11741684417577382,
          0.02524250487941795,
          0.20713517877055687,
          0.05823152264396861,
          0.285532281701158,
          0.04705352283697082,
          -0.1299845637372059,
          0.020601761786680772,
          -0.13169617680606058,
          0.005145849987122462,
          -0.09558639854767645,
          -0.22967175760833233
        ],
        [
          0.0427318099953695,
          -0.197047880918481,
          -0.18166926539870595,
          -0.14105440188710233,
          -0.04843376345113578,
          0.04562835519521369,
          0.004191765373267185,
          -0.11954042650738125,
          0.061046522769974895,
          0.15782938745082475,
          -0.05839919270792824,
          -0.0015720364471264426,
          -0.07181524506082253,
          0.1674489629908739,
          0.03327783056896588,
          0.1482863807916705,
          0.07383123820743122,
          0.05130806021725019,
          0.026419330819885945,
          -0.16373044709695458,
          -0.07398277740425187,
          0.14047324255282542,
          0.12549915835780842,
          -0.06572031768254566,
          0.003617029085702501,
          0.14849219372415892,
          -0.08137206261411135,
          -0.1450905249015142,
          0.1780117780386308,
          0.00362349142321532,
          -0.07209280178607286,
          0.26414007389885197,
          -0.03539095016311093,
          -0.0079289246622244,
          -0.138282896440302,
          -0.03205880782294433,
          0.029092390992098087,
          0.1697128987592852,
          -0.09761921914759912,
          0.08053776481685106,
          -0.20115905285778812,
          -0.10980047607599099,
          -0.21905184978899458,
          0.11993453789253267,
          0.10111015078382696,
          0.11561584916524781,
          0.04127009045835064,
          0.014598059884616835,
          -0.11473842270747413
        ],
        [
          0.0854316697538941,
          -0.09674185230530595,
          0.08273449295328789,
          -0.01336455419602368,
          -0.08636479225747708,
          0.030949688292029733,
          0.05930350189781061,
          -0.0725891675446217,
          0.02563605717055741,
          0.0030397084691087756,
          0.040362135405338756,
          0.11341767821740417,
          0.12384953001141008,
          -0.04971201365252602,
          0.1410292534953942,
          0.03429265967608696,
          -0.18556005695109795,
          0.12850289423315983,
          -0.11916634682869082,
          -0.04205574044433857,
          0.0070493464218262325,
          0.001639164864634465,
          0.19784753876394215,
          -0.06628876953307956,
          0.11241573881069981,
          -0.02393766809827144,
          -0.06491552769967825,
          -0.1957871321065947,
          0.12550643307158058,
          0.11993391002952421,
          -0.15313864663549218,
          0.06756905889184418,
          -0.2255736581388019,
          0.038441000711887614,
          -0.017141333392181296,
          0.14273609513749977,
          0.3076333211139684,
          -0.1002912088931215,
          -0.01523146310603365,
          -0.09585253254394917,
          -0.06933259552144123,
          -0.18392581751035292,
          -0.073187607578516,
          0.04930851404095594,
          -0.01168383962608988,
          0.1669268180025364,
          -0.1247595210011966,
          0.03540833670235017,
          -0.11010823128061027
        ],
        [
          -0.12349448263036722,
          -0.00384234493435118,
          0.033759783633907615,
          0.07726018954207514,
          -0.07907770721714394,
          -0.08685364788620045,
          0.060864928750744264,
          0.25390694828827504,
          0.1757034937086345,
          -0.059386264724826617,
          0.02759700948794032,
          -0.06016399445677336,
          -0.0421652569294988,
          0.09561606490822805,
          -0.14511425622709567,
          0.24731749095642025,
          -0.05593103047739764,
          0.07534866458875704,
          -0.059303177832086926,
          -0.20781780624312468,
          -0.021203189428430684,
          -0.032404080982748794,
          -0.005861849489996777,
          0.10944940181499822,
          -0.067269201446244,
          -0.05738545244520795,
          -0.07763790551966103,
          0.04445896847751694,
          0.08917158379369279,
          -0.05484359764352658,
          -0.14287330209222826,
          -0.14907677970435726,
          0.08157279023141907,
          -0.07715125380417684,
          -0.027656208538484817,
          -0.04209868116656533,
          0.2503092028750934,
          0.02164503436634651,
          0.01458927500854118,
          0.060358380007686126,
          0.13914746655973625,
          -0.08031346926529233,
          0.12457264728368309,
          -0.0765721823536516,
          0.032018803848830275,
          0.0811887611682482,
          -0.011907240273980295,
          0.2783675636478293,
          -0.1396426979562148
        ],
        [
          0.0041821825489143346,
          0.14960244697881447,
          0.15638427276723302,
          -0.025386846998304343,
          -0.10461371103665405,
          0.034427365711821714,
          -0.1277239171843191,
          0.017231075831480366,
          -0.05921367933945691,
          -0.0767285672246664,
          -0.06283938052911595,
          -0.07862830249661577,
          0.032097490023990705,
          0.03364222512871819,
          0.21302514451234764,
          -0.12596877892014996,
          0.0037910325865814993,
          0.026280653189336495,
          0.009564136198024919,
          -0.013428838018499317,
          -0.015940736256757983,
          -0.14243526995786004,
          -0.0033140030899094816,
          0.07343942213718946,
          -0.012114077838700818,
          -0.029746593378839555,
          0.14315941481908626,
          -0.0399916012393878,
          0.0026978653661342738,
          0.07219702685002188,
          -0.057379201709704584,
          -0.013901253276325062,
          -0.1824791372690003,
          0.04513865293522245,
          -0.3209373901372985,
          0.013494367492815284,
          0.04851296551502391,
          0.0798755951686179,
          -0.06444864653151972,
          -0.03705390913321588,
          -0.037625041737310634,
          0.2178678432364375,
          -0.02681677505497989,
          -0.04005977427995672,
          -0.06333372092392944,
          -0.009523230979913597,
          0.006644217421948049,
          -0.017144724973854074,
          -0.07037762786337808
        ],
        [
          -0.0032076461095462082,
          -0.031337500779762426,
          0.19103855432868264,
          -0.14050780120450143,
          -0.12069714984606038,
          -0.17395561147263636,
          -0.1891263475390331,
          0.03350336951737182,
          -0.0937991773458968,
          -0.09564191403098046,
          0.022756870499847013,
          0.0007714436191818555,
          0.08637171879036255,
          0.1616089666059368,
          0.22506940481482265,
          0.2970951394998055,
          -0.08355622464953497,
          -0.13694209573661636,
          0.20830228141903373,
          -0.011287795343989847,
          0.104141776124861,
          0.004787486241466496,
          -0.022219416662156696,
          -0.05221376516750104,
          0.08141742063840784,
          -0.21593326759053902,
          0.0153666781507308,
          0.1789854886887901,
          0.14709680944732212,
          -0.032877068159328185,
          -0.09598468456040761,
          0.013702396004817019,
          0.055935710987341625,
          0.2860207356285824,
          -0.05934009635795546,
          -0.21694467547559929,
          0.11119490364101964,
          0.29071047970606945,
          0.12739330753756298,
          0.1656718949034592,
          -0.0622582476458124,
          0.22225998918685122,
          0.354480357433493,
          -0.08690230834708237,
          -0.1364344288861117,
          0.16917334448082336,
          0.20683386256764968,
          0.12237494581919489,
          0.008477681694400468
        ],
        [
          -0.01766045938866351,
          -0.16226321551509448,
          -0.011574087692242187,
          -0.04614841151064045,
          0.30706086815653405,
          0.2982185443107757,
          -0.03253817153894829,
          -0.37016012601274256,
          0.038595867330575406,
          -0.1739327408472504,
          0.1916415975853414,
          0.07635278071360066,
          0.2031919584660624,
          0.08833733243882388,
          0.11134607574970852,
          0.0684512816954051,
          0.016224312772035582,
          -0.18329201470856374,
          0.1423947194522537,
          0.17299665774465445,
          -0.07213334871360734,
          0.21659132688795843,
          -0.060820652456774794,
          0.13727761039508884,
          0.09411434752064235,
          -0.09073330315611294,
          0.15263968716052886,
          0.04754226421732244,
          -0.012697985476633956,
          -0.0608404592568663,
          -0.03458715104589065,
          -0.08387375199906612,
          -0.14330679687780773,
          0.14524299719484707,
          -0.03804225347006263,
          -0.01810228927465706,
          -0.13889875126240991,
          -0.0874458669150235,
          -0.16304559415720615,
          -0.08476448342896543,
          0.022207164918720174,
          -0.21678525844117955,
          0.02340493275338743,
          0.11417724495939355,
          0.04027283809313541,
          -0.005069200060863219,
          0.1537546919676802,
          0.029519350386429884,
          0.1269250474427049
        ],
        [
          0.04904622460650168,
          -0.08910883272633623,
          -0.060729834006652314,
          -0.11943146365851806,
          -0.11076966883497137,
          0.007634292679596892,
          -0.19145839835942305,
          -0.1056936009655941,
          -0.10517245275830531,
          -0.02443887623918046,
          -0.014118289751032522,
          -0.05291269288653695,
          0.030850622405307906,
          -0.01876994218982834,
          0.26662615205395773,
          -0.016334982235732563,
          0.23799644989440413,
          0.06644206450849142,
          -0.039849112777673786,
          0.09187548877091942,
          -0.09986444178592933,
          0.007231867952711485,
          0.1952960934286214,
          -0.007597430105158132,
          0.18429752608786887,
          -0.055188691338899185,
          -0.0811543603226584,
          0.1227962606000905,
          -0.0435657870318016,
          -0.008380226486867839,
          -0.010110288617800814,
          0.19836894875878683,
          0.05489347197454318,
          0.05804548926130662,
          -0.060163119578969686,
          -0.09987710177582731,
          0.11790462036216516,
          0.05911393055078244,
          -0.14698058712696715,
          -0.043529604000909744,
          -0.23866514641988118,
          0.12991197136077964,
          0.006941111671320629,
          0.102139625737674,
          -0.2622988660438415,
          0.019153997454253918,
          0.053853541311478764,
          -0.14405693526036023,
          -0.028423948295216647
        ],
        [
          0.10409539067833852,
          -0.024683941675037825,
          -0.06796254765290283,
          -0.27872050583249514,
          0.13770888295988948,
          0.02548536018100401,
          0.04401351827534279,
          -0.23504818754506235,
          -0.13632142450283496,
          -0.3614069426455502,
          0.08885109585784816,
          0.01380381420744548,
          -0.04605428984497285,
          0.15370466103654185,
          0.1529395169960153,
          0.12613677914481333,
          -0.07086319280030472,
          -0.0028922493455238083,
          -0.16074767092364053,
          0.09811186781587246,
          -0.011597690834647527,
          0.16902745245412212,
          -0.12734156636463806,
          0.029661541897186294,
          0.09936386804519261,
          0.07483329661153339,
          -0.18378672061324539,
          0.15094962339124327,
          -0.06144927090888919,
          -0.11313810690383229,
          0.10496257686366824,
          0.09617549942773944,
          0.033767528953305835,
          0.04070379811256255,
          0.0694049160280705,
          -0.009194393341716683,
          0.2618779089869663,
          0.10595905926064621,
          0.31684283284916026,
          -0.0894830264629264,
          -0.2113890557947984,
          -0.04275230060412361,
          0.07460302319488216,
          0.004040218151304232,
          -0.042713987776714375,
          -0.16463694941115697,
          0.007103875182568411,
          0.011718372395573946,
          -0.0412389796074494
        ],
        [
          0.040037688533064233,
          0.06253716075965067,
          -0.12065802998314813,
          -0.16240895490456284,
          0.12106290897524487,
          0.07590416292366244,
          0.062455066664248195,
          0.08696062284728084,
          -0.11326477708451227,
          0.012075431602728276,
          -0.09250201482500375,
          0.03359842328385788,
          -0.11547293834126289,
          -0.08667254514952236,
          0.12009582598571053,
          -0.02820388617166837,
          0.04363130360954352,
          -0.055344379561846374,
          -0.056160228404154994,
          0.18453616064633616,
          -0.15276481594473085,
          0.07618191459467125,
          0.08881582142034819,
          0.223791704037191,
          -0.032864021185738314,
          -0.09297145321374656,
          -0.11177845659476239,
          -0.05182748789309875,
          -0.012913820972020543,
          0.09894537694990127,
          -0.2705251487069065,
          -0.18892843380965887,
          0.014440117542348474,
          -0.10122918696249093,
          -0.07201496384713583,
          0.03731220107050015,
          -0.14469599633991048,
          0.014608014970598576,
          -0.1100219682279756,
          -0.10111511061699271,
          -0.2479460605895914,
          -0.041268806236775556,
          -0.09861036264936583,
          -0.21273641520883851,
          0.0021822543240098535,
          -0.11536189357201787,
          0.17750768711923842,
          0.08215370052968615,
          0.1843350559804726
        ],
        [
          0.012254053324117354,
          -0.10265012893705923,
          -0.28697574520922825,
          -0.18673612488270383,
          0.285692655663891,
          0.014097927235618184,
          -0.00023123629352545154,
          0.02054072607329265,
          0.17425602881640426,
          -0.03725165847897986,
          0.05940237749269793,
          -0.19585820155706277,
          -0.28221416168502844,
          0.19042628875491732,
          -0.03818839533847805,
          -0.015333657434154708,
          0.0033200493519671983,
          0.03522380931168781,
          0.005599250919857796,
          0.08644817035567158,
          0.10907489225086005,
          0.25047313251975734,
          0.18909244415983248,
          -0.016144210412439415,
          -0.03853648931765101,
          0.09993913947396633,
          -0.15097034215460078,
          -0.0475312649675856,
          0.023188115255188557,
          -0.33804448388239483,
          -0.07657434528359887,
          0.23830219747417372,
          0.016631345815770714,
          -0.0750577843828199,
          -0.14522753947100087,
          0.2132338582035966,
          0.09935045571428129,
          0.17467887387552034,
          -0.023017190603255425,
          -0.014365568805971372,
          0.05762170246675165,
          -0.2740597907706674,
          0.015535464923219602,
          0.04415401070926742,
          -0.0931736430909282,
          -0.007827284847104574,
          0.019209632350801822,
          -0.25525834427937366,
          -0.052029558656001736
        ],
        [
          0.23707726244605382,
          -0.19755639046138088,
          0.1730600072912463,
          -0.07579955702532348,
          0.029835678723012366,
          -0.12457515329895798,
          -0.04163698080195659,
          -0.1634142078214527,
          -0.03021672955154134,
          0.18760965693342005,
          0.09573843267586173,
          -0.21680550920114838,
          -0.018131027177218505,
          -0.035147102410532635,
          -0.28670755331747294,
          -0.12433873911193837,
          -0.027329055392893174,
          -0.015592704828345861,
          -0.11284075516637734,
          0.27653273860523353,
          0.004799173640032213,
          -0.025278663126401122,
          -0.02919965782763392,
          0.12088010160630562,
          -0.018679617984447366,
          0.06457398131749621,
          0.08304834458487435,
          -0.21711707356479973,
          -0.05153389428606541,
          0.02360912967506529,
          0.038550855131607505,
          -0.22714603554831478,
          -0.1142123778654368,
          0.20004378093495973,
          -0.030166853247150297,
          -0.20160255048873488,
          0.25599723941326835,
          0.1269834386931456,
          -0.014871453376705503,
          -0.0323318613747119,
          0.26569563489646486,
          0.2064042326497419,
          -0.08130470688089932,
          -0.20671821114106734,
          0.09411571776730572,
          0.0292750198361212,
          0.14375637936858543,
          0.03732347628352857,
          0.07899888909996348
        ],
        [
          -0.36759143511718567,
          -0.004033650411331322,
          0.10121555968300051,
          0.40128142793847305,
          0.03786974028634903,
          0.009494445901436622,
          -0.18827212488701206,
          0.0033746831361599903,
          -0.24883287033955218,
          -0.04438979973881543,
          0.06752377312228129,
          0.01669770231225428,
          -0.013985866327241015,
          -0.08024955801580265,
          -0.014221350657542186,
          0.12232629124223522,
          0.030136109257398395,
          -0.2331155518695736,
          -0.06179659596228826,
          0.06578719020167154,
          -0.20216314468371438,
          0.03022800266389394,
          -0.18894846499784532,
          0.020611497896958354,
          -0.21685514682679052,
          0.1341414479980697,
          -0.19638500365350972,
          0.04742709094208376,
          -0.008353042208669148,
          0.017371795408615092,
          -0.011284158423071752,
          -0.03628735882790212,
          -0.05404521980267872,
          0.10310676418761222,
          -0.1463741098599107,
          0.09225841591471674,
          -0.00947497754389674,
          -0.037978862236699856,
          0.05114754427197614,
          -0.10070388390805317,
          -0.09500349739015966,
          -0.03941719763625241,
          -0.055446728465300354,
          0.0921949609166252,
          -0.14404442705819656,
          0.12132050860884558,
          0.22066352124734084,
          -0.19996451015116914,
          0.10132512918739443
        ],
        [
          0.09025195397918997,
          -0.028732215555715698,
          -0.18905338587657974,
          -0.05482624442152282,
          -0.05291974364780278,
          -0.023857459856243136,
          0.2108945542803103,
          0.13084766645160678,
          0.11815986340090578,
          0.08223426603359711,
          0.1198272525563276,
          0.001833774895211386,
          -0.09711062871642347,
          -0.016918634718019757,
          -0.19979269778575548,
          -0.06711302485864581,
          -0.11884741508795846,
          -0.08796092751063542,
          -0.1496046084726075,
          0.20245920068973317,
          -0.12635172162455327,
          -0.19247887981208303,
          0.1282591008907275,
          -0.08114816491906336,
          0.031571758490428495,
          0.1428066224913974,
          0.22698249201951676,
          -0.07346044587536539,
          0.01638996667243513,
          0.2786001818807199,
          -0.12677770977754124,
          0.2600356021348955,
          0.08418456379810813,
          0.048301974737276876,
          0.061668018868898514,
          0.024353867226791188,
          -0.028673716283162017,
          0.10257862635274147,
          0.016524520018126047,
          -0.256863414324188,
          -0.18744786309085992,
          -0.053939641167156646,
          -0.00344963475148276,
          0.20197112082974808,
          0.1420252478030758,
          0.0452588575856312,
          -0.06092194386604389,
          0.46587144977688566,
          0.09131493344956579
        ],
        [
          -0.09113559609796386,
          -0.10570899916805698,
          0.10135009098699024,
          0.10990043089341955,
          0.07799256519808581,
          0.11259075530147283,
          0.17385050570141947,
          0.13121249945329863,
          -0.1582230981309859,
          0.12244624551780324,
          -0.08955907919439773,
          -0.00011092946194704212,
          -0.08489636547986285,
          -0.13728735695631944,
          0.045312425267027605,
          -0.11036827868271437,
          0.13266063399483938,
          -0.005738895806847967,
          -0.16708406969644332,
          -0.20672002825170332,
          0.01732717336695141,
          0.2686448266040369,
          0.008961016062695315,
          -0.042689173253093446,
          -0.19316973391695405,
          -0.08528420549516433,
          -0.0024703579470140248,
          -0.058851246214629005,
          0.10648397436690549,
          0.019209565910957366,
          -0.054154146783904386,
          -0.03829899249288666,
          0.26796330921387895,
          0.01174655414922905,
          -0.03630787636660779,
          -0.06583000464633369,
          0.09972108019936865,
          0.026936371197427485,
          -0.1438604880180746,
          0.0610222852694855,
          -0.11631644271765472,
          -0.1636091893154647,
          -0.14130933380540525,
          0.11037847744453336,
          -0.046535344266034735,
          0.03707987280427485,
          -0.08064038221209277,
          0.04398161613540266,
          -0.23470765313559633
        ],
        [
          -0.2159942846078353,
          0.053061500824271635,
          0.11010590239505116,
          0.04721885964903164,
          0.15066987625708111,
          0.16465074393910575,
          0.05153047308731961,
          -0.1782641452165354,
          -0.09408336957262885,
          0.23948275002879466,
          0.038240975432230186,
          0.025684925169970625,
          0.11862329368251455,
          -0.17246434072375993,
          0.0481870605640069,
          0.004416176083182182,
          0.1466711952497144,
          0.06750815778288541,
          0.01412151324916953,
          -0.02570844884010122,
          -0.06735147549848759,
          0.08727363481069038,
          -0.005378751677185842,
          0.14042699818248164,
          0.002337697107020667,
          0.1521129658347842,
          0.14545782556520712,
          0.07271347035286303,
          0.10440646109232092,
          0.0315006541822421,
          0.11752908636443506,
          -0.1877228437690597,
          0.2289432307573663,
          -0.07612965983754003,
          0.06527644277558808,
          -0.008411482433279858,
          -0.20655357454401066,
          -0.007615720398594331,
          0.04686130390409544,
          0.12601451290814478,
          -0.12044109779463841,
          -0.14742229971060844,
          -0.18120415065509737,
          0.06813742127742863,
          0.0511512362047561,
          0.04565263854022978,
          -0.008092782821259376,
          0.008964952968883689,
          -0.001814267148555293
        ],
        [
          -0.008106855479911343,
          0.17603499196216135,
          0.06227196231460096,
          -0.04382466136902638,
          0.16234922142295682,
          -0.0869595853150863,
          0.09812668954280802,
          -0.010236222423360327,
          0.20052506799785125,
          0.021129581573442198,
          -0.07849187212670065,
          0.03770207587955057,
          -0.016594187634396584,
          0.05186028737556805,
          0.00967256334798113,
          0.058845961776550215,
          -0.21398059437368858,
          -0.000724445129783663,
          0.10222695991711057,
          -0.14378454527961726,
          0.334834173958205,
          -0.06794085068426561,
          0.22469504987547365,
          -0.2626037947034239,
          -0.05950344433263564,
          -0.021173810165853336,
          0.027568065215661134,
          0.2599097270428843,
          0.13106709972607983,
          0.018115539272171324,
          -0.09336893666343941,
          -0.19240553564831883,
          -0.0794819780460836,
          -0.2903098769856831,
          0.03665104780712503,
          0.09120348753498134,
          -0.14493262212459398,
          -0.1292677318875948,
          0.01759513904614298,
          -0.044447355097499135,
          -0.19141758453136357,
          0.16934289395818874,
          -0.1250919513606016,
          -0.10307643503600014,
          -0.09994430614870788,
          0.1442075584762227,
          -0.19592317776563928,
          0.07370806612022494,
          -0.045792446852125246
        ],
        [
          -0.01380932864790261,
          0.029516779799672245,
          0.020290637649918685,
          0.22587352206026223,
          -0.20999999456278756,
          0.3261960254950741,
          0.1474782048567328,
          -0.2483385030068218,
          -0.25024497674828267,
          -0.12109534407900899,
          -0.06360752011524928,
          -0.07169539899384963,
          0.009207896054928985,
          -0.00999926378170799,
          -0.10109675295551304,
          0.27976602548660395,
          -0.03770887805212022,
          -0.19613846225199788,
          -0.07421452264778533,
          -0.11184945484406449,
          0.1004216942577884,
          0.1387161657703282,
          -0.09051423885804338,
          0.10663073956321253,
          0.03583613445951344,
          -0.25019309407773976,
          -0.30970572302501115,
          -0.047284414011263126,
          0.20467596012222028,
          0.038392952288809255,
          -0.010505040864870465,
          -0.17683096879640042,
          0.056850523781605086,
          0.0551962343661932,
          -0.06443628943081299,
          -0.10277998248066253,
          -0.1262675528671419,
          -0.031391049289067594,
          -0.04956395786380712,
          -0.12827851530635592,
          0.00016552843309138658,
          -0.15776310397937163,
          0.165187850286549,
          0.24794959726361074,
          -0.11313184818769129,
          -0.0343243621795487,
          -0.05689199267548297,
          -0.08683456033517425,
          -0.08957297305686916
        ],
        [
          -0.03889384116727926,
          -0.1923272713754629,
          0.03267993588894257,
          -0.08359497435046773,
          -0.21049731876662928,
          -0.08222748469298495,
          0.03582660913429921,
          0.05008691415211777,
          0.1354799784384779,
          0.13915973804066928,
          -0.11277487716828877,
          0.0819570121418602,
          0.10578294068860064,
          0.1326896313617979,
          0.3712623351481729,
          -0.04510329486879035,
          -0.016816906998989,
          0.09787371169302093,
          0.03659876101957502,
          0.24619470008732658,
          -0.07196819661673053,
          0.021837744681888226,
          0.1432603748434702,
          0.14705521884085232,
          -0.18829587206493678,
          -0.23196642172526674,
          -0.01883161585636243,
          -0.2212044664719929,
          -0.009496224256343163,
          -0.08809782177115744,
          0.21133897504332316,
          -0.0824492840359923,
          0.14152576870197153,
          -0.07495213683810265,
          0.14934621462252995,
          -0.08711425775403586,
          -0.12760231658558244,
          0.14004267134003415,
          -0.07268348844688513,
          -0.22817695734019347,
          0.10507478692321846,
          0.08010247627481287,
          0.006011790939342488,
          -0.05550054260987536,
          -0.22278180183075008,
          -0.07759750980763483,
          -0.14688362761118964,
          -0.03377333097019936,
          -0.10682199386882964
        ],
        [
          0.16630869631088555,
          -0.06213030767394561,
          -0.04995188884277359,
          0.01117030711917834,
          0.20718880478336638,
          -0.0731507833904798,
          0.16182812180608674,
          -0.16689767343122738,
          0.05698804160581851,
          -0.040619986021332585,
          -0.02867758497193056,
          -0.02616359745229362,
          0.14668084621662916,
          -0.08097515244470015,
          -0.12770148910115156,
          -0.057657081427179444,
          -0.21975233885251597,
          0.16328165383676863,
          -0.017846649098185736,
          -0.07792990394303792,
          -0.33745203991841066,
          0.2762253002249967,
          0.052604920986045946,
          0.11716973037030765,
          0.1306938327436277,
          -0.2661857012059352,
          0.09409838694838606,
          0.1375044114949147,
          -0.05777765963503766,
          0.3265104429561761,
          -0.2614361655613595,
          0.09697684945990048,
          0.036611962071698194,
          0.0641490055816014,
          -0.009046317814929384,
          -0.19219215280635063,
          -0.04427400636946511,
          -0.07822690559224472,
          0.04833252541315096,
          0.20224498391882528,
          -0.01498708692231552,
          0.07501857829651971,
          0.01290301262167629,
          -0.06664897290092396,
          -0.1391590269974666,
          -0.11414168946362062,
          0.014241223924186124,
          0.09207805402612039,
          0.09351928010888381
        ],
        [
          0.0627817159293344,
          0.18879396972270632,
          -0.04236278575324646,
          0.24205900887806148,
          -0.08685770014866659,
          -0.0574491788671333,
          -0.10515699448746671,
          0.02331899108218825,
          0.08804787607910064,
          -0.05856532075514228,
          -0.039618590610047834,
          -0.08606288278049576,
          -0.21977594252379892,
          -0.013950143245790284,
          0.02136016904518187,
          0.14912300227368483,
          0.19105500236554507,
          -0.012875635062406798,
          0.009699939281960952,
          -0.08608085310523472,
          0.11603594812356859,
          0.016425904415976134,
          0.1073224333021274,
          -0.023189368555200218,
          0.03394038533199324,
          0.021493965614350134,
          -0.10353082034256093,
          0.10990773831824203,
          0.03758607684865578,
          -0.06361666667020427,
          0.1539831542349254,
          -0.18458431971218037,
          -0.00618165674642176,
          0.12467202828409861,
          0.018077284130895297,
          -0.09482031998120204,
          0.030220880310832633,
          0.14057692935969282,
          0.1803543015960935,
          -0.2272409104547106,
          0.13358186041662962,
          -0.13377217267231142,
          -0.17054964591553817,
          -0.17427852981809722,
          -0.06924825008316077,
          0.11333094090865078,
          0.09108614590279243,
          -0.07099085916052968,
          -0.11140087043624106
        ],
        [
          0.11593787204486532,
          0.12905909078697392,
          -0.038443617690235396,
          0.02461001840785313,
          0.17966533628203432,
          -0.013213659155055756,
          -0.012635960144064847,
          -0.09404579920989435,
          -0.1685870563182456,
          0.04286481758969254,
          0.17152272168973104,
          -0.02632830122852516,
          -0.03155102724545197,
          0.1614423134838128,
          0.23868917369145243,
          0.18648720442735559,
          -0.09228222289262068,
          -0.15620810692756304,
          0.005939035506216447,
          0.06765756288550469,
          -0.21081821574095552,
          -0.20565825431734477,
          0.06925132046199704,
          -0.17434640445030591,
          0.10287742883842477,
          -0.11953785550882687,
          -0.09095066370613641,
          0.05204309976102585,
          -0.07316269711999827,
          0.14736755578507832,
          -0.12864466699699423,
          -0.038467612185705546,
          0.058920232159526756,
          0.07044230137411446,
          0.005871646905371968,
          -0.10771468151675256,
          0.16238012219861325,
          -0.07293019379407918,
          -0.1943981520212351,
          0.01943877082628713,
          -0.3065011660746444,
          -0.3098894393788556,
          -0.19701842063067593,
          0.07466371861123887,
          -0.08433327455632769,
          -0.024569379512684755,
          0.25230171197779,
          -0.0004617675521548485,
          -0.022103328361647467
        ],
        [
          0.06927149647022375,
          0.09947497135026638,
          -0.03491219638251148,
          -0.05450957745862986,
          -0.11573486400542082,
          -0.24234687677975705,
          -0.13811855343878002,
          -0.051964758509984145,
          0.09994885583187131,
          0.10605853831892453,
          -0.05143418164052728,
          -0.03205872234011609,
          0.09979122727360315,
          0.058467957510860716,
          0.1702747700175575,
          0.09571044636017392,
          0.11001632910776414,
          0.021697994455917403,
          -0.011460090526400452,
          0.1994603732285055,
          -0.06726752487181506,
          -0.07024093397508706,
          -0.21612645295335284,
          -0.11759963236645875,
          -0.0035785151291585623,
          -0.05057872291919189,
          0.030811113562371713,
          -0.2869838356971183,
          -0.08383677452149531,
          0.10980212859227144,
          0.014757772810379991,
          -0.11896743143109645,
          0.08091316879131549,
          0.3124308755031452,
          0.24817824422189927,
          0.09611647093835377,
          -0.0027953889684426475,
          0.13650653985944658,
          0.33716256575654147,
          0.05229464197890749,
          0.026520615618371858,
          0.025966195968717343,
          -0.0020298848294741175,
          0.09431923313640705,
          0.10172817255192293,
          -0.05910999777996446,
          0.10819904748834076,
          -0.27566799197715847,
          0.13689186740091644
        ],
        [
          -0.18266294406004246,
          -0.04680599820608787,
          -0.03568424721440208,
          -0.1532518968683599,
          -0.004458085461104308,
          0.05527135397399809,
          0.028917150499376928,
          -0.034997016147980495,
          -0.08629944737444907,
          0.1539515992678238,
          0.2044795939674398,
          0.08910099185128603,
          0.11357168050742153,
          0.07888589583567772,
          -0.055647415375021984,
          0.010875672909514682,
          0.19575101439598216,
          0.0007019580649915052,
          0.1333263860847099,
          0.1711623307369238,
          -0.00015265216962930006,
          -0.01641377516871299,
          -0.05910178159440001,
          0.07416001798206226,
          0.06161432776158701,
          0.1787682158454055,
          0.08151196428288462,
          0.16919861850597487,
          0.13996481118535842,
          0.0472574883644033,
          -0.2738185600818142,
          0.09536993951236615,
          -0.03509077013480461,
          -0.13361909061764957,
          -0.05707655310443471,
          -0.19942335211054174,
          -0.035590572439159356,
          -0.19083997662785818,
          0.10758476357886897,
          -0.07309003132433342,
          -0.20492194250599827,
          0.10619543922175774,
          -0.0016651623393369168,
          0.13728728138353988,
          -0.02798642893401428,
          0.002858822003408667,
          -0.058307836475327654,
          0.05172765078746611,
          -0.07320430264096431
        ],
        [
          -0.03429277791751567,
          0.19365231576925793,
          0.1187181992014802,
          -0.036133166451620534,
          -0.03426390553311143,
          0.10149169178019696,
          0.2778439442364261,
          0.16665052767641406,
          0.1868553174164103,
          0.04672335198630751,
          -0.2981077519232579,
          -0.24451469797864334,
          -0.06515857760741252,
          -0.01908576749433472,
          -0.20546183293538056,
          -0.24216283932911153,
          -0.04402474296187275,
          0.07263628000081873,
          -0.15313651856253527,
          -0.21384247046465177,
          -0.10580353765404746,
          0.11688518591259346,
          0.14746057262855203,
          0.07034478106358952,
          -0.1995687983296124,
          -0.030644220693099137,
          0.07151179676580079,
          -0.13556473192579166,
          0.08164250745919222,
          -0.14272128232303533,
          0.12600937331825204,
          -0.09373464801068261,
          0.05300667916135311,
          -0.011948203790553303,
          -0.12337994654224976,
          -0.3136351149547262,
          -0.024645550951442302,
          0.06580720089249628,
          -0.035339623181424876,
          -0.27085853846746655,
          -0.07836638769616586,
          0.021419386511900323,
          -0.3869746233346894,
          0.006753791225029974,
          0.07203681449046725,
          -0.20715738039767254,
          -0.14160013488208253,
          -0.1646361297619837,
          -0.17599913609423226
        ],
        [
          -0.19269351113665403,
          0.14896010445151725,
          0.002014354340600316,
          -0.07823072388448811,
          -0.046459411192438474,
          0.14441469784296923,
          0.1043799902530352,
          -0.07148002454698506,
          -0.23190083600551614,
          0.0014759117557021147,
          -0.01681923333488,
          0.20490444359831758,
          0.1061438114390261,
          0.02324286471725566,
          -0.07140661060975176,
          -0.11993931917371188,
          -0.17651284228613756,
          -0.03343033018937966,
          0.2988047822823062,
          -0.06587211264409809,
          -0.09320433683165649,
          0.1389567474401698,
          -0.17504692607221442,
          0.09495203028806393,
          -0.022584878854900767,
          0.07987292270402464,
          -0.2403834236478919,
          0.10243421915403988,
          -0.02752431316311828,
          0.027612085385634342,
          0.26586253031786655,
          0.052083393663275704,
          -0.2159723574850137,
          0.163359153265755,
          -0.28948403889572893,
          -0.1877094003850475,
          0.06696851648880214,
          -0.08871273167192996,
          0.09583370914670788,
          0.029151032763969385,
          -0.20178800135006694,
          -0.037412539428788014,
          -0.13605246696920856,
          -0.006370570905125946,
          -0.025747276134860858,
          -0.1588675687300352,
          -0.1330026073807902,
          -0.10444729766083223,
          0.12331974097265556
        ],
        [
          -0.2785539770485115,
          -0.06505309970045915,
          0.14863600575712088,
          0.026652786019611248,
          -0.2527201662806282,
          -0.052685968143931367,
          0.1368912374915162,
          -0.15070634112557016,
          -0.12374807468583754,
          -0.07303600737217493,
          0.06542178576696037,
          0.19757375136158736,
          -0.22160685742086958,
          0.09064883482339642,
          -0.12569045549503371,
          0.04048176429585925,
          -0.17507301019911606,
          0.13406999009956735,
          0.07080489312457315,
          -0.27374534829337477,
          -0.22104377098061292,
          0.2109553405659698,
          0.06204878376232466,
          0.1252990161387153,
          -0.2170371342773474,
          0.1545693456242023,
          -0.12481888350379043,
          0.10609028226784513,
          -0.15908374008343787,
          0.11345573595536997,
          0.12521700633113128,
          -0.08740580629336521,
          -0.09524436886633159,
          -0.304054597430768,
          -0.3256759799182787,
          0.16547485431340964,
          -0.011382258404739724,
          0.025005216430496142,
          0.09370939212041307,
          0.1424438628316943,
          0.21826995869601817,
          0.19771694181772329,
          0.13275106153249888,
          -0.0653604032599192,
          -0.011072242120903695,
          0.15632612649713917,
          0.019469848704011403,
          0.07862276371785105,
          -0.15973592392139205
        ],
        [
          -0.14116046911187197,
          0.007545325718093423,
          0.010095151114222153,
          -0.055036659530230035,
          0.015551799240171369,
          -0.058027931154782296,
          -0.0882951159948589,
          0.07893100116274396,
          -0.08872068327449086,
          -0.043871188742478875,
          -0.03224035725340918,
          -0.11560536603647668,
          -0.00200218522940764,
          0.04989435866846406,
          0.15455515114440568,
          0.08612827667773669,
          0.1699803423902717,
          0.14791763042968822,
          0.1699174338613823,
          0.03134629758892044,
          0.002007496838441816,
          0.050360185419292526,
          -0.01337727644080886,
          -0.12117583696922532,
          0.11291211396778264,
          -0.08857088936661367,
          0.1394791591591346,
          -0.06739813071272038,
          0.1351242350286761,
          -0.1775049372041396,
          0.23846035096341237,
          -0.10193542932534705,
          -0.09553111983326047,
          -0.08075552096125349,
          0.051541586025307326,
          0.09158167841448778,
          0.01537964886730615,
          -0.004148820469239008,
          0.030563733840967486,
          0.21309216537208578,
          0.12538920679661752,
          -0.07630522192347713,
          -0.24083249936004025,
          -0.06673192442685076,
          0.09013161497963162,
          -0.08991683815249908,
          0.17020447524015386,
          0.14432698133145544,
          0.033040813118208
        ],
        [
          -0.04184018239045088,
          0.049360393376998365,
          -0.1525226752000912,
          0.2992283072700314,
          -0.06476187028245084,
          0.03947859849859054,
          -0.04690671817226514,
          -0.19277153610151324,
          -0.12573437845532176,
          -0.08049421752789533,
          0.26603446975634276,
          -0.03269721799216609,
          -0.126846796456672,
          -0.05716437299241522,
          0.02879935317333441,
          0.04827511227829176,
          0.10019290605133703,
          0.0224018396675909,
          -0.0746833081815013,
          0.1305902134777634,
          -0.10659201718535716,
          -0.06551844766860034,
          0.10850016101993352,
          -0.04434477597570617,
          0.028078998841894236,
          0.03314411074018796,
          -0.05776774379866991,
          -0.06394329072487279,
          -0.021569826909728713,
          -0.18155639856542885,
          0.054030416218421216,
          -0.10612297315137946,
          -0.014070303658575468,
          0.08658947614266212,
          -0.2768422004000252,
          -0.004819092528941456,
          -0.12528714914490444,
