{
  "architecture": "49->64->32->32",
  "layers": [
    {
      "input_size": 49,
      "output_size": 64,
      "activation": "relu",
      "weights": [
        [
          0.032490450649022284,
          0.5354259571895875,
          -0.17732476946200534,
          -0.03416318161150066,
          0.04927132206024177,
          0.15268020963995368,
          -0.027054562204643542,
          0.07648408003232848,
          0.13934564681693068,
          -0.08189553091528656,
          0.012037210391506384,
          0.1668762165491336,
          0.021168007349417917,
          0.12026012010983471,
          0.22984652624840546,
          0.006010305083376525,
          0.04177784917768908,
          0.23314114219231089,
          -0.006655551150785075,
          -0.09615850515370929,
          -0.03435551709524813,
          -0.03481165460417515,
          -0.017202384228599807,
          -0.07470851080333606,
          -0.14869710346146947,
          0.03522231569188058,
          -0.13310116995493132,
          -0.06406169952458637,
          0.0398921112962019,
          0.0707443609060627,
          -0.14784482376739336,
          -0.19017688122462043,
          -0.08558938771131479,
          0.1817313404367399,
          -0.021539642530303868,
          0.03815200299463763,
          0.04437518286003227,
          0.002687154278704988,
          -0.16954762038361199,
          -0.13700397951706447,
          -0.02064481860002362,
          0.042964323246230375,
          0.18369905590784713,
          0.34458796359164306,
          -0.1917544446017688,
          -0.004510722623273187,
          -0.011946834875744378,
          -0.01681408816858305,
          0.01923410816363058
        ],
        [
          0.060549429768175164,
          -0.08242957364887564,
          0.08040418960807175,
          0.012106632853248983,
          -0.056654247034287016,
          -0.006439983099552381,
          0.14521151868974824,
          -0.044513710779353254,
          -0.005768046486064993,
          0.028102735139575445,
          -0.010881863730532924,
          -0.24520106491128768,
          0.09418269358122967,
          0.131401165315535,
          0.09361167958306658,
          -0.29219263052562583,
          -0.12354692024595881,
          -0.13614170172106274,
          0.012822053430114059,
          0.073916523287585,
          -0.14933921474646517,
          0.09283701329873052,
          -0.04264701870245393,
          -0.15859946739675165,
          -0.14612882932279297,
          -0.014703178317759906,
          -0.10399167373072012,
          0.13369824768007638,
          -0.07174969840713885,
          0.09664114077293283,
          0.17818936679788966,
          0.23316703700053926,
          0.07368877274751323,
          0.011104429008618888,
          -0.14651912093981628,
          -0.10373199577685002,
          0.051680268057398185,
          -0.1181386861409925,
          -0.07030051410120335,
          0.12343386989546658,
          0.03504534261995461,
          -0.0022078973014651856,
          -0.01594775715964843,
          0.17779777527880042,
          -0.2061432296754782,
          0.015954897274005796,
          0.2328946205568071,
          -0.17338411576392643,
          0.08395812590090189
        ],
        [
          0.1841597752684672,
          -0.04524005722997081,
          0.00976810137898214,
          -0.02125092867163744,
          0.0012121793493736007,
          0.04815429345758765,
          0.08353178309971175,
          0.3436693696747283,
          -0.19241951973713534,
          0.027251875058881603,
          0.016000704750707084,
          0.04022418452724719,
          0.021878387646133104,
          0.012192740986528419,
          -0.2344692174721376,
          -0.10981273874164257,
          0.07065796250264154,
          -0.15110112849548227,
          0.031417927641605004,
          0.06331217709829376,
          0.17545669538747874,
          -0.08524705475729777,
          -0.09044576184257118,
          0.31287346849055175,
          0.24681962832929644,
          -0.030234583475870182,
          -0.02034520027774681,
          0.2280898123280665,
          0.14431394476299997,
          -0.13393765890721754,
          0.09547628472341577,
          0.03890322167721472,
          0.0653158121226573,
          -0.0060575528705004095,
          -0.031111624883348916,
          -0.3260628226001641,
          -0.028709383860051844,
          -0.13621235188922984,
          -0.13592564563062987,
          0.034451175329053195,
          -0.12743475785800726,
          -0.11665494242788206,
          0.009605084415535635,
          0.22224104197167435,
          0.1578193648278862,
          -0.08405947930443655,
          -0.18488276756520838,
          -0.029734686916855938,
          -0.04197562698906295
        ],
        [
          -0.16329968110885443,
          -0.1813285274042228,
          -0.10687047008031621,
          -0.2100186422469436,
          0.15130013830223435,
          -0.10214027436461666,
          -0.12404967197153194,
          -0.09580371354654833,
          0.05901182926249719,
          -0.13946475437974856,
          0.06926172431076845,
          -0.18268218342066708,
          -0.03387517046665116,
          0.08643523284276827,
          -0.0981637351638824,
          -0.04613534388364852,
          0.0757522095768903,
          0.012840522783193751,
          0.11661550559019299,
          -0.13487724402852827,
          -0.24301511814900867,
          0.12096071589729586,
          -0.0851360891400739,
          0.00951447080501688,
          -0.0009324024212159598,
          0.05389259038099527,
          -0.08295560038076538,
          -0.006649376293557823,
          0.02249337800285952,
          0.1928847122927687,
          -0.10655119206933379,
          0.01599123079782106,
          -0.08531114064276228,
          -0.154395119923655,
          0.07010348992735044,
          -0.11357873133873637,
          -0.10893632115473602,
          -0.07496340580206494,
          -0.3481794350000327,
          -0.025211665057598566,
          0.23954635647127276,
          -0.18160174033251003,
          0.2075995534072796,
          -0.08803825408186369,
          0.17316865175861001,
          -0.06623474531548763,
          -0.37075692167400087,
          -0.07249965983401399,
          0.03602402103367615
        ],
        [
          -0.00796167122644546,
          0.1571596707307324,
          -0.12142257313446893,
          -0.005730136431479001,
          0.14040165224960874,
          -0.10442097162262394,
          -0.13317497773194045,
          0.09571196978835415,
          -0.08066198769443925,
          0.17175025251161827,
          -0.0973461006348572,
          0.008926088883394287,
          -0.1579404770654911,
          0.025894075496763983,
          0.13650631473447944,
          0.16603134683494675,
          0.012884764111007311,
          0.04824083166439267,
          -0.057860745880254943,
          -0.02814111555515471,
          0.2679154495245172,
          0.03316512806760864,
          0.000532334342805365,
          -0.03414418572880151,
          0.05224216109898931,
          -0.07115994599125829,
          -0.15237321089158806,
          0.14859250252885714,
          0.16831796046171724,
          0.10071720730554168,
          -0.008823841337513332,
          -0.24973632886912578,
          0.07163188616608292,
          0.22621697061658202,
          -0.0014633633175310289,
          -0.13544335392653772,
          -0.029610110664343815,
          -0.008018731673106736,
          -0.20018541702976403,
          0.04503521063830032,
          0.18233245414425464,
          0.09711552808345633,
          0.10738124593775845,
          -0.01932220274340151,
          0.005458246030622779,
          0.08809690803447756,
          -0.35385844686463164,
          0.2521880313497661,
          0.006630915373234364
        ],
        [
          0.0014492354709289108,
          0.3294202483186083,
          -0.1871833443845514,
          -0.09879967261003052,
          -0.10793572930972592,
          0.002265205144797952,
          -0.1235610834250382,
          -0.0021073436444296423,
          -0.1093692425093437,
          -0.011847066839684818,
          0.03291584648197021,
          0.26172025882968375,
          0.003975498697686857,
          -0.0092573726498464,
          -0.22592596572305487,
          0.07150351527450405,
          0.010242282765414775,
          0.051394641028131814,
          0.002674011942002889,
          -0.2061507018679833,
          0.16037174017866043,
          -0.16883447206535995,
          0.12874587435767063,
          0.03502450636598623,
          0.1401979279821846,
          -0.19734878302599873,
          0.31468758642364975,
          0.17399222084299865,
          -0.1707213389300401,
          -0.018386785562682344,
          0.04691442234421396,
          -0.01540271529330384,
          -0.10308406490191332,
          -0.1580754837177338,
          0.1506899426375925,
          -0.0518292424327975,
          -0.27029108775453875,
          0.05216712768810417,
          0.08785798186614782,
          0.3149034061298643,
          -0.3577128031066388,
          0.045261664524307445,
          0.039491607434673746,
          0.08227844396041294,
          -0.14158497960581776,
          -0.042497118229972985,
          -0.03510406463951744,
          0.02255153233714518,
          0.024100614629800766
        ],
        [
          0.21978180387013752,
          -0.09606700826556847,
          -0.08069533727727751,
          -0.19769680396384015,
          0.15665142445074556,
          0.0917740925856925,
          -0.08319539039750785,
          0.056139470262415454,
          0.06731192700912851,
          0.25977158428509534,
          -0.09988444776084558,
          -0.08265213035110999,
          0.1171835265018851,
          -0.05566443458548111,
          -0.06392019434385454,
          0.12887577358431232,
          0.029497072002090813,
          -0.02718599775606665,
          0.0043539250001982934,
          0.15285741832748273,
          0.03025106479632324,
          0.0002528232017930326,
          -0.14624361130552682,
          -0.03487680768720976,
          0.2205454330737505,
          0.20615056930971007,
          0.14495787611846703,
          0.08077794490476078,
          0.12545039662215032,
          0.18290420435774576,
          0.09037489279299851,
          0.2318068969543246,
          0.13305801806901166,
          0.04250242962922597,
          0.10948308561887889,
          -0.02577639011801538,
          0.08923774196782322,
          -0.005947217980445073,
          -0.049249026162706946,
          -0.05608794606315299,
          -0.16487705969927408,
          -0.009282190908591224,
          -0.14308569135263588,
          0.05990312864463116,
          -0.0689709885989809,
          0.1654471306438478,
          0.023405226079403665,
          -0.23590382661370501,
          -0.10405674525747813
        ],
        [
          0.006548455168078462,
          0.03288196482638599,
          0.03652461911882383,
          -0.055830113201361296,
          0.09870904557544703,
          0.10891768871879375,
          0.23001169381569647,
          -0.019139024342739015,
          -0.04129317993401791,
          0.03711585409701336,
          0.10454809335547699,
          -0.10942238095697719,
          0.2231675976282806,
          -0.13064444391603305,
          -0.0354411171290548,
          -0.14913400723525647,
          -0.056534429964878605,
          0.02213041940582403,
          -0.11310229875048819,
          0.08816851234203536,
          -0.029045777342389452,
          -0.07678116059472004,
          -0.1386118177484856,
          -0.11155736619003259,
          0.05862006137974884,
          0.0973034688995366,
          -0.15857870837721694,
          0.13959083558688318,
          -0.16153788509286254,
          -0.030704369876406457,
          0.1694918603067023,
          -0.09958871298769618,
          0.13664867774024403,
          -0.1534350274873401,
          -0.2382019051230746,
          -0.08349017515093728,
          -0.1670453270060198,
          0.3250418266282299,
          -0.00793538508337324,
          -0.09330510203052715,
          -0.10634230771402792,
          0.13158171846389669,
          -0.10012920390461595,
          0.07727329346712934,
          -0.15808320965738926,
          -0.017400354111382774,
          -0.018285151896136626,
          -0.007559802455895766,
          -0.09228295656919792
        ],
        [
          0.005193700772153106,
          0.1445732869502317,
          0.07544616597905945,
          -0.22350837923153785,
          -0.17926576012960851,
          0.061893881131993025,
          -0.2450056691802203,
          -0.23155642772637128,
          0.11990424548744308,
          0.061844869567618345,
          -0.09688431095662657,
          0.04410028078284048,
          -0.1251369163141994,
          -0.10633042627536514,
          -0.22108370034788324,
          -0.06273642030702092,
          0.009091313486818063,
          0.14251992202942443,
          -0.12336201682706487,
          -0.1984987266886313,
          -0.0013333231084940265,
          -0.016033034976107495,
          0.053823314699499414,
          0.09276857584785675,
          0.01982288911329342,
          -0.06904886368738782,
          -0.11722437104202217,
          0.11385473829446076,
          0.059867185080243926,
          -0.17336915001808895,
          -0.07138228542071988,
          -0.07811899400203409,
          -0.026132180923720518,
          -0.03821016018100246,
          -0.06585308956386057,
          -0.1352381321727512,
          -0.039095677284496796,
          0.10442613439675157,
          0.023002613552826852,
          0.017534649006228205,
          -0.10135694725346671,
          0.014869731739682111,
          -0.14898027873964903,
          -0.033686209050375594,
          0.29919956764485167,
          0.024446470478174658,
          0.11021586651423079,
          -0.04599999115088257,
          0.0022540188487481148
        ],
        [
          0.1666694682650619,
          -0.12591864371409725,
          -0.10771435868930976,
          -0.2833820185150338,
          -0.03682352139279021,
          0.11033709156841269,
          0.07922264610622039,
          0.012598179434699073,
          0.12833206641859998,
          -0.21856288589383052,
          0.008372355601901625,
          -0.005965631822393219,
          -0.06484540693116637,
          0.07792662753711886,
          -0.12279303496402882,
          0.11816585059844015,
          -0.0938818219208953,
          0.08708613181844092,
          0.12833319477678756,
          0.07236805108435251,
          -0.0872883762799875,
          0.03948293130265483,
          0.19406749005563317,
          -0.03825558351879938,
          -0.2017175432759735,
          -0.012923454079644058,
          -0.1257549374606727,
          -0.05958215913479655,
          -0.03190880536794856,
          -0.03247987337259021,
          -0.13427254237526628,
          0.1711565315339047,
          0.1318836521398178,
          -0.008006578096714,
          0.06681729882150315,
          0.08809381609489997,
          -0.14922569081994852,
          0.11896414000084034,
          -0.1205169509179845,
          0.03810217106308305,
          -0.11309997397118221,
          0.03790655419127243,
          -0.031918467656529316,
          0.0726467814409509,
          -0.2542388796396276,
          -0.10010892513235992,
          0.025976790302012043,
          -0.07344765475517807,
          0.09317042831356301
        ],
        [
          -0.13145849410690666,
          0.24949075726124137,
          0.1277299605040322,
          -0.06589638518987381,
          0.12981546663665247,
          0.06633984161125192,
          -0.03289790633177599,
          -0.1685157257902713,
          -0.10481097196088279,
          0.11525302482696308,
          -0.022638074771383566,
          -0.19260831537789605,
          -0.07688583165902114,
          -0.0974884980607208,
          -0.27530262710620174,
          -0.1684238699080139,
          -0.15020655638031782,
          -0.011490363559911076,
          -0.48084654712609504,
          -0.24291403732717068,
          -0.22250264350592985,
          0.0027491015690819845,
          0.16432312605095564,
          -0.09644999175430317,
          0.0745948172896667,
          -0.03839613916425046,
          -0.08698446394242972,
          0.08372335140615601,
          -0.08548602216699416,
          -0.0768183171907591,
          -0.13834556579190221,
          -0.046795159993752874,
          -0.15386358828356306,
          0.19389328401410894,
          0.2600482171067204,
          -0.0508111923593372,
          -0.19919592820329377,
          -0.13146498170262266,
          -0.10656570189952083,
          -0.24434077369970184,
          0.06251763324970204,
          -0.12265798551431116,
          -0.05991739223100952,
          0.11918871328952083,
          0.07570757517481791,
          0.0277569480341749,
          0.16605139716044506,
          0.041578234121207286,
          -0.0046403484793357905
        ],
        [
          0.26944968692881904,
          -0.08466290594780791,
          -0.1897251341278276,
          -0.2647409184818035,
          0.0009678533537780422,
          -0.01595703866662794,
          0.022341665010162114,
          -0.048363660691180525,
          -0.1285344060057094,
          0.06130692293562388,
          -0.1692202205119954,
          -0.31055540639957163,
          -0.047597479216960635,
          -0.03653662671413252,
          0.19182912169890587,
          -0.10971295946233202,
          0.15837554966160314,
          0.1850632623967259,
          -0.1956141996974093,
          -0.144828590113699,
          0.20428355683666277,
          -0.08790592126240433,
          0.11540731719783712,
          -0.10202690954557635,
          -0.04345221213360298,
          -0.1858229852662193,
          -0.016610545974563216,
          0.023008959537080684,
          0.024546003426202338,
          0.11287949217325967,
          -0.07803411947029294,
          -0.1716502632597805,
          0.14200846599375697,
          0.23978478957501795,
          0.3031365577873588,
          -0.20888189583490582,
          -0.09553078296754468,
          -0.026557370964785634,
          0.051472469056182885,
          -0.024445637966544573,
          -0.11379734702570009,
          -0.11124421895718759,
          -0.17355488182875456,
          -0.17861622311205888,
          0.22322269278438392,
          0.014219634819723066,
          0.05611446426789327,
          0.054630425565998106,
          -0.09961955490812802
        ],
        [
          -0.04411340796581041,
          -0.060196303075005606,
          0.010440371089656914,
          -0.1510091864613421,
          0.04677438749667923,
          0.06308978036725517,
          0.05909371767023903,
          -0.00014398430717775957,
          -0.07585591068114723,
          0.11055395406982042,
          0.10873000725724795,
          -0.1576653500809089,
          0.08682124650982388,
          -0.21320892007210768,
          0.08328830978575173,
          -0.029014378964913507,
          -0.013229946083058266,
          0.023417944916340517,
          0.1320590189909684,
          0.14167183984390458,
          -0.1613914237020958,
          -0.1027618272085151,
          0.08562860964433096,
          0.08630734361926137,
          0.013738251062477672,
          -0.03848959608152165,
          0.1803410360036839,
          0.19331659147542304,
          -0.015701323480378924,
          -0.2047319596942487,
          0.10061167358611794,
          0.07449695770377911,
          -0.05731817514104251,
          -0.05985368313516213,
          0.11853684341224616,
          0.12055372172569949,
          -0.004967256609171149,
          -0.10566826295704967,
          -0.009648170172718382,
          -0.054529508964593534,
          -0.069583914796367,
          0.029845436670489375,
          0.1006085622623967,
          0.26320883089537483,
          -0.18010470353559077,
          0.0019300433217983252,
          -0.029956772721967707,
          -0.16841172252161576,
          -0.10275661551705034
        ],
        [
          -0.16914068256744194,
          0.0797398485590497,
          -0.043772212768922125,
          -0.14638740898072633,
          0.08288262861166233,
          -0.10889434430744152,
          -0.029590452967575155,
          0.09341452791672931,
          0.1158077162652856,
          -0.15240685530348744,
          0.03420125783402367,
          -0.03833860848843308,
          -0.09285952130934341,
          -0.17298897691432696,
          0.1816242318220323,
          0.1508972921669248,
          -0.17105011401247172,
          0.10402187829227992,
          -0.09370297624123723,
          0.0843725570002108,
          -0.013285461393786443,
          0.22914899649393633,
          0.09093193507310735,
          0.059465058361188906,
          -0.12262598128660154,
          0.05390446650267881,
          0.01509942351287816,
          0.015056521927331009,
          0.05983597907432833,
          0.13602911375154855,
          0.23234222571386517,
          -0.15312609039193317,
          -0.2784344996754925,
          -0.11724845469893351,
          0.018063796436286143,
          0.007635952352762249,
          0.08761508079326623,
          0.160791802835908,
          0.055332578612739575,
          -0.03640418293952999,
          0.06991866493535866,
          -0.07740218186693053,
          0.1328121411790584,
          -0.00700823095202217,
          -0.06773312134957536,
          -0.018640594381913685,
          0.01760028325019153,
          0.08644228577532219,
          0.01315538492048389
        ],
        [
          -0.08512018685923507,
          0.09749221176887807,
          -0.12978112323202387,
          -0.05589938126811995,
          -0.16133047182495147,
          0.2568417680191874,
          -0.19147256859352202,
          0.013794161031495146,
          -0.0835221578601923,
          0.02157859764137008,
          0.05593821202554566,
          0.04839777199115079,
          0.03997065372502301,
          0.11686225853202165,
          0.11679603272578397,
          -0.03266234473812007,
          0.03842725443937837,
          -0.02067135077926442,
          -0.06213239349295688,
          -0.2313142214117647,
          -0.0815230122287343,
          0.009870868124812079,
          0.03204150963770336,
          0.07335972883460763,
          -0.03091243361153469,
          -0.03406020385854772,
          0.0483738626968404,
          -0.020004074073236743,
          0.1918512569941381,
          0.025567737295355764,
          -0.14794934425274978,
          0.06777937395195889,
          0.018209909235351915,
          -0.13984104304066644,
          -0.02144490932299102,
          0.1758598157665286,
          -0.10271444629702084,
          0.08382830099291803,
          -0.052670323854136766,
          0.10616369290298358,
          -0.005583489795771572,
          0.20791145562687008,
          -0.16851344523881429,
          -0.01688104956113597,
          -0.05365074287816235,
          -0.00205707038919816,
          -0.01831805617678646,
          -0.10252589069660885,
          0.01802781284840615
        ],
        [
          0.021532302681611257,
          -0.07260565625663609,
          -0.14903160026679524,
          0.16262924409345936,
          0.02376225969986667,
          -0.014787151691893095,
          0.08198554217311134,
          -0.1514925810148868,
          -0.03838770781827611,
          0.024200307469904467,
          0.10468018917379422,
          -0.1379999370376067,
          0.19609914665155923,
          0.12813343171141223,
          0.10415982651213693,
          0.030602673775357973,
          0.08717045910647783,
          -0.0887271536953207,
          0.018916696540722013,
          0.0395045816532931,
          -0.191355397155881,
          -0.14199926030992568,
          -0.07848621650069233,
          0.10705732272918163,
          0.24483170531925344,
          0.11220130628946319,
          0.0433952438626611,
          -0.018658510769326297,
          -0.046383358777800136,
          -0.27387670851327334,
          0.09624717100495676,
          0.007312504849899383,
          0.07584700174210156,
          0.12348375715092673,
          0.017590447134749516,
          0.1769546483981654,
          0.07891557031842755,
          0.11302064449373583,
          0.10452874695757074,
          -0.024964025267081816,
          0.18605196442147995,
          0.18616326472615197,
          -0.04220652373276061,
          -0.2799831080343885,
          0.014646951818753324,
          -0.036520619967936485,
          0.026791897912468422,
          -0.046196261466856,
          -0.026747883874690844
        ],
        [
          -0.21473476650946038,
          0.2323544557832691,
          -0.08935101830161912,
          -0.20933360558335548,
          0.05118330630316217,
          0.02050524464207509,
          0.0490627171987813,
          0.11408331515613893,
          0.11383730271293925,
          -0.12421863638902823,
          0.048084444296739075,
          0.03460018358692662,
          0.09023365054320312,
          0.21237840169318384,
          -0.3708427005898172,
          0.10358437261736726,
          0.03190936502530412,
          -0.16014507763871677,
          0.13839361595829036,
          -0.16552684226097275,
          -0.05633748377318768,
          -0.04617183061960737,
          0.016241232675724297,
          -0.14571864142875007,
          -0.14545271651816905,
          0.025576339979274495,
          -0.2707661505423023,
          0.07098384261368124,
          0.1722046823440039,
          -0.12914421473413698,
          -0.03298405567099858,
          -0.04216430989694379,
          0.056740970111529926,
          -0.13028160151397283,
          0.04808395878563841,
          0.15140374197965362,
          -0.06795011566409896,
          0.028045466143177104,
          0.04782031380702834,
          -0.2629170739885823,
          0.06908048752192082,
          -0.10409325007171566,
          0.023747021620175533,
          -0.06125977239616031,
          -0.16514595046000793,
          0.0943821676807815,
          -0.03222850929140739,
          0.07279702360765976,
          0.15847317984963294
        ],
        [
          0.34533496276303044,
          -0.058199959501784734,
          0.3313468684547648,
          -0.06496460275221963,
          0.1608917067416178,
          0.18568286753612567,
          -0.042626395229668,
          -0.27311901425560003,
          0.0811494231794881,
          0.05628824231773701,
          -0.08382603071924345,
          -0.13633988597564464,
          -0.23996242983897664,
          0.06275947784689316,
          0.06622614383218423,
          0.025978225777165822,
          0.005031781451689081,
          0.003161404061006867,
          -0.02749307492670626,
          0.1875630381678281,
          0.019252590397951082,
          0.11330880224235458,
          -0.06610258739673582,
          -0.057530108987019844,
          -0.2531770738925943,
          0.001967335574133088,
          -0.10193639949057232,
          -0.17993344663890534,
          0.029253867831737824,
          -0.024360400862621576,
          -0.08520206634173107,
          -0.007439674654978247,
          -0.019062404852248912,
          0.07446028994552296,
          0.04438003591103209,
          0.05569987036640023,
          -0.15248024826370354,
          -0.03502277726654724,
          0.14690189668687598,
          -0.06564725338694734,
          0.15323637848792596,
          0.08299352045102107,
          -0.0066844085079687835,
          0.012612771597850918,
          0.04091475934704449,
          -0.0325124281293931,
          0.10233899715348832,
          0.028591439149375147,
          0.08665973868778601
        ],
        [
          0.005868063297622766,
          -0.261847619999572,
          -0.000774691407843933,
          -0.11409814536844805,
          0.04897986081884053,
          -0.11133688081870967,
          0.045253944251365724,
          0.0788351450947248,
          0.09984825593191615,
          -0.08864603846742462,
          -0.0809619237863182,
          0.04447538603092476,
          0.11754148139043456,
          0.003603254284491505,
          0.1446461385563868,
          -0.10198783555043311,
          0.09055101820328572,
          0.008224599649968573,
          0.19336578227682066,
          0.3683561892302713,
          -0.06147859045125973,
          0.1552541631497828,
          -0.051583414174625815,
          0.21596688531533056,
          -0.0821088855756484,
          -0.15967336535468418,
          -0.01862462128887905,
          0.172422172729614,
          0.15927774485941437,
          -0.26414418630865466,
          -0.05213365132420604,
          -0.10454462759200572,
          -0.013046068603775503,
          0.1603606927832602,
          -0.14779214127761953,
          -0.16648876812127786,
          -0.020627570296552412,
          0.05078808369476067,
          -0.09803716948220646,
          0.2206140945325158,
          -0.1999814779575379,
          -0.05001649427333633,
          0.03836149463562405,
          -0.206073248886411,
          0.12817368784490635,
          0.012052872982408532,
          -0.0379820116330146,
          0.12494962669578703,
          0.2548119299641766
        ],
        [
          0.17458528863605718,
          -0.047884444091503324,
          -0.02627814249555147,
          -0.11690376652855325,
          -0.06947495271133192,
          0.1638618574481981,
          0.15091602109440563,
          0.015550636474618703,
          0.1869413965425735,
          0.05395180153978668,
          0.014188855955522167,
          0.004905492812775722,
          -0.06256468773747619,
          -0.0038581891975361113,
          -0.055748430768415826,
          0.022259291475610937,
          0.1813679205482981,
          -0.2611388659327184,
          0.07196536400724622,
          0.035270533777805514,
          0.11404890581928018,
          -0.02480290984380457,
          -0.032533918718617744,
          0.03185056062959001,
          -0.043288503510529916,
          -0.20687192613138558,
          -0.021124783614726136,
          -0.06775535087001328,
          -0.29333096559904115,
          -0.18723814726376872,
          0.1424136594092457,
          -0.11111718491201514,
          0.007178279107615397,
          0.08025189858261464,
          0.1446291572244109,
          -0.08791518461616868,
          0.019855397068566497,
          -0.005123924432112329,
          -0.22515687041451773,
          0.1120517746811247,
          0.11063152097638528,
          0.028024643408210946,
          -0.09104975279648275,
          0.21908857820231162,
          -0.08397455710145721,
          0.03565768105840614,
          -0.1961986840836702,
          -0.17859501386191415,
          0.0008274156369564822
        ],
        [
          -0.02034053859241575,
          -0.024797266906135856,
          0.025605618719369342,
          -0.15321118194489142,
          0.166753380702722,
          0.09615918788421755,
          -0.011795546149365652,
          -0.1682958447876926,
          -0.07691761049834364,
          -0.011953183587329589,
          -0.15242576263965285,
          -0.061122557150687595,
          0.23631204001055703,
          -0.15112441836155804,
          0.1702239472617843,
          -0.11033821334811934,
          -0.06825245968230154,
          -0.1050463530821248,
          -0.03613563424426196,
          -0.18185171019563753,
          -0.26079618363913354,
          0.19771215746366408,
          -0.09430599298319761,
          0.08516897156833214,
          -0.059906073831904376,
          0.19048257478761357,
          0.018569389237628544,
          -0.050034858214170884,
          -0.2234621745539195,
          -0.150614591818916,
          0.21620348010176035,
          -0.06901906810672209,
          0.16299213224284909,
          0.19587217644775803,
          0.09399723591732399,
          -0.25463357270479803,
          -0.00011201094090586682,
          0.09984639857194277,
          -0.048246002664809384,
          -0.23409880984894949,
          -0.08477269910937875,
          -0.23138395609653145,
          -0.01283097723071149,
          0.09803986473756804,
          0.05481461250001484,
          0.0114040979769332,
          -0.057484821135712814,
          0.05939069614562453,
          0.0595316773492669
        ],
        [
          -0.21205723326683923,
          0.09230300796907923,
          0.15862773145747922,
          -0.149581408581862,
          0.03024381671681349,
          0.04217051378753263,
          -0.07994267068085412,
          -0.034865161224149094,
          0.07136075102079811,
          0.004283901671542028,
          -0.013825620486056098,
          0.19869889199717594,
          -0.03744960326208028,
          0.09271979966079139,
          -0.27570468664959913,
          0.013406445663407008,
          0.03626033038857389,
          0.2875029314818819,
          0.026867036208974463,
          0.13325102433834526,
          0.10034751965128628,
          0.062387100467868044,
          -0.023675709621744874,
          -0.15889273850055124,
          0.03629978569670787,
          0.06300319708801501,
          0.06643205231604243,
          0.07123962088390111,
          0.04704747725730413,
          -0.029288587971520542,
          0.2178006922233295,
          0.12606598003172761,
          -0.02786018311317997,
          -0.021406640903720246,
          0.046683090840789004,
          0.1299926563507955,
          0.06355340479852267,
          0.06706390393371957,
          -0.006455725817676139,
          -0.09263932421341885,
          -0.03574911215329823,
          -0.03231121315051818,
          0.25297653187608593,
          -0.10773906186611813,
          -0.03282892884439772,
          -0.008903575553123067,
          -0.0689720470995344,
          -0.08227774366819408,
          0.18245576197864524
        ],
        [
          0.0030946332753110286,
          0.22512305102646202,
          -0.08635119067019441,
          -0.028196226060020257,
          -0.1995136977316221,
          0.20304480875963576,
          0.06203156080995095,
          0.11503150544308964,
          0.0295275413287596,
          -0.2100974016865887,
          0.19993775612593823,
          -0.3125603232583063,
          0.09227384521668107,
          -0.03355473585982839,
          -0.060536089674432136,
          0.217165217521184,
          -0.040340353568353714,
          -0.07328837885429096,
          -0.24248133178318018,
          -0.08109833315546054,
          -0.0033857979652104297,
          0.013882928884076332,
          -0.01658808449764962,
          0.25375715448268216,
          0.21066461679856546,
          -0.03761177668261326,
          0.12282341960774927,
          -0.14845031106294082,
          0.09134482114094586,
          -0.13418857762191305,
          -0.10421045788908798,
          0.05708934132074409,
          -0.262866539362231,
          0.025600019414919666,
          -0.10577278823815509,
          0.1671220296262894,
          -0.08202704228793167,
          -0.11022502146843903,
          0.11659728187083782,
          -0.08224007755440264,
          -0.019772144429522194,
          -0.05355108560396646,
          0.16974729539369274,
          0.07829585790098424,
          -0.2827849149641685,
          -0.11787882224345869,
          -0.01170493561201938,
          -0.09918946025562402,
          -0.06116533147491734
        ],
        [
          -0.24264588644098167,
          -0.27145412709439853,
          0.05853446292260723,
          0.03651033830817848,
          -0.010937058172747635,
          -0.07126483440609108,
          -0.15335381225293304,
          0.031682619257198556,
          -0.1557646438912303,
          0.26931212012175937,
          -0.16807177846165613,
          -0.0773605428207385,
          -0.06115645109766186,
          -0.05455520505194933,
          -0.001590135937900525,
          -0.07239281655230012,
          0.18479586283356675,
          0.02495344000475924,
          -0.21977244630179033,
          0.15724160997749656,
          0.3127686360282211,
          0.16730478149079536,
          -0.05431394597201807,
          -0.2231772372422503,
          -0.1520270405730347,
          0.38235506707498496,
          -0.13366530349043246,
          0.18582496163496298,
          -0.00385757665990652,
          -0.17119444229051342,
          -0.04468283607934084,
          -0.0148163688136442,
          -0.10937828267790257,
          -0.182239171642893,
          0.02292686023138487,
          0.07093629737581643,
          0.01444224702244323,
          0.16248167934884278,
          0.03313817433740714,
          -0.12469403881324494,
          0.028771847561967896,
          -0.072387338542611,
          -0.03218852519614286,
          0.14307568844378754,
          -0.005955746972044434,
          0.15713353438521271,
          0.0364232268338841,
          0.09921779812874254,
          -0.04431589654129039
        ],
        [
          -0.05364919231300145,
          -0.059704501836412675,
          0.1033353914057102,
          0.008986685094931529,
          -0.04734179460164679,
          -0.011021155924550175,
          0.1206194159649324,
          -0.23164613581913188,
          0.12828623571793746,
          -0.024105463482936615,
          0.012338289389872352,
          -0.052307763738380385,
          -0.1196121448757532,
          -0.05364535007679113,
          0.0797550330208441,
          0.4314732378716765,
          0.007552801986215474,
          0.09423211764884049,
          -0.07290034050186261,
          0.2478186495787426,
          0.0743812809398271,
          -0.19446201354943307,
          0.021737888144882075,
          0.040602266526920464,
          0.05870623189737,
          0.1316316843768985,
          -0.03555561631393841,
          0.14775894622701144,
          0.10796512048157256,
          -0.2755038130527381,
          -0.06894381893164116,
          -0.07043163398310147,
          -0.04260556278271495,
          -0.1428728099911866,
          -0.21210983187213633,
          0.09473835191702988,
          -0.07265989270811113,
          0.29921234532345536,
          -0.1893327912734055,
          -0.32366486008300155,
          -0.06819548069254601,
          0.3769518941016,
          -0.15792052895453762,
          0.004843132018589426,
          -0.06188324116161235,
          -0.1151658030444424,
          -0.01831988748279955,
          -0.05951395615286755,
          0.2148009037898083
        ],
        [
          0.09282330508774564,
          -0.018396838191891206,
          -0.007750547619372847,
          0.18176023837292005,
          -0.017628619644840256,
          -0.23839021852040063,
          0.31586057549338203,
          0.15602640993982259,
          0.06879220796496513,
          -0.03430387587629111,
          0.016667628980087043,
          -0.00716969434529573,
          0.012446180368995025,
          -0.14980236473474548,
          -0.06200835761290691,
          0.04054258547437468,
          -0.0997306926393761,
          0.030337825478300974,
          -0.0001256329670992965,
          -0.07331894527705901,
          -0.01466323825314609,
          0.17928117488717757,
          -0.1094328007902903,
          -0.10567127046623076,
          -0.09651930103600383,
          -0.09417063768798284,
          0.022399290988545383,
          0.049372603900310105,
          -0.04941750065884132,
          0.1879933875813071,
          0.16405710336379586,
          0.04981756275581858,
          0.062248334309768956,
          0.08201175646302637,
          0.005716632753352087,
          0.08604326799047701,
          0.20346899260321624,
          0.32548050205674284,
          0.03869214487712113,
          0.08312925799589119,
          0.16805865458774857,
          -0.17110350426121312,
          -0.06348954160599496,
          -0.043914576334110236,
          -0.06357770862069398,
          -0.053496925659376186,
          -0.027814999814545664,
          -0.05988571083342671,
          -0.03438897125361083
        ],
        [
          0.09015558203069719,
          0.055483136290144244,
          -0.08267057726316532,
          0.25033575143947023,
          -0.0486914326161767,
          -0.03656085646649216,
          -0.012797560638457947,
          0.20173938298195526,
          0.155608662586301,
          -0.008517348380660195,
          -0.09015080273055091,
          -0.21771123918201718,
          0.13006493028962512,
          0.11339239364070251,
          -0.19384930122461985,
          0.03611458438510521,
          0.08401188069385324,
          0.06212205361810652,
          0.11707810231510252,
          -0.020314226020987772,
          0.34555527228227956,
          0.1899616076976174,
          0.0521021628328658,
          -0.019028981145258757,
          -0.14840542634556425,
          0.11592083374454781,
          0.09128147041852752,
          0.26787314820091274,
          -0.08204062186509509,
          -0.11295473368083667,
          0.08478199369840031,
          -0.05597065791894032,
          0.07342304520270228,
          -0.03798317422808882,
          -0.029792015083625258,
          -0.23301154435633908,
          0.1672912558790369,
          0.1140570304110551,
          -0.11611827008133309,
          0.14343408730650012,
          0.2834125657718548,
          -0.16600788989180523,
          0.14908563570355504,
          -0.14605581454851221,
          -0.0571722241468924,
          -0.059768155028556834,
          0.18919578952343816,
          -0.12322303297130198,
          0.276607785083327
        ],
        [
          -0.12361420076786356,
          0.05151671345221411,
          0.08361503791210947,
          0.062130757168532266,
          -0.13143324321247177,
          -0.06715188371456061,
          0.028571658456669126,
          -0.2261902380170469,
          0.040695880471666716,
          0.22950460445388995,
          0.09658180744727048,
          -0.18783719033929816,
          0.10520277011229284,
          0.19894731324214474,
          0.13673437544473685,
          0.0182427559952236,
          0.206990728772912,
          -0.08912596225325672,
          0.02164460068622958,
          -0.09236499694913386,
          -0.18528474677233508,
          -0.13995683559185204,
          0.016873122582796253,
          -0.1353602230688282,
          0.0007848888150027049,
          -0.18858171984378683,
          0.058490515396403306,
          0.12274178466139805,
          -0.35607883327743295,
          -0.013953570355767452,
          0.12804816356982726,
          -0.09912244029653108,
          0.20528938798371074,
          -0.03436037798520927,
          0.20047026768557527,
          -0.21605533047905542,
          -0.06947842346251148,
          0.11645891398085673,
          -0.19133316132147118,
          -0.10773385953614462,
          -0.08522952622068639,
          -0.0022084539128639355,
          0.0026830043718939394,
          0.03200100729316871,
          -0.20412489945691872,
          0.22484200300871784,
          0.22485074656917975,
          0.1717410386495581,
          0.08990309642870242
        ],
        [
          0.15495358402527268,
          -0.00858029280010117,
          0.18768280743433335,
          0.20849640629196686,
          -0.02832680773931666,
          0.0399402534129887,
          -0.23143225461121356,
          -0.13265461687163435,
          -0.09236668198268803,
          -0.08030413592355125,
          -0.016847175601967083,
          0.2939648599312081,
          0.11358435162772196,
          0.17652076297384586,
          0.1797980925010024,
          -0.07755718787276059,
          -0.10983873917891275,
          0.03387457951616894,
          -0.014641514558361894,
          0.13064505912139224,
          -0.1549977367311836,
          0.011303101838573085,
          -0.05453975273314861,
          0.028451795530901783,
          -0.09587988040620278,
          -0.03954048115917714,
          0.05401475469433108,
          0.006339576101619403,
          -0.026525784889071088,
          -0.11356558430927988,
          -0.13706761415353513,
          -0.16569557991388886,
          -0.011784345057084438,
          -0.07577454830975432,
          0.35782183462337885,
          0.07393830853677621,
          -0.19904923451995454,
          -0.047581317663287076,
          0.18111669274812559,
          -0.017435975576689935,
          -0.06868028087751028,
          -0.20422998929608818,
          -0.06407074128639889,
          -0.05654857642575791,
          0.04621377726500012,
          0.05055421887863353,
          -0.01841924054520884,
          -0.15897062051296823,
          0.1423140457568147
        ],
        [
          0.12469299418655698,
          -0.14267549968532087,
          -0.19763929386424176,
          0.04701264850891058,
          0.05766372706702459,
          -0.11523683171360427,
          -0.020810288160683112,
          0.18494924470835744,
          -0.06389671866528007,
          -0.2120208651663458,
          0.060920084655467256,
          -0.043252959897639845,
          0.061422657430178794,
          -0.09926547651570145,
          -0.15140295907379536,
          0.13538126707861536,
          -0.10092011748962261,
          0.18986502361791857,
          -0.09751646747483896,
          0.12133512542932388,
          -0.07918965750308171,
          -0.05231689448884941,
          0.0151897651218174,
          0.0373585448763942,
          0.0075903891365984265,
          -0.0014154462433564365,
          0.11047845511499249,
          0.06241170340240415,
          0.009920331109048493,
          -0.05279245677332621,
          -0.13410912108736273,
          0.343796330868811,
          0.18741680284428858,
          0.012197625204819299,
          0.15593314958089743,
          -0.0007744967366144376,
          -0.02295022564784757,
          -0.1973549666129894,
          -0.017904751041117987,
          0.0897509973434257,
          -0.03653266239998245,
          -0.21181903158487186,
          0.017661484077934702,
          0.2722241022551041,
          -0.26174662108149976,
          0.1436308228102602,
          -0.08556622069095876,
          -0.09411408808237919,
          0.02043137277246278
        ],
        [
          0.056333446686343665,
          -0.10057078690671827,
          0.13079470990969033,
          0.15462672688861107,
          -0.15339629271070884,
          -0.05042477762214392,
          0.16249804108079227,
          -0.2193230466122612,
          0.23136999591641105,
          -0.24202894991484972,
          0.0696794664377568,
          -0.0116036039135504,
          0.1043244940886619,
          -0.06711414953952864,
          -0.012927681529210151,
          -0.04977502739662774,
          0.3009503930242723,
          0.07944267726052716,
          -0.07939910239617837,
          -0.07251979710915381,
          0.05185351242501658,
          -0.24217909599698023,
          -0.0811289827722494,
          -0.13722978554616713,
          0.04761959306424304,
          0.02712772041837207,
          0.16378880477614155,
          -0.07292233295746507,
          0.025020706327322034,
          -0.2207596499012971,
          -0.306669996807284,
          0.05343467094500722,
          -0.03183675926660818,
          -0.08400496486538517,
          0.16754281855166836,
          -0.05836415926956196,
          0.009277901603779767,
          -0.11478439225227077,
          0.1811472348087832,
          0.10676113346782534,
          0.05204249469018554,
          0.041566943487301354,
          0.22405082815521435,
          0.15260612100994533,
          -0.006360843971206603,
          0.146517552121891,
          0.13925962097134914,
          -0.0608906199780957,
          -0.03955712321773963
        ],
        [
          -0.10922893519839749,
          0.11893540395585353,
          -0.18075953700551645,
          0.04727090307488972,
          -0.011385127098386535,
          -0.1644398710583039,
          0.23628612709400562,
          0.22102881231951754,
          -0.03531894990814524,
          0.027818851197843632,
          0.05207831468306242,
          -0.09659384903657961,
          -0.011912513415758498,
          0.06923150173101662,
          0.01966366409105432,
          -0.003931073243991777,
          0.07188740319237895,
          -0.0014852749259844282,
          0.025605727192042984,
          -0.21797915001615234,
          -0.07193127650897217,
          -0.20243388320041258,
          0.06988238899613082,
          -0.21536049544133404,
          -0.001286019703955707,
          0.09420317970344462,
          -0.04917603830307134,
          -0.11277581898266437,
          -0.003062751515537119,
          0.06066245381122612,
          -0.07268902263652653,
          -0.07320470138772286,
          -0.21286306644940334,
          0.10465944456790183,
          0.06600788609746168,
          0.10753170057946067,
          -0.2050161274050762,
          -0.0031856017539087377,
          0.07712892664364868,
          0.013268163369718703,
          -0.23013914655240794,
          0.20527181881410017,
          -0.035344070979804514,
          -0.1235756924517552,
          0.23255035588373124,
          0.024317103500039832,
          -0.1201206613514941,
          0.09486034983290578,
          0.12249315775244825
        ],
        [
          0.13782208759706457,
          0.10675646691217092,
          0.15424813959290015,
          -0.05900265511068916,
          -0.22873943163896704,
          0.19190790319458928,
          0.24041237681845204,
          0.11068666037400851,
          -0.020527320234245403,
          -0.17699906345895144,
          0.21373612199999964,
          0.19605109787979594,
          0.039082069391401776,
          -0.13853445659418268,
          -0.10368519691379323,
          -0.12526514942159914,
          -0.046878173728463486,
          -0.12260035881706474,
          -0.11245550256668499,
          -0.021796483682936144,
          0.2518883525593409,
          -0.23286601428350073,
          -0.05198483765428184,
          -0.1631366651442309,
          0.044472381142040926,
          0.10581913064820683,
          0.17223659638991062,
          0.04049669889908798,
          0.09506933565183942,
          -0.1088539196976315,
          -0.10970724423945372,
          0.10803540148205322,
          0.03257444420233196,
          0.0007544249986309288,
          0.1244729903962813,
          0.02241772919415137,
          -0.16531995201909325,
          -0.021527567023600393,
          -0.027977189577934818,
          0.18203015303884573,
          -0.23798933528259641,
          -0.13830583345691158,
          0.1047572682640928,
          0.04307766214802433,
          -0.09610151082207348,
          -0.11466403728637273,
          -0.07925728713370413,
          -0.1646124433137606,
          -0.030183568620282007
        ],
        [
          0.20356749828627438,
          -0.05205756126936003,
          0.10785808646207273,
          0.0994471330198023,
          -0.09344974980239575,
          0.07633481481239154,
          -0.1318261469577292,
          -0.21264665054495122,
          -0.12145306956436121,
          0.015835414194275733,
          -0.10437336760758792,
          -0.07355602657092737,
          -0.03415401441529574,
          0.006910289670473235,
          -0.08418297264198336,
          -0.24429997680931384,
          -0.06489096836308642,
          -0.08416088112323224,
          0.16679754136675987,
          0.12060910670464274,
          -0.20435957226319065,
          -0.16247371321903503,
          0.008093818060120266,
          -0.13147804120463302,
          -0.05159663836833784,
          0.1861906542071028,
          0.09689254089988443,
          0.20112427353886336,
          0.17948348634024422,
          -0.17914409510991935,
          -0.26338510441512236,
          0.06163694957791729,
          -0.1950648553872777,
          0.11817193942950466,
          0.2303843632943038,
          -0.09834128411099254,
          0.18424854184391717,
          0.11952993141060993,
          -0.027266672724808677,
          -0.018944196731462772,
          -0.13715181674010668,
          -0.20870087345687646,
          -0.2913917664842808,
          -0.014482116488603427,
          -0.10116826041655463,
          0.022444058429021346,
          -0.21897903049083317,
          -0.28893743525705806,
          -0.1341870409855279
        ],
        [
          -0.11394011947710471,
          -0.1917813545703336,
          0.07764795676569844,
          -0.08534798850074893,
          0.14493406572936066,
          -0.06663836495178012,
          -0.19418661171984555,
          -0.10596005263458826,
          -0.06849594889827716,
          0.08069669245008085,
          0.22401348734508847,
          0.10980274510055532,
          0.035687082112214615,
          0.07564979047497594,
          -0.10216580229334565,
          0.14929361931390872,
          -0.11530446169669568,
          -0.04881493593270065,
          0.03606909451205202,
          0.25022622678405254,
          -0.09637654349341085,
          -0.17233621536714674,
          0.3294581011639207,
          -0.00944686934114171,
          -0.07525501637989006,
          -0.05775104821133122,
          -0.05473558999764623,
          -0.04908665682096887,
          -0.029726603139742992,
          0.0936563387864147,
          -0.09453133383659844,
          -0.07917874932041942,
          0.00013313989959083032,
          -0.13052877435298485,
          0.12381898058600978,
          0.20340182258262957,
          0.07534653484711912,
          -0.31099766714605576,
          0.22044173040223053,
          -0.14845278765150488,
          0.014023696220366545,
          -0.12267422016870407,
          0.1568218812255083,
          0.0075903698469959036,
          0.10670771007024296,
          0.09422595567363895,
          0.020283433023958405,
          -0.20020813639665974,
          -0.07835490759732132
        ],
        [
          -0.04896047550492761,
          -0.13397562253216772,
          0.030284307626653174,
          0.2627246698348994,
          0.05272348505698023,
          -0.02485107159940782,
          -0.0019135132751166432,
          0.12751960178747257,
          0.0852580501453615,
          0.1022887383287151,
          0.04307014967488765,
          0.046132992008078876,
          0.01544467760006723,
          0.09379920539739159,
          -0.05468440011354123,
          -0.1586719594542398,
          -0.025891137223385333,
          -0.0073899552689554,
          0.13238396855493165,
          -0.044064464537484076,
          -0.08063266841530879,
          -0.09449198636854306,
          -0.13790844553173015,
          0.13751775064926658,
          -0.15196553956118133,
          -0.04961216264533313,
          0.21925504163181786,
          -0.24983963868682862,
          -0.09491869445316656,
          0.13581090268996848,
          -0.07036247935284226,
          -0.12550761297051122,
          0.013725078976720914,
          0.0706521735031152,
          0.09789770614778809,
          -0.07763482398873338,
          0.018871616746353757,
          0.07828130033599558,
          0.10116101835288335,
          -0.1085871722755073,
          0.13037083852491646,
          -0.1892944226117393,
          0.009730016063701158,
          -0.16669803897490187,
          0.021144073839034515,
          0.11805424994163985,
          -0.0022074464914606036,
          0.04110889615510029,
          0.16031575901686865
        ],
        [
          0.03168725374153995,
          0.1076250881449787,
          -0.08711271404151422,
          0.015177358712575844,
          -0.06665838382485846,
          0.0066029227902464765,
          0.049731395303295546,
          0.217686111629179,
          0.07645743512802256,
          -0.06413841518637495,
          0.13334120914702674,
          0.22846738710061112,
          0.09035222258159566,
          0.06352454311172041,
          -0.017951561849892564,
          -0.06046662292154574,
          -0.26979766021582324,
          0.18928043426511748,
          0.00437540674334643,
          -0.26259034494935735,
          0.09167998027306287,
          0.004623184304390663,
          -0.042178130343827704,
          -0.032488947932744976,
          -0.05218545743380238,
          0.1791074572090508,
          -0.10857525843160427,
          -0.05618673129332767,
          0.14677141644309324,
          -0.1279350085270591,
          -0.11226428444907782,
          0.24910253648558728,
          -0.05516722910601877,
          -0.15620772280004444,
          -0.013838649778999505,
          -0.16821871769554325,
          0.015238993324336167,
          -0.1929837366157156,
          -0.22172819644162572,
          -0.03993526607183845,
          0.1648023024652146,
          -0.06206153505155744,
          -0.07311673762781631,
          -0.1366826788258759,
          -0.11045103328803019,
          -0.07224169991131639,
          0.02029891730153478,
          -0.07145181520772428,
          -0.23959803464062387
        ],
        [
          -0.17712423639661942,
          0.024008027918180463,
          0.34734326836546564,
          -0.025571347640126352,
          -0.12203232383735495,
          0.008437466516459347,
          0.040010525698133605,
          -0.0004398427381621431,
          0.061537665630697534,
          0.04745084265302732,
          0.1344758330048878,
          -0.03358958901896602,
          0.155128125268689,
          -0.21518442835055837,
          -0.18146275688198565,
          -0.09198864800319272,
          -0.17460557255416728,
          0.2315427318076694,
          -0.0720632239668965,
          -0.02192358656936163,
          0.21974587492094955,
          -0.030243353089377055,
          0.1687887481901985,
          0.18706115762518155,
          -0.0049915891461999205,
          0.11431604387165874,
          -0.10835182190447233,
          0.10803651445467095,
          0.13605009239352162,
          -0.03422875832109688,
          0.0045125316105962526,
          -0.18493981845704824,
          -0.03954705557812712,
          0.02713658266982079,
          -0.1045569222486066,
          -0.16318840546104185,
          -0.1757805577587109,
          0.09517575165069798,
          0.0615459687444433,
          -0.1391286380658249,
          0.06821793065550875,
          -0.06275592153938876,
          -0.06417840614814209,
          0.1358404720251768,
          -0.15710224051789548,
          -0.13896468727286723,
          -0.22083656350250946,
          -0.019027942328016474,
          0.07260880405497448
        ],
        [
          -0.06756958696609529,
          0.06663087403083873,
          0.064752429382705,
          -0.011328141342495782,
          -0.15534693775594635,
          -0.16039438388658564,
          0.11880030804857354,
          -0.06978248298186007,
          -0.075589303692468,
          0.01975254579002143,
          -0.21052621305261573,
          0.061703758005031584,
          0.050469515856044,
          0.12476367719346988,
          -0.15045791713051487,
          0.03926029279231892,
          -0.0047914547237424355,
          -0.01078993085129418,
          -0.14629944657175417,
          0.015406196937839775,
          -0.03175145118658414,
          0.03544877401352102,
          -0.1407785811568909,
          -0.09887881150195542,
          0.06314044912361597,
          0.08386454284031505,
          0.12238686784772769,
          -0.0722832303044211,
          -0.15650782482247802,
          0.15468758978735714,
          0.12415236870453414,
          0.1623480920574235,
          0.12476247130037607,
          -0.27275141192116886,
          0.11950273466939101,
          -0.09249580861963562,
          -0.15833334482879702,
          0.17255056441178165,
          -0.039219400538086355,
          -0.16708185928477468,
          0.0008981462128167008,
          -0.01220510385728049,
          -0.1846155645211159,
          0.06864586169531516,
          -0.2549397010049293,
          -0.04196984784037503,
          0.08986998527379568,
          -0.21282910376402367,
          -0.06977558593983929
        ],
        [
          0.000442252862704176,
          0.0082509608868268,
          0.10802476850948524,
          0.20020686045880232,
          0.22858189395124218,
          -0.30525695104434747,
          0.16789609696231828,
          -0.0791518217659523,
          -0.18199916047488374,
          0.000738269394513174,
          0.023752077935748416,
          -0.03803248668301416,
          -0.18993665362440107,
          0.1537431761334076,
          0.07290452015835275,
          0.11401147803497265,
          -0.06733511819622176,
          -0.04141857240000318,
          -0.21259951306519512,
          0.09560234182156563,
          -0.12965877991762287,
          -0.00739741420376253,
          0.07264421895541301,
          0.08665065990211233,
          -0.07664920920499572,
          0.0935788325025883,
          -0.2127970130317733,
          0.009981548167363116,
          0.09071188639522072,
          0.18813201118760908,
          -0.0034468168996709633,
          0.021512446552310528,
          0.00888715901582761,
          0.13703392226258376,
          -0.07035387831787494,
          0.10580928203391853,
          -0.1081433496711803,
          -0.15106732676934434,
          -0.1070176830877132,
          -0.021741826535434113,
          0.14250829728963474,
          0.10125939508039483,
          -0.03210898589590166,
          0.08998870631884097,
          -0.08831045680554736,
          0.2309256636023506,
          -0.026321443373793586,
          -0.1614237092957587,
          0.022796236552556602
        ],
        [
          0.03937196160707711,
          -0.13095610674400116,
          0.053118614485248676,
          -0.1332686362956602,
          0.05537722459330071,
          -0.0032888834379611385,
          0.19897951699989486,
          -0.08760365747572715,
          0.024046850641749995,
          0.10753694815699055,
          0.09869772994682616,
          0.11206381688274868,
          -0.2090634058974201,
          -0.027388756481619703,
          -0.1676421609489233,
          -0.06606568297938956,
          -0.04430442982789843,
          0.14652147047793213,
          -0.21041152591094137,
          -0.14617088816922985,
          -0.14456853338683787,
          -0.052867487340388486,
          0.20327651292071275,
          0.0019021334333333701,
          0.14170785043768908,
          -0.03065514656339446,
          -0.15670091320786259,
          -0.03893046972312342,
          0.0900654079975865,
          -0.34877476540079255,
          -0.07090074218307242,
          -0.07197366293480699,
          0.15930717201988906,
          -0.21866411231106073,
          0.021605467193717493,
          -0.060477483436758905,
          -0.11295058361814642,
          0.058588171074479,
          0.051529255705448654,
          0.2723982784353965,
          -0.06771332352700266,
          -0.1042636460156011,
          -0.010401998320118847,
          -0.07496913272943168,
          0.27738699847346565,
          -0.17056607694009043,
          -0.005438108979807145,
          -0.15116105775644406,
          -0.01346865365072348
        ],
        [
          0.033512340668224144,
          0.4043042717407975,
          -0.15002427492608358,
          0.14906875592694568,
          -0.14114995704457092,
          0.08147496596107089,
          -0.1393652452830218,
          -0.1063635801724631,
          0.09742836828828484,
          0.024430198751156137,
          0.05390576550535251,
          0.027184954068022762,
          -0.22082580585706477,
          0.24102771801721548,
          -0.024755111383770675,
          -0.002508210120333372,
          0.13359289768241006,
          -0.07965863452472804,
          -0.004269032131186091,
          0.149870473924638,
          -0.03948384775775779,
          0.032643027053703554,
          0.09703378980471407,
          -0.16748255747848922,
          -0.17976570994964539,
          -0.09318504604795673,
          0.017883857713341302,
          0.09501767641028414,
          0.11163113074942409,
          -0.09526034794369713,
          0.014843319296849289,
          -0.06991356249591167,
          0.0034022841833486733,
          0.14281352212774573,
          -0.115504550721856,
          -0.1900482738245669,
          0.12690189951741623,
          -0.2012507323788917,
          -0.07279292312469673,
          0.038561089031688436,
          -0.02227213870547043,
          -0.050799993318784806,
          -0.23374441447969446,
          0.007914855960071047,
          -0.12079896915755305,
          -0.1867284716820186,
          0.17096852511621569,
          0.16844254097676972,
          0.055021403609109336
        ],
        [
          0.13917756899990397,
          -0.06567487433105444,
          0.0038533383551411907,
          -0.06964900049746828,
          0.03832085391953958,
          0.031173416366301977,
          0.1294468056432659,
          0.04955835087228311,
          -0.17267470292560508,
          -0.041740559213006005,
          0.08814376343504111,
          -0.08097419947983346,
          0.0845845001505096,
          -0.33921736912153055,
          -0.1822652851053483,
          -0.18213158439855412,
          0.226123545288398,
          0.050209765108733755,
          0.022162087436029498,
          0.10130927412839096,
          -0.028973856066941604,
          0.03598079533410569,
          0.07524559822524436,
          0.10684893459839052,
          0.045998875538082816,
          -0.1414048835629742,
          -0.072364909626273,
          0.22969945401722136,
          -0.05169268893995777,
          -0.23003372463649263,
          -0.12518120342256228,
          0.011066632211040709,
          -0.13633993504393924,
          -0.022760594382782714,
          -0.13790504592958697,
          0.12193777049926512,
          0.03679376569198253,
          -0.09628204854601533,
          0.07120370167139044,
          0.09324528836994708,
          0.0925047801563012,
          0.2414007885429874,
          0.05233424838312296,
          0.09764631209426074,
          0.006191837027864844,
          0.0651991012942826,
          -0.13976015622244017,
          0.1105267247763463,
          0.039659630309973264
        ],
        [
          -0.07939103843308248,
          0.019412543974837472,
          0.14725333550594644,
          0.1705264212836063,
          -0.1323503438010162,
          0.012173723349916846,
          0.10279937994929879,
          -0.09847913943735795,
          -0.01168975703361127,
          -0.26366489856590525,
          -0.06228254055421622,
          0.19803428475655682,
          0.22164147310333834,
          -0.14648658031921455,
          -0.06803155276655597,
          -0.09460094570185222,
          -0.11754327906006314,
          -0.0012602379381183232,
          -0.11606453084913905,
          -0.28198456423450324,
          -0.1510730501546841,
          -0.09820018142625221,
          0.24742537704905845,
          -0.23158076947744843,
          -0.14854017932898778,
          0.2678939068606585,
          -0.01366053046452359,
          0.1044606661875364,
          -0.04142712886638172,
          0.22885861237670888,
          -0.18464962728662018,
          -0.008507317557453898,
          0.11583872158598575,
          -0.0671144343792039,
          -0.026453417185562402,
          0.09882818621046746,
          -0.07762483041341772,
          0.05982267675639118,
          0.2746607453183644,
          -0.08490909698740412,
          0.09564522859610061,
          -0.0670594705833013,
          0.024263677214755662,
          -0.22502163592876495,
          0.204876759048628,
          0.09775314853226777,
          0.02173146986240086,
          0.06787481692556105,
          -0.07884190259182926
        ],
        [
          0.09499306727406955,
          0.13357630863880693,
          0.005116862239325567,
          -0.20886550144220672,
          0.00519179145369293,
          0.12981641798494498,
          -0.04534382941380846,
          -0.22635130904458714,
          0.13278985530140341,
          -0.06404262718227541,
          0.18492510748568378,
          -0.09289744434462573,
          -0.05959178947632247,
          0.031272463583532306,
          0.12331747303264494,
          -0.028002841857004458,
          -0.030321587009758837,
          -0.0803604637516022,
          -0.26606472631057515,
          -0.06616183542778471,
          -0.11136304814953119,
          0.040371998017337284,
          0.14939836215743227,
          -0.11000199934624552,
          -0.16688254134592367,
          0.055797757488840735,
          0.035075621431796565,
          0.14270713135219718,
          0.17326808762364557,
          -0.02761381824628264,
          0.1656794636852726,
          0.07785021104358614,
          -0.0260171161590845,
          -0.013166098856703393,
          0.1423144393373729,
          0.23572003366080796,
          0.14563469549781374,
          0.09641565672364145,
          -0.028105795805348492,
          -0.17867588554600158,
          -0.1278354793211482,
          0.017617973229442533,
          -0.1565939580521381,
          0.029783363886647114,
          0.16405850570953023,
          0.04764237984751375,
          -0.1726326378039418,
          -0.12092743070535517,
          -0.16122336994322617
        ],
        [
          -0.05437793125186764,
          0.09972930117414588,
          -0.14297752165459574,
          -0.13861923674695806,
          0.14295008974055887,
          -0.07646136872280829,
          -0.1571010247506534,
          -0.007130116941774042,
          0.06493794439211524,
          0.099971703533338,
          0.09785591133662606,
          0.1716200335872846,
          0.023402723364542848,
          0.04113781405902091,
          -0.016873795405337184,
          -0.2776839054770344,
          -0.15364269945476572,
          0.010948566503743398,
          0.23116167304050475,
          -0.01052532316035945,
          0.1093001932092181,
          -0.010606040311919264,
          0.06932445243478352,
          -0.13922347815463196,
          0.03792863871608515,
          0.09522769754532487,
          0.020350742102847635,
          0.28343912556285583,
          0.03085621589188657,
          -0.19638002770039098,
          0.16815130780807394,
          0.26229271992568665,
          0.058015411438195275,
          -0.07904568135015456,
          0.016795518568702057,
          0.14573913837394087,
          -0.21801670115332444,
          0.05883915401811695,
          -0.05558820248352714,
          0.17401984983062926,
          -0.2519239679405036,
          -0.09062695864752207,
          0.3086270155633423,
          0.057999313979664034,
          0.2184211971028776,
          -0.1305451120188639,
          -0.19398909727653568,
          -0.07978299368754324,
          0.136353031637971
        ],
        [
          -0.0041897997082690035,
          0.1754463953308106,
          0.0719525083232939,
          -0.10822814603778812,
          0.1653527840335582,
          -0.04075863020268691,
          -0.05504451955679191,
          0.11138013290426091,
          0.1153821443575326,
          -0.06003640987115149,
          0.01670002885882243,
          -0.08783644442157679,
          0.13526918679191877,
          0.16978866060098846,
          -0.07298557607794862,
          -0.06995025463668729,
          0.07019695902902222,
          0.07561546928344778,
          0.23042998049400848,
          0.0494390905049552,
          0.10197049138370366,
          -0.10299637382830262,
          -0.042309248176194046,
          -0.08959321245690972,
          -0.10929623107991124,
          -0.10478597609769631,
          0.029354745981819107,
          0.1909739572572833,
          0.2560835047532516,
          -0.15449067401013425,
          0.14443949254327149,
          -0.10885349930753502,
          0.1360573476110083,
          -0.0812214175217419,
          -0.11500498025964104,
          0.09572155156679892,
          -0.06092552320968024,
          -0.011747836200975534,
          -0.2820944774889106,
          -0.010745275913961327,
          -0.3010738861685577,
          -0.17822494932608815,
          0.12547153066694341,
          -0.06286514382718474,
          -0.1356993652782945,
          -0.06186854398523048,
          0.013381777587934445,
          -0.44589970511485233,
          -0.16400120492464026
        ],
        [
          -0.09398224801855964,
          0.07058381834668682,
          0.17172871861644096,
          -0.11824135223738942,
          -0.07600438198405962,
          0.001267093312762963,
          -0.051692669343090164,
          -0.19893306289634893,
          -0.04473335028443931,
          0.015650173021547226,
          -0.0100011972971916,
          0.04231463917790966,
          0.01614935898871507,
          0.2731655251478929,
          -0.12429872151340197,
          0.10380998254442389,
          -0.09405779903916242,
          -0.21563955518093353,
          0.09176755884181187,
          -0.15801496126837214,
          -0.13377323945690806,
          0.24413351410089307,
          0.17905406695264123,
          -0.2709207498658852,
          0.20410000334314976,
          -0.036087272741816556,
          0.002070690584721286,
          -0.019581841242482984,
          0.2965961911181356,
          -0.07833785728341895,
          -0.22006388298358992,
          -0.010562795059682661,
          -0.17842885371596479,
          -0.13551137928473506,
          -0.0408916607447515,
          0.05986080336580282,
          -0.14002482182629758,
          -0.09495414162360163,
          -0.13958583896837407,
          0.18164591285711615,
          -0.19215095475441035,
          0.20707545931994764,
          0.06296418758157006,
          0.1584694703544976,
          0.10530718754722666,
          0.06183497168694402,
          -0.1832754865856286,
          0.025541021143140254,
          -0.15115677123119048
        ],
        [
          0.17544396135783072,
          0.008725948736821372,
          0.04308580953754675,
          0.101361946106698,
          0.28211522738695394,
          0.06212027272996652,
          -0.14016484093119444,
          0.1537771379655649,
          0.0007372470604831082,
          0.04792475516675218,
          -0.04124144177855087,
          0.17796705340735397,
          -0.10524156405177353,
          -0.10615497573944332,
          0.048055407092601594,
          -0.12362801746121956,
          -0.0341443264090248,
          -0.16073509719010226,
          -0.032045178986763685,
          0.060939898749683696,
          -0.02796649163174771,
          0.11943578015348758,
          -0.15512936394059337,
          0.2978595196447153,
          0.024566691265984254,
          -0.07520460705311097,
          -0.05854305130691367,
          -0.04082057380967367,
          -0.06184325019792042,
          0.1592513364210827,
          -0.07038570418328428,
          -0.014051845114525173,
          0.07187198150144329,
          0.11440968450793888,
          0.13206193475734151,
          -0.08598223921358607,
          -0.05774032975842827,
          -0.10281139463054044,
          -0.1296000802675428,
          -0.12241827429955933,
          0.11944914142553793,
          -0.05203509863969999,
          0.05799181127456601,
          0.05440246214239849,
          -0.0017997843729988456,
          -0.03456350938273886,
          -0.10297483427333194,
          0.19325898799706698,
          -0.10463723754047849
        ],
        [
          -0.054314547719819146,
          0.12484336432850965,
          -0.14304239831506316,
          -0.17449479281974115,
          -0.16032551405502288,
          -0.24507257749580166,
          0.1842992668600424,
          -0.08769168660636366,
          0.0835808062123617,
          0.11365151700694084,
          0.10298140957492281,
          -0.01237125776504401,
          0.1146449541145557,
          0.12461878535684297,
          0.08950715133561336,
          -0.023534412904536523,
          0.06539970264915453,
          -0.08289234538802594,
          0.11833276445654484,
          -0.020654884343333436,
          -0.029448463079263472,
          0.07698517495737907,
          0.04709282191941722,
          0.014879747643300615,
          0.126800979933093,
          -0.24289566780372582,
          0.08648474260871306,
          -0.16573076155319258,
          -0.025083016201247314,
          -0.04602143824915346,
          0.1129527414097278,
          -0.03279484826721352,
          0.02771365904884562,
          0.19019235331106854,
          0.23720715474997153,
          0.12518562400139696,
          0.25458469167363657,
          -0.046215691226337736,
          -0.06301747851984937,
          -0.04223826473916795,
          0.33227011577550086,
          -0.06362471518068641,
          0.0313680724048352,
          -0.17969322596159504,
          0.08775553511600413,
          -0.027812713942008228,
          0.08707581888649968,
          0.10628184329765558,
          -0.09522322060194612
        ],
        [
          -0.021379791408063793,
          0.3421756277262983,
          0.11861287611723667,
          0.07845898460453316,
          0.0658675115324777,
          0.07664780797130148,
          0.038735176145063575,
          0.11420707947942281,
          -0.08538510882587994,
          0.1982723686538635,
          0.0096320518703786,
          -0.09468087977020231,
          -0.09523243838288152,
          -0.12823813744351514,
          0.017995614862608367,
          0.08749517393374748,
          -0.027406857568874024,
          0.31946557952565713,
          0.24298500166722625,
          0.09805120079857209,
          0.10907645919308294,
          -0.17835736470870706,
          0.06869846991352024,
          0.22609028259985806,
          0.023156345581938072,
          0.2811745251126707,
          0.0654601346882577,
          0.042015059579491906,
          0.10604975109572747,
          -0.055769984382471764,
          0.1320155385216007,
          0.1326186739172401,
          -0.02013017071711088,
          -0.0739846602845278,
          0.17773855567860358,
          -0.027934277247347296,
          0.0029724897127951025,
          -0.11556935641838734,
          -0.06528920265701715,
          0.004212654962067705,
          0.03880502820421443,
          -0.08610178390499473,
          0.02771442356265605,
          0.0879619927514168,
          0.2321942212210332,
          0.17758575908800886,
          -0.14618061467424373,
          0.07659702498525993,
          -0.05960698558254162
        ],
        [
          0.07148426935796605,
          -0.04744628068224084,
          0.018710235162912398,
          0.186452228228235,
          0.2576424579910971,
          -0.10158697119269987,
          -0.09435380086502645,
          0.15204532010032165,
          -0.10234332041052133,
          -0.11124217635510675,
          0.14789990984030985,
          -0.05311698038726463,
          0.05848589302226972,
          0.2869379488106253,
          -0.06895719046363635,
          -0.027460280238686397,
          -0.04407120195294101,
          0.0165690234605638,
          -0.06242054466492343,
          -0.18345365919439083,
          0.09956626711146797,
          -0.07730252463115056,
          0.08716510733114635,
          0.029451532117342836,
          0.17026081520948586,
          0.217628924387549,
          0.051483236823250275,
          0.0366901187272858,
          0.06277006953047799,
          -0.04573946391641574,
          0.11295968254793012,
          0.020139561207065546,
          0.12790687600892334,
          0.016463355357120325,
          -0.05496805879851647,
          0.010201324992626248,
          -0.05634831640381375,
          -0.12496030829744587,
          0.15810833674389776,
          0.20988689318125636,
          -0.14409535219998604,
          -0.17563318712531475,
          0.20616249971344877,
          -0.14093600508551538,
          0.0886945610036818,
          -0.1618470581175593,
          -0.040140063367596325,
          -0.035222570431429366,
          0.025536686351448786
        ],
        [
          0.10563507017250101,
          0.04505217175016722,
          -0.042209474738610434,
          0.2882716178284413,
          0.05565355139145229,
          -0.08021661936682284,
          0.39006347598932445,
          -0.0539786275272324,
          -0.07888765618199972,
          0.022309258495312498,
          -0.03481560421909597,
          -0.1370755261992,
          0.0224397331475421,
          0.09381462842652268,
          0.027461405978732208,
          -0.07927715040677061,
          -0.042385119878308924,
          0.04101079080207212,
          0.06107332756629334,
          -0.06979711443775004,
          0.12872323771224628,
          -0.11517848793578718,
          -0.12396528023876643,
          -0.11388511358963589,
          -0.08117424484546924,
          -0.031287279844708325,
          0.12500171093685017,
          0.050395907645262444,
          -0.05980132081634258,
          0.13147634358730614,
          0.1249711571371385,
          -0.1153039853922985,
          0.2812555132881532,
          -0.09737132793578608,
          0.04701222608032605,
          0.1802603731508496,
          -0.031239676459693985,
          0.09240929147347249,
          -0.26007210867679875,
          0.16788060405330482,
          0.23084911135670158,
          0.34083843113439655,
          5.872949847477151e-05,
          0.10639929421143829,
          -0.03710959488601404,
          -0.15139888854528663,
          0.10542310836958248,
          -0.029937459073548566,
          -0.0340931925971499
        ],
        [
          0.11573553114463543,
          0.109345021836557,
          0.08774384267271529,
          0.20425869315129894,
          -0.042306107080532826,
          -0.18222294010169324,
          0.14482701408735793,
          -0.002149389538283412,
          -0.14163183129473678,
          -0.011248244739192254,
          0.1358494942141979,
          -0.12487981917614527,
          -0.2369796416587733,
          0.135081273967759,
          -0.027091555455172753,
          -0.023488599768011962,
          0.0018704110951962623,
          0.08098580568737393,
          -0.2198166958616783,
          -0.04259153731242821,
          0.16023094537707275,
          -0.2559959723793105,
          0.08028178641166313,
          -0.05755275478757686,
          0.0382763387913132,
          0.35645312066146667,
          -0.13285711943402165,
          0.18247295809651873,
          0.06807508316775257,
          -0.06515033267842357,
          -0.02356952383065619,
          -0.14347236442913194,
          -0.00913050875829127,
          0.29552445003754624,
          -0.24717199018416658,
          0.1658964629882972,
          -0.1973441310584396,
          -0.1888254690742257,
          -0.029341086715487127,
          0.24397504214928772,
          -0.0768003886652587,
          0.057943689015262506,
          0.04651125855543243,
          -0.000470137320889028,
          -0.08881328150544693,
          1.554380767587035e-06,
          0.04307569261253954,
          0.09180464921798198,
          -0.06615327358079168
        ],
        [
          -0.018634160527118287,
          0.054212209378346206,
          -0.12972727523372288,
          -0.02956986294974142,
          -0.08781896297092893,
          -0.19011908121636698,
          0.05587855924853867,
          -0.18169593881225954,
          -0.042793421202879184,
          0.11233494029194638,
          0.15451969252482234,
          0.15243143580829013,
          0.3065637785708787,
          0.03691509424174477,
          -0.10193242994656024,
          -0.06754066259547369,
          -0.036596198520520574,
          -0.038819674185370204,
          0.10872177441399992,
          -0.14155237019728825,
          -0.0882988112578114,
          0.006272429249300504,
          0.0912653758765123,
          0.3279098581293875,
          0.07806704267965478,
          0.018828601248031783,
          -0.1753065362151327,
          -0.03184472132543356,
          -0.14612776100663838,
          0.04686182030533912,
          -0.08045497546946359,
          0.007969587082425409,
          0.20768427994848682,
          -0.1338891930219323,
          0.1196431840795209,
          -0.11141307133352614,
          -0.04458553880231278,
          0.10248691803535342,
          0.008226359150925207,
          -0.12967577725340865,
          -0.05393656642419326,
          0.10741415808604306,
          0.029987535222066083,
          0.019801086807276762,
          -0.04936451818573609,
          0.11550501207305704,
          0.10238278920695237,
          -0.1765455015448834,
          0.047379967832413494
        ],
        [
          -0.2412209419241962,
          -0.16225259260707198,
          0.03839692973361405,
          -0.028927696174803053,
          0.10495218714472077,
          -0.2169521057710535,
          -0.0928163548685579,
          -0.16216917572154985,
          -0.05357776064559577,
          -0.11378355250786547,
          0.14274524584514908,
          0.15699757193440855,
          -0.025489890731608057,
          0.008656150133407947,
          -0.09605294031272432,
          -0.0344200405593548,
          -0.036440480623767715,
          0.11479207165205864,
          -0.005236725334007003,
          0.03511851032981725,
          -0.12327594079650243,
          0.09042912734368647,
          0.09614911811750129,
          0.0962286014830502,
          -0.09350820151020649,
          0.17769337606610333,
          0.02655424197709458,
          -0.1838807042602259,
          0.1703248312586655,
          0.10585340353286968,
          -0.05445836346080809,
          -0.04771976560764846,
          -0.13853210662743384,
          -0.031849200343689536,
          0.026578839881814975,
          -0.03249039700071251,
          0.004890570139248302,
          -0.025344016701870833,
          0.08005756509739931,
          0.14738016110017507,
          0.15113401913453062,
          -0.17465500022856195,
          0.12766379116467028,
          -0.03230594734840198,
          -0.31633578639087334,
          0.014393598555099876,
          -0.28394137283226883,
          0.2515595411878618,
          -0.11588332809795532
        ],
        [
          -0.04538434378162866,
          -0.02882738050676099,
          -0.026372591488986914,
          -0.2505655420006689,
          0.10146309693353672,
          -0.12930323751115483,
          0.15419947949885862,
          0.022429841656548995,
          0.08882657040640908,
          0.13038392452456224,
          0.18231201399929703,
          0.008135037459297669,
          0.06482271541087127,
          -0.1704888918939511,
          0.035086468111123384,
          0.05751400887512658,
          -0.04737658888736811,
          -0.15024857848190687,
          -0.17728164435034266,
          -0.04938683332782576,
          0.04459916773162885,
          0.17470493004793933,
          -0.1859599160199238,
          -0.1251992120711133,
          0.05568830571392584,
          -0.0791018055731481,
          0.004491488087778768,
          -0.15290895052349282,
          -0.0414706052679919,
          -0.14521291739779726,
          -0.08633383883574366,
          -0.2876735544634409,
          -0.2699104509891438,
          -0.007706815547024071,
          -0.02671614721214324,
          0.011206833454577727,
          0.21223255176219313,
          -0.1082724211350874,
          -0.006597180495885308,
          0.03704092943785087,
          -0.12401781192487266,
          -0.05412252207226776,
          0.00931998828663026,
          0.05693707525611291,
          0.0058316158460725055,
          0.019112812836744774,
          0.12054572200478271,
          -0.19398371095509517,
          0.12921540768798173
        ],
        [
          0.08710522017721428,
          -0.21595062862374423,
          -0.04195295571402556,
          -0.06562387380076908,
          -0.022177956299989015,
          -0.09523256286504855,
          -0.002084988349246725,
          0.03184348259067622,
          -0.2095547508086845,
          -0.23341361316443815,
          0.11934591464251712,
          0.14547543571085828,
          0.07167172800043953,
          0.15899878923395064,
          0.1278090554029936,
          0.004685587821067905,
          -0.1964517921498819,
          -0.004067197386376102,
          0.14255539686870283,
          0.3329483268176203,
          -0.30549502609745915,
          -0.07146105848183357,
          0.19264665070658044,
          0.044549798051363755,
          -0.03739267749106416,
          0.10541478556428181,
          0.15744356772653326,
          -0.25030979714705226,
          0.0024250877218767366,
          0.1598456706911927,
          0.27242717396615695,
          -0.04715980388814139,
          0.015443534392997534,
          0.09837142804548618,
          0.30051386696442484,
          -0.052680530095346303,
          0.07874617624710015,
          -0.05182280480928242,
          -0.05050742036379727,
          0.04409339029736718,
          0.04782718980640763,
          -0.1337354986953118,
          -0.4123962370271072,
          -0.1407749645892985,
          0.027834375320014305,
          -0.12581514260700935,
          -0.19019763302232867,
          -0.14341798195455643,
          0.05390050014322906
        ],
        [
          -0.03554084066488664,
          0.06279706615700861,
          0.03851109515988425,
          0.18435123289532557,
          -0.3787362465754275,
          -0.04671464615889319,
          0.04147725938075426,
          0.027930406147035965,
          0.16454357010881962,
          0.07411622366683812,
          -0.1409327262671798,
          -0.04614404312072273,
          -0.09079349119716819,
          -0.016915163567446174,
          -0.08829277400669144,
          0.11460610330438031,
          -0.19136982650267217,
          -0.08944973062519057,
          0.2179386529211373,
          0.0502476487447099,
          0.041868699006242995,
          0.10153862951080969,
          -0.07136153634620251,
          -0.1605087374240191,
          -0.08443985739229874,
          0.05183598350749526,
          -0.29774548268333406,
          0.07074649140795512,
          0.06942571398362223,
          0.0009722950450583629,
          0.07926386862474818,
          0.04951683302524149,
          -0.034746809069959,
          0.07929354483612512,
          0.12112157515025221,
          0.033279376673037375,
          0.07202813326815276,
          -0.20687741970990997,
          0.04117806492245487,
          0.17575487717684446,
          -0.0044891454846343595,
          -0.06551475898221605,
          0.09940618967243353,
          -0.21282943527244547,
          0.04419287876887037,
          -0.10532717299357558,
          -0.14411766572737852,
          -0.15504499450641088,
          0.22033069685429377
        ],
        [
          0.20654764889372504,
          -0.17345115740794523,
          -0.1941222470082955,
          -0.1581471890398411,
          -0.043931853130461794,
          -0.0022132608515452418,
          0.20616645825538962,
          0.09498052230495878,
          0.10180915271326471,
          0.19702238947523495,
          -0.21143824998073982,
          -0.005081539947637183,
          0.22238026399022096,
          0.18910904588767552,
          0.17881081761715556,
          0.09639045515737381,
          -0.009726731677843456,
          0.32942386042931476,
          0.10965496049287067,
          -0.3477623597677374,
          0.29078720676842457,
          -0.1157487303546829,
          0.17251840795674867,
          0.03635530982914393,
          -0.17181579608355904,
          0.20690558530872163,
          0.04574470990482311,
          -0.06558050826127557,
          -0.33624118017725135,
          -0.1739336346934239,
          0.029648741347215995,
          0.02426961610881105,
          0.20564688383715332,
          0.08147025158046976,
          0.01926047452921115,
          -0.14597044823757319,
          -0.11704141842805031,
          -0.16530045738944976,
          0.11658567406301262,
          -0.0905948907340426,
          -0.21032434983772347,
          0.09676055860041995,
          -0.2812620169279667,
          0.206323484009894,
          0.08302747161757888,
          0.032315199892640034,
          0.09091483406590242,
          0.0022486436112392387,
          0.0909861542184944
        ],
        [
          0.042054080331208235,
          0.06422809796248927,
          -0.06138555423710284,
          -0.09544258362609882,
          0.18379928395444298,
          0.3291073931379376,
          -0.043881632473804943,
          -0.37540431050940326,
          0.030385932325957904,
          -0.011902636044481473,
          -0.16993663118887092,
          0.1339920319799576,
          0.026545326245488998,
          -0.0667520599141559,
          -0.02655400115412107,
          -0.010639767816388656,
          -0.1116250934403293,
          -0.1399515633287662,
          -0.1638999277110688,
          -0.05596170238759055,
          -0.27821003332402877,
          0.1274123265381487,
          0.18135554547690638,
          -0.15293137936098256,
          -0.13706044009177018,
          -0.07537347534927394,
          0.24280459966595036,
          -0.10622769860219637,
          0.09577488615252562,
          0.05569797154485309,
          -0.1472012385332363,
          0.042912962814518736,
          -0.11770107645071638,
          -0.009893764821819856,
          0.335898914474559,
          -0.03503177546132481,
          -0.2605845809039202,
          -0.05093440608415224,
          -0.059566689878001976,
          -0.17725679339216027,
          0.043436603651068204,
          0.07265592758470026,
          -0.1446446943866869,
          0.02279788106209311,
          0.08223577058971049,
          0.08348575321774222,
          -0.02918742580569257,
          -0.08149251756548745,
          -0.11576805136660562
        ],
        [
          0.027506426598395337,
          -0.005722526021329326,
          0.04272352349113941,
          0.11015612890060157,
          -0.12084156416823144,
          -0.10725835222286699,
          0.42470347573415,
          0.1431222229081833,
          -0.12616727328514035,
          0.27328719605070917,
          -0.2794726584108674,
          -0.12042054428550843,
          0.13949939585339735,
          0.21508490173954692,
          -0.14766842848304482,
          -0.041416377363832954,
          0.10018313532298186,
          -0.13944971855761554,
          0.07207309680227529,
          0.013913292156029447,
          0.15415648783815916,
          -0.25417884134002783,
          0.009858378709890559,
          0.24373361692573683,
          0.05121274658372504,
          0.24290952435295207,
          0.13046602061421161,
          0.15333016426406476,
          -0.04576268150699725,
          -0.23780720316214463,
          -0.2221490271914343,
          -0.20632041680385438,
          0.021693571445456073,
          0.20839068911157058,
          0.06724824729345368,
          -0.18397611333555014,
          0.0014922695054925582,
          -0.06557599076244154,
          -0.10688027877845514,
          0.22913275604225405,
          -0.18385978997243732,
          0.019442887384889168,
          -0.15607151210205514,
          -0.04199147851649,
          0.06281637209391874,
          0.1338152651355993,
          0.09644245017834466,
          0.008945487022304693,
          0.020228477667499235
        ],
        [
          -0.026460798519928316,
          -0.1848776997148898,
          0.06928741430106365,
          -0.037533265466856626,
          0.0038401897115721683,
          0.12241055123224666,
          0.06609809953522236,
          -0.2058529454094273,
          0.025840866388354797,
          -0.2641802799998531,
          -0.1357773672383278,
          -0.005872350313118381,
          0.0960019316609342,
          -0.12586451827540412,
          0.19708491927962035,
          -0.29910123893198637,
          0.09252520168318722,
          -0.21147848499477784,
          0.04516688922688025,
          -0.009209469172541146,
          -0.02571828452692914,
          -0.05251759751888853,
          0.04712926846689888,
          0.019606546602947448,
          -0.06825203607685547,
          -0.03174415387793276,
          -0.140677062256913,
          -0.2273987810739722,
          0.0017573067543828578,
          -0.07891662284017222,
          0.008631667329237955,
          0.003068227032432677,
          -0.029807793009811196,
          -0.17615125800817943,
          0.029454336415835815,
          -0.07696693349414784,
          -0.026069557860436982,
          0.17576120469297504,
          0.0203262663448834,
          0.04891745557108543,
          -0.03849572634560608,
          0.03293949912657321,
          0.15769279826801308,
          0.11204421915419348,
          0.005557837926233926,
          -0.009860175154802626,
          0.003989751057572727,
          0.050120961539634086,
          0.016142065421070766
        ],
        [
          0.07333626219989085,
          0.1397599959677518,
          -0.158274211671569,
          0.1788224992748677,
          0.2933689783865243,
          0.14616153780351862,
          -0.02783863010326493,
          -0.10279765915472125,
          -0.14629622628207212,
          0.036838185365439126,
          0.11271230639215753,
          0.1101240017144809,
          -0.2056622852042319,
          -0.10307313072141426,
          0.02234214583738004,
          0.09289678467701162,
          -0.27755727884412873,
          0.022535566053045863,
          -0.1239313526472129,
          0.16673506871096458,
          -0.26648296308741626,
          -0.13303637601147883,
          -0.07372906169774691,
          -0.11493450527668628,
          0.03818407320497576,
          0.016970314720699993,
          0.08965911263450169,
          -0.00875220889029184,
          0.3027225841806287,
          -0.11816629125487173,
          0.07208048757196935,
          0.026933401759320706,
          0.13708847664598367,
          -0.15022125822633314,
          0.08741036177319152,
          -0.08908139002928421,
          0.2319218806482737,
          0.03494402893309058,
