// 🧠⚡ CortexCrypto Neural Network - Auto-generated
// Neural-augmented key derivation weights and biases

#ifndef CORTEX_NEURAL_WEIGHTS_H
#define CORTEX_NEURAL_WEIGHTS_H

// Layer 1: 49 → 64 (relu)
static const float layer_1_weights[64][49] = {
  {0.032490f, 0.535426f, -0.177325f, -0.034163f, 0.049271f, 0.152680f, -0.027055f, 0.076484f, 0.139346f, -0.081896f, 0.012037f, 0.166876f, 0.021168f, 0.120260f, 0.229847f, 0.006010f, 0.041778f, 0.233141f, -0.006656f, -0.096159f, -0.034356f, -0.034812f, -0.017202f, -0.074709f, -0.148697f, 0.035222f, -0.133101f, -0.064062f, 0.039892f, 0.070744f, -0.147845f, -0.190177f, -0.085589f, 0.181731f, -0.021540f, 0.038152f, 0.044375f, 0.002687f, -0.169548f, -0.137004f, -0.020645f, 0.042964f, 0.183699f, 0.344588f, -0.191754f, -0.004511f, -0.011947f, -0.016814f, 0.019234f},
  {0.060549f, -0.082430f, 0.080404f, 0.012107f, -0.056654f, -0.006440f, 0.145212f, -0.044514f, -0.005768f, 0.028103f, -0.010882f, -0.245201f, 0.094183f, 0.131401f, 0.093612f, -0.292193f, -0.123547f, -0.136142f, 0.012822f, 0.073917f, -0.149339f, 0.092837f, -0.042647f, -0.158599f, -0.146129f, -0.014703f, -0.103992f, 0.133698f, -0.071750f, 0.096641f, 0.178189f, 0.233167f, 0.073689f, 0.011104f, -0.146519f, -0.103732f, 0.051680f, -0.118139f, -0.070301f, 0.123434f, 0.035045f, -0.002208f, -0.015948f, 0.177798f, -0.206143f, 0.015955f, 0.232895f, -0.173384f, 0.083958f},
  {0.184160f, -0.045240f, 0.009768f, -0.021251f, 0.001212f, 0.048154f, 0.083532f, 0.343669f, -0.192420f, 0.027252f, 0.016001f, 0.040224f, 0.021878f, 0.012193f, -0.234469f, -0.109813f, 0.070658f, -0.151101f, 0.031418f, 0.063312f, 0.175457f, -0.085247f, -0.090446f, 0.312873f, 0.246820f, -0.030235f, -0.020345f, 0.228090f, 0.144314f, -0.133938f, 0.095476f, 0.038903f, 0.065316f, -0.006058f, -0.031112f, -0.326063f, -0.028709f, -0.136212f, -0.135926f, 0.034451f, -0.127435f, -0.116655f, 0.009605f, 0.222241f, 0.157819f, -0.084059f, -0.184883f, -0.029735f, -0.041976f},
  {-0.163300f, -0.181329f, -0.106870f, -0.210019f, 0.151300f, -0.102140f, -0.124050f, -0.095804f, 0.059012f, -0.139465f, 0.069262f, -0.182682f, -0.033875f, 0.086435f, -0.098164f, -0.046135f, 0.075752f, 0.012841f, 0.116616f, -0.134877f, -0.243015f, 0.120961f, -0.085136f, 0.009514f, -0.000932f, 0.053893f, -0.082956f, -0.006649f, 0.022493f, 0.192885f, -0.106551f, 0.015991f, -0.085311f, -0.154395f, 0.070103f, -0.113579f, -0.108936f, -0.074963f, -0.348179f, -0.025212f, 0.239546f, -0.181602f, 0.207600f, -0.088038f, 0.173169f, -0.066235f, -0.370757f, -0.072500f, 0.036024f},
  {-0.007962f, 0.157160f, -0.121423f, -0.005730f, 0.140402f, -0.104421f, -0.133175f, 0.095712f, -0.080662f, 0.171750f, -0.097346f, 0.008926f, -0.157940f, 0.025894f, 0.136506f, 0.166031f, 0.012885f, 0.048241f, -0.057861f, -0.028141f, 0.267915f, 0.033165f, 0.000532f, -0.034144f, 0.052242f, -0.071160f, -0.152373f, 0.148593f, 0.168318f, 0.100717f, -0.008824f, -0.249736f, 0.071632f, 0.226217f, -0.001463f, -0.135443f, -0.029610f, -0.008019f, -0.200185f, 0.045035f, 0.182332f, 0.097116f, 0.107381f, -0.019322f, 0.005458f, 0.088097f, -0.353858f, 0.252188f, 0.006631f},
  {0.001449f, 0.329420f, -0.187183f, -0.098800f, -0.107936f, 0.002265f, -0.123561f, -0.002107f, -0.109369f, -0.011847f, 0.032916f, 0.261720f, 0.003975f, -0.009257f, -0.225926f, 0.071504f, 0.010242f, 0.051395f, 0.002674f, -0.206151f, 0.160372f, -0.168834f, 0.128746f, 0.035025f, 0.140198f, -0.197349f, 0.314688f, 0.173992f, -0.170721f, -0.018387f, 0.046914f, -0.015403f, -0.103084f, -0.158075f, 0.150690f, -0.051829f, -0.270291f, 0.052167f, 0.087858f, 0.314903f, -0.357713f, 0.045262f, 0.039492f, 0.082278f, -0.141585f, -0.042497f, -0.035104f, 0.022552f, 0.024101f},
  {0.219782f, -0.096067f, -0.080695f, -0.197697f, 0.156651f, 0.091774f, -0.083195f, 0.056139f, 0.067312f, 0.259772f, -0.099884f, -0.082652f, 0.117184f, -0.055664f, -0.063920f, 0.128876f, 0.029497f, -0.027186f, 0.004354f, 0.152857f, 0.030251f, 0.000253f, -0.146244f, -0.034877f, 0.220545f, 0.206151f, 0.144958f, 0.080778f, 0.125450f, 0.182904f, 0.090375f, 0.231807f, 0.133058f, 0.042502f, 0.109483f, -0.025776f, 0.089238f, -0.005947f, -0.049249f, -0.056088f, -0.164877f, -0.009282f, -0.143086f, 0.059903f, -0.068971f, 0.165447f, 0.023405f, -0.235904f, -0.104057f},
  {0.006548f, 0.032882f, 0.036525f, -0.055830f, 0.098709f, 0.108918f, 0.230012f, -0.019139f, -0.041293f, 0.037116f, 0.104548f, -0.109422f, 0.223168f, -0.130644f, -0.035441f, -0.149134f, -0.056534f, 0.022130f, -0.113102f, 0.088169f, -0.029046f, -0.076781f, -0.138612f, -0.111557f, 0.058620f, 0.097303f, -0.158579f, 0.139591f, -0.161538f, -0.030704f, 0.169492f, -0.099589f, 0.136649f, -0.153435f, -0.238202f, -0.083490f, -0.167045f, 0.325042f, -0.007935f, -0.093305f, -0.106342f, 0.131582f, -0.100129f, 0.077273f, -0.158083f, -0.017400f, -0.018285f, -0.007560f, -0.092283f},
  {0.005194f, 0.144573f, 0.075446f, -0.223508f, -0.179266f, 0.061894f, -0.245006f, -0.231556f, 0.119904f, 0.061845f, -0.096884f, 0.044100f, -0.125137f, -0.106330f, -0.221084f, -0.062736f, 0.009091f, 0.142520f, -0.123362f, -0.198499f, -0.001333f, -0.016033f, 0.053823f, 0.092769f, 0.019823f, -0.069049f, -0.117224f, 0.113855f, 0.059867f, -0.173369f, -0.071382f, -0.078119f, -0.026132f, -0.038210f, -0.065853f, -0.135238f, -0.039096f, 0.104426f, 0.023003f, 0.017535f, -0.101357f, 0.014870f, -0.148980f, -0.033686f, 0.299200f, 0.024446f, 0.110216f, -0.046000f, 0.002254f},
  {0.166669f, -0.125919f, -0.107714f, -0.283382f, -0.036824f, 0.110337f, 0.079223f, 0.012598f, 0.128332f, -0.218563f, 0.008372f, -0.005966f, -0.064845f, 0.077927f, -0.122793f, 0.118166f, -0.093882f, 0.087086f, 0.128333f, 0.072368f, -0.087288f, 0.039483f, 0.194067f, -0.038256f, -0.201718f, -0.012923f, -0.125755f, -0.059582f, -0.031909f, -0.032480f, -0.134273f, 0.171157f, 0.131884f, -0.008007f, 0.066817f, 0.088094f, -0.149226f, 0.118964f, -0.120517f, 0.038102f, -0.113100f, 0.037907f, -0.031918f, 0.072647f, -0.254239f, -0.100109f, 0.025977f, -0.073448f, 0.093170f},
  {-0.131458f, 0.249491f, 0.127730f, -0.065896f, 0.129815f, 0.066340f, -0.032898f, -0.168516f, -0.104811f, 0.115253f, -0.022638f, -0.192608f, -0.076886f, -0.097488f, -0.275303f, -0.168424f, -0.150207f, -0.011490f, -0.480847f, -0.242914f, -0.222503f, 0.002749f, 0.164323f, -0.096450f, 0.074595f, -0.038396f, -0.086984f, 0.083723f, -0.085486f, -0.076818f, -0.138346f, -0.046795f, -0.153864f, 0.193893f, 0.260048f, -0.050811f, -0.199196f, -0.131465f, -0.106566f, -0.244341f, 0.062518f, -0.122658f, -0.059917f, 0.119189f, 0.075708f, 0.027757f, 0.166051f, 0.041578f, -0.004640f},
  {0.269450f, -0.084663f, -0.189725f, -0.264741f, 0.000968f, -0.015957f, 0.022342f, -0.048364f, -0.128534f, 0.061307f, -0.169220f, -0.310555f, -0.047597f, -0.036537f, 0.191829f, -0.109713f, 0.158376f, 0.185063f, -0.195614f, -0.144829f, 0.204284f, -0.087906f, 0.115407f, -0.102027f, -0.043452f, -0.185823f, -0.016611f, 0.023009f, 0.024546f, 0.112879f, -0.078034f, -0.171650f, 0.142008f, 0.239785f, 0.303137f, -0.208882f, -0.095531f, -0.026557f, 0.051472f, -0.024446f, -0.113797f, -0.111244f, -0.173555f, -0.178616f, 0.223223f, 0.014220f, 0.056114f, 0.054630f, -0.099620f},
  {-0.044113f, -0.060196f, 0.010440f, -0.151009f, 0.046774f, 0.063090f, 0.059094f, -0.000144f, -0.075856f, 0.110554f, 0.108730f, -0.157665f, 0.086821f, -0.213209f, 0.083288f, -0.029014f, -0.013230f, 0.023418f, 0.132059f, 0.141672f, -0.161391f, -0.102762f, 0.085629f, 0.086307f, 0.013738f, -0.038490f, 0.180341f, 0.193317f, -0.015701f, -0.204732f, 0.100612f, 0.074497f, -0.057318f, -0.059854f, 0.118537f, 0.120554f, -0.004967f, -0.105668f, -0.009648f, -0.054530f, -0.069584f, 0.029845f, 0.100609f, 0.263209f, -0.180105f, 0.001930f, -0.029957f, -0.168412f, -0.102757f},
  {-0.169141f, 0.079740f, -0.043772f, -0.146387f, 0.082883f, -0.108894f, -0.029590f, 0.093415f, 0.115808f, -0.152407f, 0.034201f, -0.038339f, -0.092860f, -0.172989f, 0.181624f, 0.150897f, -0.171050f, 0.104022f, -0.093703f, 0.084373f, -0.013285f, 0.229149f, 0.090932f, 0.059465f, -0.122626f, 0.053904f, 0.015099f, 0.015057f, 0.059836f, 0.136029f, 0.232342f, -0.153126f, -0.278434f, -0.117248f, 0.018064f, 0.007636f, 0.087615f, 0.160792f, 0.055333f, -0.036404f, 0.069919f, -0.077402f, 0.132812f, -0.007008f, -0.067733f, -0.018641f, 0.017600f, 0.086442f, 0.013155f},
  {-0.085120f, 0.097492f, -0.129781f, -0.055899f, -0.161330f, 0.256842f, -0.191473f, 0.013794f, -0.083522f, 0.021579f, 0.055938f, 0.048398f, 0.039971f, 0.116862f, 0.116796f, -0.032662f, 0.038427f, -0.020671f, -0.062132f, -0.231314f, -0.081523f, 0.009871f, 0.032042f, 0.073360f, -0.030912f, -0.034060f, 0.048374f, -0.020004f, 0.191851f, 0.025568f, -0.147949f, 0.067779f, 0.018210f, -0.139841f, -0.021445f, 0.175860f, -0.102714f, 0.083828f, -0.052670f, 0.106164f, -0.005583f, 0.207911f, -0.168513f, -0.016881f, -0.053651f, -0.002057f, -0.018318f, -0.102526f, 0.018028f},
  {0.021532f, -0.072606f, -0.149032f, 0.162629f, 0.023762f, -0.014787f, 0.081986f, -0.151493f, -0.038388f, 0.024200f, 0.104680f, -0.138000f, 0.196099f, 0.128133f, 0.104160f, 0.030603f, 0.087170f, -0.088727f, 0.018917f, 0.039505f, -0.191355f, -0.141999f, -0.078486f, 0.107057f, 0.244832f, 0.112201f, 0.043395f, -0.018659f, -0.046383f, -0.273877f, 0.096247f, 0.007313f, 0.075847f, 0.123484f, 0.017590f, 0.176955f, 0.078916f, 0.113021f, 0.104529f, -0.024964f, 0.186052f, 0.186163f, -0.042207f, -0.279983f, 0.014647f, -0.036521f, 0.026792f, -0.046196f, -0.026748f},
  {-0.214735f, 0.232354f, -0.089351f, -0.209334f, 0.051183f, 0.020505f, 0.049063f, 0.114083f, 0.113837f, -0.124219f, 0.048084f, 0.034600f, 0.090234f, 0.212378f, -0.370843f, 0.103584f, 0.031909f, -0.160145f, 0.138394f, -0.165527f, -0.056337f, -0.046172f, 0.016241f, -0.145719f, -0.145453f, 0.025576f, -0.270766f, 0.070984f, 0.172205f, -0.129144f, -0.032984f, -0.042164f, 0.056741f, -0.130282f, 0.048084f, 0.151404f, -0.067950f, 0.028045f, 0.047820f, -0.262917f, 0.069080f, -0.104093f, 0.023747f, -0.061260f, -0.165146f, 0.094382f, -0.032229f, 0.072797f, 0.158473f},
  {0.345335f, -0.058200f, 0.331347f, -0.064965f, 0.160892f, 0.185683f, -0.042626f, -0.273119f, 0.081149f, 0.056288f, -0.083826f, -0.136340f, -0.239962f, 0.062759f, 0.066226f, 0.025978f, 0.005032f, 0.003161f, -0.027493f, 0.187563f, 0.019253f, 0.113309f, -0.066103f, -0.057530f, -0.253177f, 0.001967f, -0.101936f, -0.179933f, 0.029254f, -0.024360f, -0.085202f, -0.007440f, -0.019062f, 0.074460f, 0.044380f, 0.055700f, -0.152480f, -0.035023f, 0.146902f, -0.065647f, 0.153236f, 0.082994f, -0.006684f, 0.012613f, 0.040915f, -0.032512f, 0.102339f, 0.028591f, 0.086660f},
  {0.005868f, -0.261848f, -0.000775f, -0.114098f, 0.048980f, -0.111337f, 0.045254f, 0.078835f, 0.099848f, -0.088646f, -0.080962f, 0.044475f, 0.117541f, 0.003603f, 0.144646f, -0.101988f, 0.090551f, 0.008225f, 0.193366f, 0.368356f, -0.061479f, 0.155254f, -0.051583f, 0.215967f, -0.082109f, -0.159673f, -0.018625f, 0.172422f, 0.159278f, -0.264144f, -0.052134f, -0.104545f, -0.013046f, 0.160361f, -0.147792f, -0.166489f, -0.020628f, 0.050788f, -0.098037f, 0.220614f, -0.199981f, -0.050016f, 0.038361f, -0.206073f, 0.128174f, 0.012053f, -0.037982f, 0.124950f, 0.254812f},
  {0.174585f, -0.047884f, -0.026278f, -0.116904f, -0.069475f, 0.163862f, 0.150916f, 0.015551f, 0.186941f, 0.053952f, 0.014189f, 0.004905f, -0.062565f, -0.003858f, -0.055748f, 0.022259f, 0.181368f, -0.261139f, 0.071965f, 0.035271f, 0.114049f, -0.024803f, -0.032534f, 0.031851f, -0.043289f, -0.206872f, -0.021125f, -0.067755f, -0.293331f, -0.187238f, 0.142414f, -0.111117f, 0.007178f, 0.080252f, 0.144629f, -0.087915f, 0.019855f, -0.005124f, -0.225157f, 0.112052f, 0.110632f, 0.028025f, -0.091050f, 0.219089f, -0.083975f, 0.035658f, -0.196199f, -0.178595f, 0.000827f},
  {-0.020341f, -0.024797f, 0.025606f, -0.153211f, 0.166753f, 0.096159f, -0.011796f, -0.168296f, -0.076918f, -0.011953f, -0.152426f, -0.061123f, 0.236312f, -0.151124f, 0.170224f, -0.110338f, -0.068252f, -0.105046f, -0.036136f, -0.181852f, -0.260796f, 0.197712f, -0.094306f, 0.085169f, -0.059906f, 0.190483f, 0.018569f, -0.050035f, -0.223462f, -0.150615f, 0.216203f, -0.069019f, 0.162992f, 0.195872f, 0.093997f, -0.254634f, -0.000112f, 0.099846f, -0.048246f, -0.234099f, -0.084773f, -0.231384f, -0.012831f, 0.098040f, 0.054815f, 0.011404f, -0.057485f, 0.059391f, 0.059532f},
  {-0.212057f, 0.092303f, 0.158628f, -0.149581f, 0.030244f, 0.042171f, -0.079943f, -0.034865f, 0.071361f, 0.004284f, -0.013826f, 0.198699f, -0.037450f, 0.092720f, -0.275705f, 0.013406f, 0.036260f, 0.287503f, 0.026867f, 0.133251f, 0.100348f, 0.062387f, -0.023676f, -0.158893f, 0.036300f, 0.063003f, 0.066432f, 0.071240f, 0.047047f, -0.029289f, 0.217801f, 0.126066f, -0.027860f, -0.021407f, 0.046683f, 0.129993f, 0.063553f, 0.067064f, -0.006456f, -0.092639f, -0.035749f, -0.032311f, 0.252977f, -0.107739f, -0.032829f, -0.008904f, -0.068972f, -0.082278f, 0.182456f},
  {0.003095f, 0.225123f, -0.086351f, -0.028196f, -0.199514f, 0.203045f, 0.062032f, 0.115032f, 0.029528f, -0.210097f, 0.199938f, -0.312560f, 0.092274f, -0.033555f, -0.060536f, 0.217165f, -0.040340f, -0.073288f, -0.242481f, -0.081098f, -0.003386f, 0.013883f, -0.016588f, 0.253757f, 0.210665f, -0.037612f, 0.122823f, -0.148450f, 0.091345f, -0.134189f, -0.104210f, 0.057089f, -0.262867f, 0.025600f, -0.105773f, 0.167122f, -0.082027f, -0.110225f, 0.116597f, -0.082240f, -0.019772f, -0.053551f, 0.169747f, 0.078296f, -0.282785f, -0.117879f, -0.011705f, -0.099189f, -0.061165f},
  {-0.242646f, -0.271454f, 0.058534f, 0.036510f, -0.010937f, -0.071265f, -0.153354f, 0.031683f, -0.155765f, 0.269312f, -0.168072f, -0.077361f, -0.061156f, -0.054555f, -0.001590f, -0.072393f, 0.184796f, 0.024953f, -0.219772f, 0.157242f, 0.312769f, 0.167305f, -0.054314f, -0.223177f, -0.152027f, 0.382355f, -0.133665f, 0.185825f, -0.003858f, -0.171194f, -0.044683f, -0.014816f, -0.109378f, -0.182239f, 0.022927f, 0.070936f, 0.014442f, 0.162482f, 0.033138f, -0.124694f, 0.028772f, -0.072387f, -0.032189f, 0.143076f, -0.005956f, 0.157134f, 0.036423f, 0.099218f, -0.044316f},
  {-0.053649f, -0.059705f, 0.103335f, 0.008987f, -0.047342f, -0.011021f, 0.120619f, -0.231646f, 0.128286f, -0.024105f, 0.012338f, -0.052308f, -0.119612f, -0.053645f, 0.079755f, 0.431473f, 0.007553f, 0.094232f, -0.072900f, 0.247819f, 0.074381f, -0.194462f, 0.021738f, 0.040602f, 0.058706f, 0.131632f, -0.035556f, 0.147759f, 0.107965f, -0.275504f, -0.068944f, -0.070432f, -0.042606f, -0.142873f, -0.212110f, 0.094738f, -0.072660f, 0.299212f, -0.189333f, -0.323665f, -0.068195f, 0.376952f, -0.157921f, 0.004843f, -0.061883f, -0.115166f, -0.018320f, -0.059514f, 0.214801f},
  {0.092823f, -0.018397f, -0.007751f, 0.181760f, -0.017629f, -0.238390f, 0.315861f, 0.156026f, 0.068792f, -0.034304f, 0.016668f, -0.007170f, 0.012446f, -0.149802f, -0.062008f, 0.040543f, -0.099731f, 0.030338f, -0.000126f, -0.073319f, -0.014663f, 0.179281f, -0.109433f, -0.105671f, -0.096519f, -0.094171f, 0.022399f, 0.049373f, -0.049418f, 0.187993f, 0.164057f, 0.049818f, 0.062248f, 0.082012f, 0.005717f, 0.086043f, 0.203469f, 0.325481f, 0.038692f, 0.083129f, 0.168059f, -0.171104f, -0.063490f, -0.043915f, -0.063578f, -0.053497f, -0.027815f, -0.059886f, -0.034389f},
  {0.090156f, 0.055483f, -0.082671f, 0.250336f, -0.048691f, -0.036561f, -0.012798f, 0.201739f, 0.155609f, -0.008517f, -0.090151f, -0.217711f, 0.130065f, 0.113392f, -0.193849f, 0.036115f, 0.084012f, 0.062122f, 0.117078f, -0.020314f, 0.345555f, 0.189962f, 0.052102f, -0.019029f, -0.148405f, 0.115921f, 0.091281f, 0.267873f, -0.082041f, -0.112955f, 0.084782f, -0.055971f, 0.073423f, -0.037983f, -0.029792f, -0.233012f, 0.167291f, 0.114057f, -0.116118f, 0.143434f, 0.283413f, -0.166008f, 0.149086f, -0.146056f, -0.057172f, -0.059768f, 0.189196f, -0.123223f, 0.276608f},
  {-0.123614f, 0.051517f, 0.083615f, 0.062131f, -0.131433f, -0.067152f, 0.028572f, -0.226190f, 0.040696f, 0.229505f, 0.096582f, -0.187837f, 0.105203f, 0.198947f, 0.136734f, 0.018243f, 0.206991f, -0.089126f, 0.021645f, -0.092365f, -0.185285f, -0.139957f, 0.016873f, -0.135360f, 0.000785f, -0.188582f, 0.058491f, 0.122742f, -0.356079f, -0.013954f, 0.128048f, -0.099122f, 0.205289f, -0.034360f, 0.200470f, -0.216055f, -0.069478f, 0.116459f, -0.191333f, -0.107734f, -0.085230f, -0.002208f, 0.002683f, 0.032001f, -0.204125f, 0.224842f, 0.224851f, 0.171741f, 0.089903f},
  {0.154954f, -0.008580f, 0.187683f, 0.208496f, -0.028327f, 0.039940f, -0.231432f, -0.132655f, -0.092367f, -0.080304f, -0.016847f, 0.293965f, 0.113584f, 0.176521f, 0.179798f, -0.077557f, -0.109839f, 0.033875f, -0.014642f, 0.130645f, -0.154998f, 0.011303f, -0.054540f, 0.028452f, -0.095880f, -0.039540f, 0.054015f, 0.006340f, -0.026526f, -0.113566f, -0.137068f, -0.165696f, -0.011784f, -0.075775f, 0.357822f, 0.073938f, -0.199049f, -0.047581f, 0.181117f, -0.017436f, -0.068680f, -0.204230f, -0.064071f, -0.056549f, 0.046214f, 0.050554f, -0.018419f, -0.158971f, 0.142314f},
  {0.124693f, -0.142675f, -0.197639f, 0.047013f, 0.057664f, -0.115237f, -0.020810f, 0.184949f, -0.063897f, -0.212021f, 0.060920f, -0.043253f, 0.061423f, -0.099265f, -0.151403f, 0.135381f, -0.100920f, 0.189865f, -0.097516f, 0.121335f, -0.079190f, -0.052317f, 0.015190f, 0.037359f, 0.007590f, -0.001415f, 0.110478f, 0.062412f, 0.009920f, -0.052792f, -0.134109f, 0.343796f, 0.187417f, 0.012198f, 0.155933f, -0.000774f, -0.022950f, -0.197355f, -0.017905f, 0.089751f, -0.036533f, -0.211819f, 0.017661f, 0.272224f, -0.261747f, 0.143631f, -0.085566f, -0.094114f, 0.020431f},
  {0.056333f, -0.100571f, 0.130795f, 0.154627f, -0.153396f, -0.050425f, 0.162498f, -0.219323f, 0.231370f, -0.242029f, 0.069679f, -0.011604f, 0.104324f, -0.067114f, -0.012928f, -0.049775f, 0.300950f, 0.079443f, -0.079399f, -0.072520f, 0.051854f, -0.242179f, -0.081129f, -0.137230f, 0.047620f, 0.027128f, 0.163789f, -0.072922f, 0.025021f, -0.220760f, -0.306670f, 0.053435f, -0.031837f, -0.084005f, 0.167543f, -0.058364f, 0.009278f, -0.114784f, 0.181147f, 0.106761f, 0.052042f, 0.041567f, 0.224051f, 0.152606f, -0.006361f, 0.146518f, 0.139260f, -0.060891f, -0.039557f},
  {-0.109229f, 0.118935f, -0.180760f, 0.047271f, -0.011385f, -0.164440f, 0.236286f, 0.221029f, -0.035319f, 0.027819f, 0.052078f, -0.096594f, -0.011913f, 0.069232f, 0.019664f, -0.003931f, 0.071887f, -0.001485f, 0.025606f, -0.217979f, -0.071931f, -0.202434f, 0.069882f, -0.215360f, -0.001286f, 0.094203f, -0.049176f, -0.112776f, -0.003063f, 0.060662f, -0.072689f, -0.073205f, -0.212863f, 0.104659f, 0.066008f, 0.107532f, -0.205016f, -0.003186f, 0.077129f, 0.013268f, -0.230139f, 0.205272f, -0.035344f, -0.123576f, 0.232550f, 0.024317f, -0.120121f, 0.094860f, 0.122493f},
  {0.137822f, 0.106756f, 0.154248f, -0.059003f, -0.228739f, 0.191908f, 0.240412f, 0.110687f, -0.020527f, -0.176999f, 0.213736f, 0.196051f, 0.039082f, -0.138534f, -0.103685f, -0.125265f, -0.046878f, -0.122600f, -0.112456f, -0.021796f, 0.251888f, -0.232866f, -0.051985f, -0.163137f, 0.044472f, 0.105819f, 0.172237f, 0.040497f, 0.095069f, -0.108854f, -0.109707f, 0.108035f, 0.032574f, 0.000754f, 0.124473f, 0.022418f, -0.165320f, -0.021528f, -0.027977f, 0.182030f, -0.237989f, -0.138306f, 0.104757f, 0.043078f, -0.096102f, -0.114664f, -0.079257f, -0.164612f, -0.030184f},
  {0.203567f, -0.052058f, 0.107858f, 0.099447f, -0.093450f, 0.076335f, -0.131826f, -0.212647f, -0.121453f, 0.015835f, -0.104373f, -0.073556f, -0.034154f, 0.006910f, -0.084183f, -0.244300f, -0.064891f, -0.084161f, 0.166798f, 0.120609f, -0.204360f, -0.162474f, 0.008094f, -0.131478f, -0.051597f, 0.186191f, 0.096893f, 0.201124f, 0.179483f, -0.179144f, -0.263385f, 0.061637f, -0.195065f, 0.118172f, 0.230384f, -0.098341f, 0.184249f, 0.119530f, -0.027267f, -0.018944f, -0.137152f, -0.208701f, -0.291392f, -0.014482f, -0.101168f, 0.022444f, -0.218979f, -0.288937f, -0.134187f},
  {-0.113940f, -0.191781f, 0.077648f, -0.085348f, 0.144934f, -0.066638f, -0.194187f, -0.105960f, -0.068496f, 0.080697f, 0.224013f, 0.109803f, 0.035687f, 0.075650f, -0.102166f, 0.149294f, -0.115304f, -0.048815f, 0.036069f, 0.250226f, -0.096377f, -0.172336f, 0.329458f, -0.009447f, -0.075255f, -0.057751f, -0.054736f, -0.049087f, -0.029727f, 0.093656f, -0.094531f, -0.079179f, 0.000133f, -0.130529f, 0.123819f, 0.203402f, 0.075347f, -0.310998f, 0.220442f, -0.148453f, 0.014024f, -0.122674f, 0.156822f, 0.007590f, 0.106708f, 0.094226f, 0.020283f, -0.200208f, -0.078355f},
  {-0.048960f, -0.133976f, 0.030284f, 0.262725f, 0.052723f, -0.024851f, -0.001914f, 0.127520f, 0.085258f, 0.102289f, 0.043070f, 0.046133f, 0.015445f, 0.093799f, -0.054684f, -0.158672f, -0.025891f, -0.007390f, 0.132384f, -0.044064f, -0.080633f, -0.094492f, -0.137908f, 0.137518f, -0.151966f, -0.049612f, 0.219255f, -0.249840f, -0.094919f, 0.135811f, -0.070362f, -0.125508f, 0.013725f, 0.070652f, 0.097898f, -0.077635f, 0.018872f, 0.078281f, 0.101161f, -0.108587f, 0.130371f, -0.189294f, 0.009730f, -0.166698f, 0.021144f, 0.118054f, -0.002207f, 0.041109f, 0.160316f},
  {0.031687f, 0.107625f, -0.087113f, 0.015177f, -0.066658f, 0.006603f, 0.049731f, 0.217686f, 0.076457f, -0.064138f, 0.133341f, 0.228467f, 0.090352f, 0.063525f, -0.017952f, -0.060467f, -0.269798f, 0.189280f, 0.004375f, -0.262590f, 0.091680f, 0.004623f, -0.042178f, -0.032489f, -0.052185f, 0.179107f, -0.108575f, -0.056187f, 0.146771f, -0.127935f, -0.112264f, 0.249103f, -0.055167f, -0.156208f, -0.013839f, -0.168219f, 0.015239f, -0.192984f, -0.221728f, -0.039935f, 0.164802f, -0.062062f, -0.073117f, -0.136683f, -0.110451f, -0.072242f, 0.020299f, -0.071452f, -0.239598f},
  {-0.177124f, 0.024008f, 0.347343f, -0.025571f, -0.122032f, 0.008437f, 0.040011f, -0.000440f, 0.061538f, 0.047451f, 0.134476f, -0.033590f, 0.155128f, -0.215184f, -0.181463f, -0.091989f, -0.174606f, 0.231543f, -0.072063f, -0.021924f, 0.219746f, -0.030243f, 0.168789f, 0.187061f, -0.004992f, 0.114316f, -0.108352f, 0.108037f, 0.136050f, -0.034229f, 0.004513f, -0.184940f, -0.039547f, 0.027137f, -0.104557f, -0.163188f, -0.175781f, 0.095176f, 0.061546f, -0.139129f, 0.068218f, -0.062756f, -0.064178f, 0.135840f, -0.157102f, -0.138965f, -0.220837f, -0.019028f, 0.072609f},
  {-0.067570f, 0.066631f, 0.064752f, -0.011328f, -0.155347f, -0.160394f, 0.118800f, -0.069782f, -0.075589f, 0.019753f, -0.210526f, 0.061704f, 0.050470f, 0.124764f, -0.150458f, 0.039260f, -0.004791f, -0.010790f, -0.146299f, 0.015406f, -0.031751f, 0.035449f, -0.140779f, -0.098879f, 0.063140f, 0.083865f, 0.122387f, -0.072283f, -0.156508f, 0.154688f, 0.124152f, 0.162348f, 0.124762f, -0.272751f, 0.119503f, -0.092496f, -0.158333f, 0.172551f, -0.039219f, -0.167082f, 0.000898f, -0.012205f, -0.184616f, 0.068646f, -0.254940f, -0.041970f, 0.089870f, -0.212829f, -0.069776f},
  {0.000442f, 0.008251f, 0.108025f, 0.200207f, 0.228582f, -0.305257f, 0.167896f, -0.079152f, -0.181999f, 0.000738f, 0.023752f, -0.038032f, -0.189937f, 0.153743f, 0.072905f, 0.114011f, -0.067335f, -0.041419f, -0.212600f, 0.095602f, -0.129659f, -0.007397f, 0.072644f, 0.086651f, -0.076649f, 0.093579f, -0.212797f, 0.009982f, 0.090712f, 0.188132f, -0.003447f, 0.021512f, 0.008887f, 0.137034f, -0.070354f, 0.105809f, -0.108143f, -0.151067f, -0.107018f, -0.021742f, 0.142508f, 0.101259f, -0.032109f, 0.089989f, -0.088310f, 0.230926f, -0.026321f, -0.161424f, 0.022796f},
  {0.039372f, -0.130956f, 0.053119f, -0.133269f, 0.055377f, -0.003289f, 0.198980f, -0.087604f, 0.024047f, 0.107537f, 0.098698f, 0.112064f, -0.209063f, -0.027389f, -0.167642f, -0.066066f, -0.044304f, 0.146521f, -0.210412f, -0.146171f, -0.144569f, -0.052867f, 0.203277f, 0.001902f, 0.141708f, -0.030655f, -0.156701f, -0.038930f, 0.090065f, -0.348775f, -0.070901f, -0.071974f, 0.159307f, -0.218664f, 0.021605f, -0.060477f, -0.112951f, 0.058588f, 0.051529f, 0.272398f, -0.067713f, -0.104264f, -0.010402f, -0.074969f, 0.277387f, -0.170566f, -0.005438f, -0.151161f, -0.013469f},
  {0.033512f, 0.404304f, -0.150024f, 0.149069f, -0.141150f, 0.081475f, -0.139365f, -0.106364f, 0.097428f, 0.024430f, 0.053906f, 0.027185f, -0.220826f, 0.241028f, -0.024755f, -0.002508f, 0.133593f, -0.079659f, -0.004269f, 0.149870f, -0.039484f, 0.032643f, 0.097034f, -0.167483f, -0.179766f, -0.093185f, 0.017884f, 0.095018f, 0.111631f, -0.095260f, 0.014843f, -0.069914f, 0.003402f, 0.142814f, -0.115505f, -0.190048f, 0.126902f, -0.201251f, -0.072793f, 0.038561f, -0.022272f, -0.050800f, -0.233744f, 0.007915f, -0.120799f, -0.186728f, 0.170969f, 0.168443f, 0.055021f},
  {0.139178f, -0.065675f, 0.003853f, -0.069649f, 0.038321f, 0.031173f, 0.129447f, 0.049558f, -0.172675f, -0.041741f, 0.088144f, -0.080974f, 0.084585f, -0.339217f, -0.182265f, -0.182132f, 0.226124f, 0.050210f, 0.022162f, 0.101309f, -0.028974f, 0.035981f, 0.075246f, 0.106849f, 0.045999f, -0.141405f, -0.072365f, 0.229699f, -0.051693f, -0.230034f, -0.125181f, 0.011067f, -0.136340f, -0.022761f, -0.137905f, 0.121938f, 0.036794f, -0.096282f, 0.071204f, 0.093245f, 0.092505f, 0.241401f, 0.052334f, 0.097646f, 0.006192f, 0.065199f, -0.139760f, 0.110527f, 0.039660f},
  {-0.079391f, 0.019413f, 0.147253f, 0.170526f, -0.132350f, 0.012174f, 0.102799f, -0.098479f, -0.011690f, -0.263665f, -0.062283f, 0.198034f, 0.221641f, -0.146487f, -0.068032f, -0.094601f, -0.117543f, -0.001260f, -0.116065f, -0.281985f, -0.151073f, -0.098200f, 0.247425f, -0.231581f, -0.148540f, 0.267894f, -0.013661f, 0.104461f, -0.041427f, 0.228859f, -0.184650f, -0.008507f, 0.115839f, -0.067114f, -0.026453f, 0.098828f, -0.077625f, 0.059823f, 0.274661f, -0.084909f, 0.095645f, -0.067059f, 0.024264f, -0.225022f, 0.204877f, 0.097753f, 0.021731f, 0.067875f, -0.078842f},
  {0.094993f, 0.133576f, 0.005117f, -0.208866f, 0.005192f, 0.129816f, -0.045344f, -0.226351f, 0.132790f, -0.064043f, 0.184925f, -0.092897f, -0.059592f, 0.031272f, 0.123317f, -0.028003f, -0.030322f, -0.080360f, -0.266065f, -0.066162f, -0.111363f, 0.040372f, 0.149398f, -0.110002f, -0.166883f, 0.055798f, 0.035076f, 0.142707f, 0.173268f, -0.027614f, 0.165679f, 0.077850f, -0.026017f, -0.013166f, 0.142314f, 0.235720f, 0.145635f, 0.096416f, -0.028106f, -0.178676f, -0.127835f, 0.017618f, -0.156594f, 0.029783f, 0.164059f, 0.047642f, -0.172633f, -0.120927f, -0.161223f},
  {-0.054378f, 0.099729f, -0.142978f, -0.138619f, 0.142950f, -0.076461f, -0.157101f, -0.007130f, 0.064938f, 0.099972f, 0.097856f, 0.171620f, 0.023403f, 0.041138f, -0.016874f, -0.277684f, -0.153643f, 0.010949f, 0.231162f, -0.010525f, 0.109300f, -0.010606f, 0.069324f, -0.139223f, 0.037929f, 0.095228f, 0.020351f, 0.283439f, 0.030856f, -0.196380f, 0.168151f, 0.262293f, 0.058015f, -0.079046f, 0.016796f, 0.145739f, -0.218017f, 0.058839f, -0.055588f, 0.174020f, -0.251924f, -0.090627f, 0.308627f, 0.057999f, 0.218421f, -0.130545f, -0.193989f, -0.079783f, 0.136353f},
  {-0.004190f, 0.175446f, 0.071953f, -0.108228f, 0.165353f, -0.040759f, -0.055045f, 0.111380f, 0.115382f, -0.060036f, 0.016700f, -0.087836f, 0.135269f, 0.169789f, -0.072986f, -0.069950f, 0.070197f, 0.075615f, 0.230430f, 0.049439f, 0.101970f, -0.102996f, -0.042309f, -0.089593f, -0.109296f, -0.104786f, 0.029355f, 0.190974f, 0.256084f, -0.154491f, 0.144439f, -0.108853f, 0.136057f, -0.081221f, -0.115005f, 0.095722f, -0.060926f, -0.011748f, -0.282094f, -0.010745f, -0.301074f, -0.178225f, 0.125472f, -0.062865f, -0.135699f, -0.061869f, 0.013382f, -0.445900f, -0.164001f},
  {-0.093982f, 0.070584f, 0.171729f, -0.118241f, -0.076004f, 0.001267f, -0.051693f, -0.198933f, -0.044733f, 0.015650f, -0.010001f, 0.042315f, 0.016149f, 0.273166f, -0.124299f, 0.103810f, -0.094058f, -0.215640f, 0.091768f, -0.158015f, -0.133773f, 0.244134f, 0.179054f, -0.270921f, 0.204100f, -0.036087f, 0.002071f, -0.019582f, 0.296596f, -0.078338f, -0.220064f, -0.010563f, -0.178429f, -0.135511f, -0.040892f, 0.059861f, -0.140025f, -0.094954f, -0.139586f, 0.181646f, -0.192151f, 0.207075f, 0.062964f, 0.158469f, 0.105307f, 0.061835f, -0.183275f, 0.025541f, -0.151157f},
  {0.175444f, 0.008726f, 0.043086f, 0.101362f, 0.282115f, 0.062120f, -0.140165f, 0.153777f, 0.000737f, 0.047925f, -0.041241f, 0.177967f, -0.105242f, -0.106155f, 0.048055f, -0.123628f, -0.034144f, -0.160735f, -0.032045f, 0.060940f, -0.027966f, 0.119436f, -0.155129f, 0.297860f, 0.024567f, -0.075205f, -0.058543f, -0.040821f, -0.061843f, 0.159251f, -0.070386f, -0.014052f, 0.071872f, 0.114410f, 0.132062f, -0.085982f, -0.057740f, -0.102811f, -0.129600f, -0.122418f, 0.119449f, -0.052035f, 0.057992f, 0.054402f, -0.001800f, -0.034564f, -0.102975f, 0.193259f, -0.104637f},
  {-0.054315f, 0.124843f, -0.143042f, -0.174495f, -0.160326f, -0.245073f, 0.184299f, -0.087692f, 0.083581f, 0.113652f, 0.102981f, -0.012371f, 0.114645f, 0.124619f, 0.089507f, -0.023534f, 0.065400f, -0.082892f, 0.118333f, -0.020655f, -0.029448f, 0.076985f, 0.047093f, 0.014880f, 0.126801f, -0.242896f, 0.086485f, -0.165731f, -0.025083f, -0.046021f, 0.112953f, -0.032795f, 0.027714f, 0.190192f, 0.237207f, 0.125186f, 0.254585f, -0.046216f, -0.063017f, -0.042238f, 0.332270f, -0.063625f, 0.031368f, -0.179693f, 0.087756f, -0.027813f, 0.087076f, 0.106282f, -0.095223f},
  {-0.021380f, 0.342176f, 0.118613f, 0.078459f, 0.065868f, 0.076648f, 0.038735f, 0.114207f, -0.085385f, 0.198272f, 0.009632f, -0.094681f, -0.095232f, -0.128238f, 0.017996f, 0.087495f, -0.027407f, 0.319466f, 0.242985f, 0.098051f, 0.109076f, -0.178357f, 0.068698f, 0.226090f, 0.023156f, 0.281175f, 0.065460f, 0.042015f, 0.106050f, -0.055770f, 0.132016f, 0.132619f, -0.020130f, -0.073985f, 0.177739f, -0.027934f, 0.002972f, -0.115569f, -0.065289f, 0.004213f, 0.038805f, -0.086102f, 0.027714f, 0.087962f, 0.232194f, 0.177586f, -0.146181f, 0.076597f, -0.059607f},
  {0.071484f, -0.047446f, 0.018710f, 0.186452f, 0.257642f, -0.101587f, -0.094354f, 0.152045f, -0.102343f, -0.111242f, 0.147900f, -0.053117f, 0.058486f, 0.286938f, -0.068957f, -0.027460f, -0.044071f, 0.016569f, -0.062421f, -0.183454f, 0.099566f, -0.077303f, 0.087165f, 0.029452f, 0.170261f, 0.217629f, 0.051483f, 0.036690f, 0.062770f, -0.045739f, 0.112960f, 0.020140f, 0.127907f, 0.016463f, -0.054968f, 0.010201f, -0.056348f, -0.124960f, 0.158108f, 0.209887f, -0.144095f, -0.175633f, 0.206162f, -0.140936f, 0.088695f, -0.161847f, -0.040140f, -0.035223f, 0.025537f},
  {0.105635f, 0.045052f, -0.042209f, 0.288272f, 0.055654f, -0.080217f, 0.390063f, -0.053979f, -0.078888f, 0.022309f, -0.034816f, -0.137076f, 0.022440f, 0.093815f, 0.027461f, -0.079277f, -0.042385f, 0.041011f, 0.061073f, -0.069797f, 0.128723f, -0.115178f, -0.123965f, -0.113885f, -0.081174f, -0.031287f, 0.125002f, 0.050396f, -0.059801f, 0.131476f, 0.124971f, -0.115304f, 0.281256f, -0.097371f, 0.047012f, 0.180260f, -0.031240f, 0.092409f, -0.260072f, 0.167881f, 0.230849f, 0.340838f, 0.000059f, 0.106399f, -0.037110f, -0.151399f, 0.105423f, -0.029937f, -0.034093f},
  {0.115736f, 0.109345f, 0.087744f, 0.204259f, -0.042306f, -0.182223f, 0.144827f, -0.002149f, -0.141632f, -0.011248f, 0.135849f, -0.124880f, -0.236980f, 0.135081f, -0.027092f, -0.023489f, 0.001870f, 0.080986f, -0.219817f, -0.042592f, 0.160231f, -0.255996f, 0.080282f, -0.057553f, 0.038276f, 0.356453f, -0.132857f, 0.182473f, 0.068075f, -0.065150f, -0.023570f, -0.143472f, -0.009131f, 0.295524f, -0.247172f, 0.165896f, -0.197344f, -0.188825f, -0.029341f, 0.243975f, -0.076800f, 0.057944f, 0.046511f, -0.000470f, -0.088813f, 0.000002f, 0.043076f, 0.091805f, -0.066153f},
  {-0.018634f, 0.054212f, -0.129727f, -0.029570f, -0.087819f, -0.190119f, 0.055879f, -0.181696f, -0.042793f, 0.112335f, 0.154520f, 0.152431f, 0.306564f, 0.036915f, -0.101932f, -0.067541f, -0.036596f, -0.038820f, 0.108722f, -0.141552f, -0.088299f, 0.006272f, 0.091265f, 0.327910f, 0.078067f, 0.018829f, -0.175307f, -0.031845f, -0.146128f, 0.046862f, -0.080455f, 0.007970f, 0.207684f, -0.133889f, 0.119643f, -0.111413f, -0.044586f, 0.102487f, 0.008226f, -0.129676f, -0.053937f, 0.107414f, 0.029988f, 0.019801f, -0.049365f, 0.115505f, 0.102383f, -0.176546f, 0.047380f},
  {-0.241221f, -0.162253f, 0.038397f, -0.028928f, 0.104952f, -0.216952f, -0.092816f, -0.162169f, -0.053578f, -0.113784f, 0.142745f, 0.156998f, -0.025490f, 0.008656f, -0.096053f, -0.034420f, -0.036440f, 0.114792f, -0.005237f, 0.035119f, -0.123276f, 0.090429f, 0.096149f, 0.096229f, -0.093508f, 0.177693f, 0.026554f, -0.183881f, 0.170325f, 0.105853f, -0.054458f, -0.047720f, -0.138532f, -0.031849f, 0.026579f, -0.032490f, 0.004891f, -0.025344f, 0.080058f, 0.147380f, 0.151134f, -0.174655f, 0.127664f, -0.032306f, -0.316336f, 0.014394f, -0.283941f, 0.251560f, -0.115883f},
  {-0.045384f, -0.028827f, -0.026373f, -0.250566f, 0.101463f, -0.129303f, 0.154199f, 0.022430f, 0.088827f, 0.130384f, 0.182312f, 0.008135f, 0.064823f, -0.170489f, 0.035086f, 0.057514f, -0.047377f, -0.150249f, -0.177282f, -0.049387f, 0.044599f, 0.174705f, -0.185960f, -0.125199f, 0.055688f, -0.079102f, 0.004491f, -0.152909f, -0.041471f, -0.145213f, -0.086334f, -0.287674f, -0.269910f, -0.007707f, -0.026716f, 0.011207f, 0.212233f, -0.108272f, -0.006597f, 0.037041f, -0.124018f, -0.054123f, 0.009320f, 0.056937f, 0.005832f, 0.019113f, 0.120546f, -0.193984f, 0.129215f},
  {0.087105f, -0.215951f, -0.041953f, -0.065624f, -0.022178f, -0.095233f, -0.002085f, 0.031843f, -0.209555f, -0.233414f, 0.119346f, 0.145475f, 0.071672f, 0.158999f, 0.127809f, 0.004686f, -0.196452f, -0.004067f, 0.142555f, 0.332948f, -0.305495f, -0.071461f, 0.192647f, 0.044550f, -0.037393f, 0.105415f, 0.157444f, -0.250310f, 0.002425f, 0.159846f, 0.272427f, -0.047160f, 0.015444f, 0.098371f, 0.300514f, -0.052681f, 0.078746f, -0.051823f, -0.050507f, 0.044093f, 0.047827f, -0.133735f, -0.412396f, -0.140775f, 0.027834f, -0.125815f, -0.190198f, -0.143418f, 0.053901f},
  {-0.035541f, 0.062797f, 0.038511f, 0.184351f, -0.378736f, -0.046715f, 0.041477f, 0.027930f, 0.164544f, 0.074116f, -0.140933f, -0.046144f, -0.090793f, -0.016915f, -0.088293f, 0.114606f, -0.191370f, -0.089450f, 0.217939f, 0.050248f, 0.041869f, 0.101539f, -0.071362f, -0.160509f, -0.084440f, 0.051836f, -0.297745f, 0.070746f, 0.069426f, 0.000972f, 0.079264f, 0.049517f, -0.034747f, 0.079294f, 0.121122f, 0.033279f, 0.072028f, -0.206877f, 0.041178f, 0.175755f, -0.004489f, -0.065515f, 0.099406f, -0.212829f, 0.044193f, -0.105327f, -0.144118f, -0.155045f, 0.220331f},
  {0.206548f, -0.173451f, -0.194122f, -0.158147f, -0.043932f, -0.002213f, 0.206166f, 0.094981f, 0.101809f, 0.197022f, -0.211438f, -0.005082f, 0.222380f, 0.189109f, 0.178811f, 0.096390f, -0.009727f, 0.329424f, 0.109655f, -0.347762f, 0.290787f, -0.115749f, 0.172518f, 0.036355f, -0.171816f, 0.206906f, 0.045745f, -0.065581f, -0.336241f, -0.173934f, 0.029649f, 0.024270f, 0.205647f, 0.081470f, 0.019260f, -0.145970f, -0.117041f, -0.165300f, 0.116586f, -0.090595f, -0.210324f, 0.096761f, -0.281262f, 0.206323f, 0.083027f, 0.032315f, 0.090915f, 0.002249f, 0.090986f},
  {0.042054f, 0.064228f, -0.061386f, -0.095443f, 0.183799f, 0.329107f, -0.043882f, -0.375404f, 0.030386f, -0.011903f, -0.169937f, 0.133992f, 0.026545f, -0.066752f, -0.026554f, -0.010640f, -0.111625f, -0.139952f, -0.163900f, -0.055962f, -0.278210f, 0.127412f, 0.181356f, -0.152931f, -0.137060f, -0.075373f, 0.242805f, -0.106228f, 0.095775f, 0.055698f, -0.147201f, 0.042913f, -0.117701f, -0.009894f, 0.335899f, -0.035032f, -0.260585f, -0.050934f, -0.059567f, -0.177257f, 0.043437f, 0.072656f, -0.144645f, 0.022798f, 0.082236f, 0.083486f, -0.029187f, -0.081493f, -0.115768f},
  {0.027506f, -0.005723f, 0.042724f, 0.110156f, -0.120842f, -0.107258f, 0.424703f, 0.143122f, -0.126167f, 0.273287f, -0.279473f, -0.120421f, 0.139499f, 0.215085f, -0.147668f, -0.041416f, 0.100183f, -0.139450f, 0.072073f, 0.013913f, 0.154156f, -0.254179f, 0.009858f, 0.243734f, 0.051213f, 0.242910f, 0.130466f, 0.153330f, -0.045763f, -0.237807f, -0.222149f, -0.206320f, 0.021694f, 0.208391f, 0.067248f, -0.183976f, 0.001492f, -0.065576f, -0.106880f, 0.229133f, -0.183860f, 0.019443f, -0.156072f, -0.041991f, 0.062816f, 0.133815f, 0.096442f, 0.008945f, 0.020228f},
  {-0.026461f, -0.184878f, 0.069287f, -0.037533f, 0.003840f, 0.122411f, 0.066098f, -0.205853f, 0.025841f, -0.264180f, -0.135777f, -0.005872f, 0.096002f, -0.125865f, 0.197085f, -0.299101f, 0.092525f, -0.211478f, 0.045167f, -0.009209f, -0.025718f, -0.052518f, 0.047129f, 0.019607f, -0.068252f, -0.031744f, -0.140677f, -0.227399f, 0.001757f, -0.078917f, 0.008632f, 0.003068f, -0.029808f, -0.176151f, 0.029454f, -0.076967f, -0.026070f, 0.175761f, 0.020326f, 0.048917f, -0.038496f, 0.032939f, 0.157693f, 0.112044f, 0.005558f, -0.009860f, 0.003990f, 0.050121f, 0.016142f},
  {0.073336f, 0.139760f, -0.158274f, 0.178822f, 0.293369f, 0.146162f, -0.027839f, -0.102798f, -0.146296f, 0.036838f, 0.112712f, 0.110124f, -0.205662f, -0.103073f, 0.022342f, 0.092897f, -0.277557f, 0.022536f, -0.123931f, 0.166735f, -0.266483f, -0.133036f, -0.073729f, -0.114935f, 0.038184f, 0.016970f, 0.089659f, -0.008752f, 0.302723f, -0.118166f, 0.072080f, 0.026933f, 0.137088f, -0.150221f, 0.087410f, -0.089081f, 0.231922f, 0.034944f, -0.058385f, 0.125209f, 0.017202f, 0.045958f, -0.241352f, -0.025351f, 0.082350f, -0.144117f, 0.043530f, 0.078974f, -0.044640f},
};

static const float layer_1_biases[64] = {
  0.007435f, -0.017664f, 0.001047f, -0.003576f, -0.011569f, 0.003943f, 0.004160f, -0.015903f, 0.002387f, -0.006912f, 0.001057f, -0.002040f, -0.006495f, -0.006181f, 0.005045f, -0.000092f, 0.024185f, 0.006689f, 0.002735f, -0.001282f, 0.012283f, 0.009729f, -0.022455f, 0.005864f, 0.004333f, -0.003058f, -0.006979f, -0.006136f, -0.004342f, 0.003280f, -0.004473f, -0.007772f, -0.012558f, -0.014592f, -0.010973f, -0.018522f, -0.008728f, 0.001565f, -0.002263f, 0.010680f, 0.002815f, 0.017812f, 0.002945f, 0.021394f, 0.036343f, 0.019619f, -0.004794f, 0.011797f, -0.010495f, 0.006271f, 0.001266f, 0.011208f, -0.007361f, 0.006456f, 0.013222f, 0.006206f, 0.006214f, -0.001291f, 0.009575f, -0.024131f, -0.001549f, 0.002691f, 0.012106f, 0.013841f
};

// Layer 2: 64 → 32 (relu)
static const float layer_2_weights[32][64] = {
  {-0.144792f, -0.100666f, -0.043920f, 0.243946f, -0.060260f, 0.074982f, 0.068191f, 0.128385f, 0.062897f, 0.034694f, -0.013230f, -0.135463f, -0.038065f, 0.098769f, -0.146183f, -0.141060f, 0.054055f, -0.063832f, -0.020372f, -0.049105f, 0.041318f, -0.066298f, -0.179515f, -0.029279f, 0.055848f, 0.086940f, -0.051485f, -0.157825f, -0.012063f, 0.077891f, -0.059044f, -0.406662f, -0.089995f, 0.005573f, -0.077410f, 0.125720f, -0.006169f, -0.085070f, 0.094570f, 0.132178f, 0.104987f, -0.131138f, 0.110949f, -0.109636f, -0.025344f, 0.359780f, 0.213779f, 0.099119f, -0.116969f, 0.061233f, 0.082012f, 0.023380f, -0.011210f, -0.219957f, 0.238038f, -0.214727f, -0.063335f, 0.194874f, 0.110562f, -0.125998f, -0.345662f, -0.089793f, 0.146320f, -0.244103f},
  {0.082138f, 0.069988f, -0.075654f, -0.052219f, -0.133599f, -0.083030f, 0.216183f, -0.058585f, -0.037338f, 0.105543f, 0.010745f, 0.164115f, 0.122705f, -0.272839f, 0.080632f, 0.072275f, -0.073783f, 0.148398f, 0.029560f, -0.174762f, 0.064198f, 0.152339f, 0.061940f, 0.054247f, 0.007008f, -0.017540f, -0.259489f, -0.236060f, -0.152531f, -0.185056f, 0.101793f, 0.024326f, -0.112108f, -0.464800f, -0.263900f, -0.101014f, -0.118330f, -0.119633f, 0.240174f, 0.303049f, 0.142551f, 0.018947f, -0.104451f, -0.031244f, -0.081100f, 0.028574f, 0.218949f, 0.055940f, 0.125763f, 0.061479f, 0.110166f, 0.195145f, 0.058770f, 0.112962f, -0.219389f, -0.030015f, -0.260545f, -0.147652f, -0.214098f, 0.083055f, 0.001817f, -0.461252f, -0.063835f, 0.050053f},
  {0.100934f, -0.011894f, 0.060835f, -0.111283f, 0.088150f, -0.051965f, 0.084372f, -0.022739f, 0.212375f, 0.063609f, -0.178752f, -0.045039f, 0.071346f, 0.079589f, -0.037025f, 0.179857f, -0.015010f, 0.052347f, 0.106218f, -0.155722f, -0.010312f, -0.078617f, 0.101377f, -0.005418f, -0.158357f, -0.110322f, 0.158882f, -0.008048f, 0.093523f, -0.016318f, -0.105248f, -0.113852f, 0.058505f, 0.029252f, 0.079934f, -0.003521f, 0.022924f, 0.010356f, 0.024966f, -0.139790f, -0.221973f, -0.028488f, -0.214377f, -0.194266f, -0.052203f, -0.103629f, -0.027871f, -0.069508f, 0.042749f, 0.068153f, -0.051543f, -0.138692f, 0.122733f, 0.039233f, 0.273757f, 0.007209f, -0.155172f, 0.024891f, 0.134055f, -0.088243f, -0.138419f, -0.036546f, -0.185936f, 0.159642f},
  {-0.021502f, 0.024020f, 0.116926f, -0.043437f, 0.107920f, -0.022398f, -0.100787f, -0.170963f, 0.115646f, -0.044378f, 0.078965f, 0.133293f, 0.070679f, 0.128757f, -0.170867f, 0.155351f, -0.008061f, -0.094654f, 0.016537f, 0.028684f, 0.190497f, -0.138824f, 0.025091f, -0.286559f, 0.038786f, 0.002276f, -0.140586f, 0.162915f, -0.036876f, -0.097947f, 0.211373f, -0.065385f, 0.163543f, -0.008171f, -0.019099f, -0.085156f, 0.243105f, -0.288982f, -0.128071f, -0.125233f, 0.221376f, 0.169465f, -0.223869f, -0.000973f, -0.158253f, 0.048263f, 0.107563f, 0.078606f, 0.097583f, -0.004614f, -0.099276f, -0.018344f, 0.163286f, -0.110759f, 0.126816f, 0.038065f, 0.063080f, -0.035069f, -0.023105f, -0.055909f, 0.085610f, -0.065579f, -0.048085f, 0.029965f},
  {0.015365f, -0.054014f, 0.062137f, 0.120312f, -0.042809f, -0.072743f, 0.023172f, -0.067873f, 0.179998f, 0.212773f, 0.026419f, -0.190255f, -0.218191f, -0.169332f, 0.054693f, 0.018738f, 0.066142f, 0.002395f, -0.244272f, 0.081224f, 0.118559f, 0.006548f, 0.127493f, -0.232631f, -0.051945f, -0.039007f, 0.014299f, 0.120920f, -0.058134f, 0.067863f, 0.080269f, 0.029744f, -0.012001f, 0.116979f, -0.231961f, 0.037718f, 0.128290f, -0.121896f, 0.100236f, -0.116752f, 0.113616f, -0.032994f, 0.182434f, 0.185003f, 0.006982f, 0.060681f, -0.019161f, -0.064282f, 0.067299f, 0.183972f, -0.153556f, -0.132589f, -0.030255f, -0.036451f, -0.326872f, -0.073992f, -0.083088f, -0.109428f, -0.016559f, -0.183021f, 0.208907f, 0.100745f, -0.047496f, -0.024708f},
  {0.140699f, -0.184749f, -0.240735f, 0.102711f, 0.062674f, 0.211183f, 0.191238f, -0.079188f, -0.190538f, -0.011947f, -0.009036f, -0.122064f, 0.192495f, 0.013311f, 0.287215f, -0.081210f, 0.051206f, 0.028985f, 0.103016f, 0.184996f, 0.020715f, -0.400118f, 0.086544f, 0.094269f, -0.102327f, 0.142675f, -0.116855f, -0.159970f, 0.047166f, -0.077322f, 0.204384f, 0.199726f, -0.224951f, -0.047082f, -0.172029f, 0.107719f, 0.163537f, -0.077146f, -0.152779f, -0.024906f, -0.086921f, 0.061970f, 0.096316f, 0.090034f, -0.007761f, 0.186113f, -0.395236f, 0.168505f, 0.018626f, 0.055359f, -0.049756f, -0.030742f, 0.024753f, 0.151976f, -0.037972f, -0.066683f, -0.097966f, -0.038004f, 0.083879f, 0.043566f, 0.036562f, 0.065002f, -0.222193f, 0.021324f},
  {0.303259f, -0.164222f, -0.077423f, 0.038363f, -0.209923f, 0.029514f, 0.093060f, -0.001607f, -0.128405f, -0.280433f, 0.195659f, 0.111902f, -0.074959f, -0.023888f, -0.098019f, 0.115900f, -0.010844f, -0.163488f, -0.006942f, -0.023488f, -0.201995f, 0.088904f, 0.049053f, -0.168702f, -0.012322f, 0.208092f, 0.022165f, -0.082035f, 0.129728f, -0.023713f, 0.049191f, -0.034990f, 0.125359f, -0.045423f, 0.092948f, -0.175335f, -0.012788f, 0.037792f, 0.005804f, -0.081359f, 0.358053f, -0.115196f, -0.089706f, -0.038452f, 0.092609f, -0.266667f, -0.023621f, 0.017655f, -0.136308f, -0.080727f, 0.249726f, 0.003903f, 0.050246f, 0.130184f, 0.035899f, -0.174514f, -0.127347f, -0.049589f, 0.009063f, -0.110719f, -0.152214f, 0.063990f, 0.251249f, 0.127141f},
  {-0.031321f, 0.050985f, -0.284706f, -0.294298f, -0.051096f, -0.121364f, 0.127478f, -0.075087f, -0.060455f, -0.159546f, -0.157458f, 0.163810f, 0.047516f, 0.195039f, 0.031384f, 0.021468f, -0.119265f, 0.242147f, -0.054353f, -0.098350f, 0.087593f, -0.062117f, 0.088512f, -0.100354f, 0.278921f, -0.155138f, -0.201475f, 0.016174f, -0.204100f, 0.092561f, -0.262822f, 0.017339f, 0.117009f, -0.185876f, 0.124446f, -0.101787f, 0.142663f, -0.087996f, -0.076958f, -0.103296f, -0.001132f, -0.043583f, -0.017503f, 0.011288f, 0.003795f, 0.188868f, -0.136144f, -0.095875f, 0.043913f, -0.163157f, -0.186015f, -0.043214f, -0.085069f, -0.116627f, 0.069859f, 0.074778f, 0.179367f, -0.126506f, -0.041338f, -0.216359f, -0.178500f, -0.211931f, -0.086950f, 0.130569f},
  {0.107152f, 0.207564f, -0.000304f, 0.096691f, 0.022188f, -0.069372f, -0.285218f, 0.133281f, -0.226973f, 0.086370f, -0.339506f, 0.066826f, -0.178498f, -0.203757f, -0.154613f, -0.018098f, -0.000021f, -0.035447f, 0.102188f, 0.123704f, 0.154511f, -0.092335f, 0.196027f, -0.058542f, 0.214232f, 0.341795f, 0.200377f, -0.262840f, -0.104389f, 0.068499f, 0.076913f, -0.048709f, 0.090763f, 0.057273f, 0.017194f, -0.275921f, 0.003235f, 0.029956f, -0.087408f, 0.077838f, 0.260960f, -0.052868f, 0.106421f, 0.052468f, 0.249507f, 0.010672f, 0.069418f, -0.011065f, 0.013433f, -0.059702f, 0.022636f, -0.027860f, -0.014245f, -0.086517f, 0.052364f, -0.163136f, -0.068885f, 0.107615f, 0.016182f, -0.293890f, -0.088667f, -0.045627f, -0.050629f, 0.369228f},
  {0.012779f, 0.161536f, 0.153479f, -0.113227f, -0.049632f, -0.105582f, -0.022161f, 0.000514f, 0.181686f, 0.272669f, -0.081488f, -0.031376f, -0.069669f, 0.040130f, 0.139908f, -0.233800f, 0.018759f, 0.224301f, 0.269405f, -0.050967f, 0.248670f, 0.036176f, 0.015862f, -0.043307f, -0.171192f, 0.209164f, -0.006010f, -0.243570f, 0.204138f, 0.104731f, -0.054910f, -0.124789f, 0.000395f, -0.012371f, 0.160760f, 0.044916f, -0.096115f, 0.073159f, 0.058822f, 0.118934f, -0.108524f, -0.048921f, 0.009955f, -0.109372f, 0.132852f, 0.430484f, 0.119564f, -0.089489f, -0.018000f, -0.121436f, 0.377397f, -0.154302f, -0.119143f, -0.063658f, -0.208314f, -0.119469f, -0.150315f, 0.178119f, 0.042234f, -0.031980f, -0.338085f, 0.252586f, -0.013373f, 0.073301f},
  {0.035186f, -0.058625f, 0.454504f, -0.075345f, -0.145189f, -0.206499f, -0.006865f, -0.041113f, -0.056036f, 0.102755f, 0.098165f, 0.007127f, -0.105685f, 0.028718f, -0.094953f, -0.002755f, -0.078440f, 0.140223f, -0.176829f, 0.128902f, 0.058999f, 0.076319f, 0.086518f, 0.123650f, -0.055714f, 0.049102f, 0.015783f, -0.262490f, 0.134753f, -0.166011f, -0.244587f, -0.006371f, 0.221408f, -0.132378f, -0.104786f, -0.002201f, -0.023442f, 0.079123f, -0.027965f, 0.176989f, -0.277348f, 0.033304f, 0.075187f, 0.189538f, -0.215551f, 0.068157f, 0.214915f, 0.132300f, 0.257021f, 0.028544f, -0.198419f, 0.160154f, 0.323530f, 0.047465f, -0.108841f, -0.065576f, -0.024243f, -0.096447f, 0.126667f, -0.214083f, 0.002572f, 0.041602f, 0.197606f, -0.195644f},
  {-0.067074f, -0.168617f, -0.071115f, 0.085147f, 0.097187f, 0.139805f, -0.093191f, 0.145701f, 0.159784f, -0.034680f, 0.196403f, 0.080401f, 0.117608f, 0.191852f, -0.174003f, 0.256740f, 0.048034f, 0.106091f, 0.064358f, 0.005900f, -0.078921f, -0.187878f, -0.172272f, 0.034017f, -0.268578f, 0.094888f, 0.144697f, 0.079821f, 0.256552f, 0.094868f, -0.067894f, 0.116212f, -0.116086f, 0.077207f, 0.118188f, 0.040733f, -0.100108f, -0.037358f, -0.172458f, -0.062838f, 0.162878f, -0.288536f, 0.105083f, -0.270553f, 0.061087f, -0.229197f, -0.076714f, -0.115740f, 0.097444f, -0.211286f, 0.237652f, -0.055459f, -0.135678f, 0.084886f, 0.101377f, -0.210844f, 0.052157f, -0.020679f, 0.076559f, -0.033339f, -0.178681f, -0.033217f, 0.249321f, -0.225996f},
  {-0.047405f, 0.098216f, 0.118672f, -0.189237f, 0.301513f, -0.176750f, 0.268882f, -0.257146f, 0.234214f, 0.006760f, -0.118177f, 0.061056f, -0.070459f, 0.124749f, -0.092468f, -0.007219f, -0.075931f, 0.277084f, -0.120678f, 0.158727f, 0.258700f, 0.143713f, -0.017932f, -0.311536f, 0.000141f, -0.183137f, -0.220444f, 0.104896f, 0.216783f, 0.027237f, 0.139535f, -0.083577f, -0.061271f, -0.124439f, 0.097150f, 0.094034f, -0.181410f, 0.209182f, -0.075235f, 0.190813f, 0.061735f, 0.010930f, 0.021758f, -0.068593f, 0.194402f, -0.119373f, -0.173696f, -0.060514f, 0.029613f, 0.232635f, 0.061837f, -0.046131f, 0.158773f, -0.138761f, 0.197520f, -0.129221f, 0.037725f, 0.178384f, 0.129273f, -0.025518f, -0.082234f, -0.194070f, -0.064650f, 0.009566f},
  {0.134242f, 0.052967f, -0.033826f, 0.072373f, 0.019920f, 0.230870f, -0.112385f, -0.305675f, 0.197929f, 0.107845f, 0.009519f, -0.051141f, 0.369678f, 0.104643f, 0.184809f, -0.005333f, 0.328834f, 0.057296f, 0.055083f, -0.058439f, 0.035511f, -0.127865f, 0.066465f, -0.078489f, 0.142568f, 0.141708f, -0.063047f, -0.032464f, 0.231254f, 0.122528f, -0.064296f, 0.176925f, -0.002485f, 0.047545f, 0.312539f, 0.225855f, -0.107684f, 0.013569f, -0.131464f, -0.003153f, -0.165898f, -0.062324f, -0.032168f, -0.021633f, -0.006498f, 0.091660f, 0.028987f, -0.037751f, -0.007754f, -0.092807f, 0.391248f, -0.041668f, 0.039262f, 0.094385f, 0.157018f, -0.032930f, -0.043648f, -0.215748f, -0.083311f, -0.040282f, 0.286837f, -0.145850f, -0.116809f, 0.023394f},
  {-0.061525f, -0.044775f, 0.000981f, -0.009896f, 0.071215f, -0.198603f, -0.065876f, 0.033503f, 0.168107f, -0.010172f, 0.166077f, -0.207099f, -0.098366f, -0.096912f, -0.263166f, 0.066351f, -0.127308f, -0.002433f, 0.049481f, 0.002105f, -0.160922f, -0.113206f, 0.106115f, 0.025557f, -0.140621f, -0.301818f, -0.053765f, -0.040211f, -0.273035f, -0.058086f, -0.013064f, -0.174378f, -0.360776f, -0.136352f, -0.046273f, 0.133685f, 0.046926f, -0.122892f, 0.102854f, 0.003312f, 0.099914f, -0.246895f, -0.202134f, 0.008698f, -0.078548f, -0.020294f, -0.065037f, 0.048989f, 0.023841f, -0.002794f, 0.052701f, 0.110494f, 0.169905f, -0.037132f, 0.004895f, 0.049306f, 0.261467f, -0.172814f, -0.178794f, -0.064732f, -0.029130f, -0.113581f, -0.104433f, -0.103261f},
  {-0.343252f, -0.016622f, 0.081229f, 0.070394f, -0.015634f, -0.026221f, -0.164737f, 0.094408f, -0.356925f, -0.022443f, 0.360413f, -0.123685f, 0.045455f, 0.098345f, 0.042621f, -0.016105f, -0.214595f, 0.100831f, -0.251694f, 0.135425f, -0.059008f, -0.055874f, 0.223532f, 0.045688f, 0.317382f, 0.044626f, -0.016671f, 0.028404f, 0.125901f, -0.189235f, 0.210242f, 0.198897f, -0.142593f, -0.146883f, -0.004767f, 0.032817f, 0.086261f, -0.064493f, 0.098534f, -0.045170f, -0.016613f, 0.131091f, 0.090333f, 0.145739f, 0.158268f, -0.014243f, 0.016803f, -0.274479f, 0.121242f, 0.121613f, 0.068865f, -0.083484f, 0.189981f, 0.066768f, 0.013574f, -0.076772f, 0.118707f, 0.091307f, -0.200383f, -0.000951f, -0.225472f, -0.095162f, 0.014118f, 0.221998f},
  {-0.018456f, 0.086802f, 0.041445f, -0.022333f, -0.203068f, 0.081130f, -0.112658f, -0.250793f, 0.125680f, -0.139932f, -0.188671f, 0.153776f, 0.057409f, -0.125039f, 0.210482f, 0.006908f, 0.051853f, -0.247439f, 0.038342f, 0.024282f, 0.084811f, 0.089292f, -0.411270f, 0.060140f, -0.247029f, -0.154011f, 0.016122f, -0.015437f, 0.089913f, -0.157506f, -0.152366f, 0.114537f, -0.036664f, -0.162050f, 0.077242f, -0.330799f, 0.102560f, -0.005902f, -0.072216f, 0.076701f, 0.071259f, -0.138027f, 0.010720f, -0.102857f, -0.020910f, -0.122142f, 0.151087f, 0.130384f, 0.017017f, 0.258015f, -0.101960f, -0.245578f, 0.178833f, 0.077484f, -0.093766f, -0.037762f, 0.166004f, -0.067482f, -0.189422f, -0.109758f, -0.304632f, -0.141536f, -0.105064f, -0.109297f},
  {0.035625f, 0.052518f, 0.023279f, -0.146763f, 0.080755f, 0.002977f, 0.296109f, 0.074516f, -0.011310f, 0.116839f, -0.063869f, 0.112760f, -0.143343f, 0.061735f, 0.031729f, -0.130514f, -0.045738f, 0.049498f, -0.169444f, -0.092830f, -0.002584f, -0.279434f, 0.055991f, -0.029894f, -0.003539f, -0.048718f, 0.159848f, -0.011112f, 0.009374f, -0.188328f, -0.296436f, -0.126373f, 0.175544f, 0.111478f, -0.012756f, 0.166096f, 0.151824f, -0.182875f, -0.031540f, -0.006213f, 0.131309f, 0.344837f, 0.069635f, -0.000419f, 0.142619f, -0.121814f, -0.000501f, -0.039797f, 0.039163f, -0.132744f, 0.207993f, -0.072356f, 0.062911f, -0.048113f, -0.120755f, -0.202848f, -0.148192f, 0.196646f, 0.053458f, -0.051423f, -0.105270f, -0.117940f, -0.003910f, 0.075183f},
  {-0.146403f, -0.261181f, 0.197969f, -0.084455f, 0.053444f, -0.131080f, 0.076780f, -0.020828f, 0.168610f, -0.033304f, -0.140736f, 0.041751f, -0.062704f, 0.099768f, 0.077685f, 0.068025f, 0.033894f, -0.154866f, -0.166426f, 0.081868f, -0.033865f, -0.114584f, -0.037938f, -0.134158f, 0.092375f, 0.021300f, 0.044718f, 0.204732f, 0.045743f, -0.087324f, 0.322463f, 0.131243f, 0.057699f, 0.089528f, 0.097729f, 0.119605f, 0.155098f, -0.033277f, -0.290758f, 0.024488f, 0.186112f, -0.034223f, 0.081905f, 0.081118f, 0.237014f, -0.107792f, -0.074374f, 0.219446f, -0.030419f, -0.102338f, 0.004921f, -0.008729f, -0.128641f, -0.126212f, -0.042803f, 0.220908f, -0.195022f, -0.105622f, 0.053218f, 0.152037f, 0.013952f, -0.079114f, 0.136803f, -0.029059f},
  {0.173377f, 0.170367f, -0.261959f, -0.024539f, 0.010659f, -0.160027f, -0.046154f, 0.006471f, -0.020192f, -0.039159f, -0.042790f, -0.043484f, 0.034853f, -0.185263f, 0.045600f, -0.020874f, -0.123705f, 0.091848f, 0.069104f, 0.336076f, -0.081449f, 0.076208f, 0.080881f, -0.000756f, -0.043501f, 0.029881f, -0.027259f, -0.092544f, -0.186110f, -0.024892f, -0.124268f, -0.082880f, -0.007165f, 0.011912f, 0.007600f, 0.108509f, 0.019509f, -0.022068f, 0.086786f, -0.097611f, 0.032305f, -0.095511f, 0.141344f, 0.039542f, -0.082181f, -0.010943f, 0.097796f, 0.115316f, 0.129015f, 0.093678f, -0.072876f, 0.214003f, -0.126387f, 0.006528f, -0.010359f, -0.114474f, -0.057367f, -0.058208f, -0.085809f, 0.181550f, 0.149688f, 0.063605f, -0.019940f, -0.000173f},
  {0.264806f, 0.135148f, 0.155127f, -0.093101f, -0.017685f, 0.081331f, -0.105216f, 0.067928f, -0.060923f, -0.307914f, -0.105580f, 0.037617f, -0.159167f, 0.098035f, -0.025224f, -0.069930f, 0.020926f, 0.008230f, -0.044075f, -0.076246f, -0.001939f, 0.271748f, 0.051029f, -0.188430f, -0.011208f, 0.024618f, 0.247847f, 0.153759f, -0.181104f, 0.046493f, 0.124914f, -0.292830f, 0.193328f, 0.127995f, 0.094633f, 0.013924f, -0.019564f, 0.037992f, -0.203059f, -0.092715f, 0.177682f, 0.281327f, -0.120872f, 0.120939f, 0.145680f, 0.218784f, -0.176058f, 0.079646f, 0.154006f, -0.150487f, -0.118274f, -0.023835f, 0.007811f, 0.096972f, -0.064473f, -0.093874f, 0.020325f, -0.180486f, 0.091405f, -0.256405f, 0.100657f, 0.049738f, 0.142113f, 0.100189f},
  {0.018702f, 0.068866f, 0.014711f, -0.158213f, 0.185610f, -0.001326f, -0.069184f, 0.080804f, -0.030770f, -0.212357f, -0.149526f, -0.016941f, 0.054146f, 0.117429f, 0.085139f, 0.091257f, 0.010958f, 0.178775f, -0.131043f, -0.314149f, 0.215619f, -0.059684f, 0.414344f, 0.012991f, -0.277640f, -0.112265f, 0.187046f, 0.312930f, -0.224726f, 0.113721f, -0.109875f, -0.086878f, 0.005239f, 0.113219f, -0.105778f, 0.003603f, -0.145817f, 0.041203f, 0.270418f, -0.141743f, -0.091035f, 0.021037f, 0.122164f, -0.045403f, -0.116575f, -0.233122f, -0.141248f, 0.066736f, 0.002926f, 0.011281f, 0.259429f, -0.064974f, 0.089554f, -0.147046f, 0.108695f, 0.336647f, 0.318132f, -0.338406f, -0.027455f, -0.221595f, -0.193291f, -0.003937f, 0.069226f, -0.279489f},
  {0.255700f, -0.097292f, -0.033234f, 0.015633f, -0.075434f, 0.000576f, 0.184497f, 0.036739f, -0.031663f, 0.114487f, -0.193861f, 0.174177f, 0.116734f, -0.066635f, -0.027328f, -0.036595f, -0.185296f, -0.162520f, -0.006504f, 0.045992f, -0.115256f, 0.064688f, -0.149390f, 0.117859f, -0.069344f, -0.250633f, 0.318142f, -0.066211f, 0.192324f, -0.092298f, 0.123986f, 0.108161f, 0.028792f, 0.070175f, 0.100957f, -0.114276f, 0.101313f, 0.039663f, 0.177221f, 0.047277f, 0.028532f, 0.072001f, -0.211978f, 0.310178f, 0.258284f, -0.303824f, -0.088941f, 0.007120f, -0.138415f, 0.242901f, 0.183117f, 0.193186f, -0.557788f, -0.050088f, 0.011315f, 0.032932f, 0.258925f, 0.047665f, 0.182965f, 0.138682f, 0.405372f, -0.091376f, -0.107148f, -0.117432f},
  {0.093700f, 0.052683f, -0.162713f, -0.040716f, 0.038231f, 0.023260f, -0.027399f, 0.267591f, -0.043377f, -0.029696f, 0.129054f, -0.188313f, 0.018011f, 0.201765f, -0.081055f, -0.043940f, 0.019017f, 0.043158f, 0.143155f, 0.160886f, -0.053965f, -0.194232f, 0.092033f, 0.066466f, 0.030563f, 0.199142f, -0.174783f, 0.083410f, 0.372695f, -0.020144f, -0.168854f, 0.022571f, -0.162060f, 0.069937f, 0.147664f, -0.009037f, -0.167626f, -0.059672f, -0.033967f, 0.026812f, 0.004068f, -0.379876f, -0.280428f, 0.330973f, -0.105821f, -0.097597f, -0.034602f, 0.036407f, -0.203441f, 0.117960f, 0.091805f, -0.043066f, 0.066409f, 0.004702f, -0.065659f, 0.166327f, -0.014965f, 0.008692f, -0.250966f, 0.073783f, -0.137691f, -0.380611f, -0.228334f, -0.050539f},
  {0.255096f, 0.136785f, -0.131376f, 0.304829f, 0.002539f, -0.176021f, 0.016934f, 0.127201f, 0.087405f, 0.226066f, -0.050864f, -0.205443f, -0.031855f, -0.091330f, 0.258656f, 0.021978f, -0.144398f, -0.136786f, -0.036694f, 0.013788f, 0.095344f, -0.090516f, 0.139979f, 0.173611f, -0.077313f, 0.064647f, 0.080683f, 0.237723f, 0.112248f, 0.120875f, -0.016572f, 0.058211f, -0.066042f, -0.020925f, -0.178780f, 0.415168f, 0.017910f, 0.060568f, -0.157148f, -0.288521f, -0.103675f, 0.046680f, -0.267805f, -0.106424f, 0.088416f, -0.114962f, 0.201145f, 0.005998f, 0.210513f, -0.162986f, 0.225427f, -0.052386f, 0.091450f, 0.108695f, -0.032125f, 0.035448f, 0.111382f, -0.150469f, -0.125788f, 0.217781f, 0.185739f, -0.040194f, -0.024163f, -0.028988f},
  {0.001338f, -0.319342f, -0.046670f, -0.080973f, -0.006482f, -0.243007f, -0.168020f, -0.054039f, 0.057217f, -0.036377f, -0.093140f, -0.204572f, -0.057623f, -0.101818f, 0.100028f, 0.049954f, -0.000448f, -0.169482f, -0.006717f, -0.002529f, -0.141115f, -0.312844f, -0.052739f, -0.028977f, 0.059139f, 0.135793f, -0.131889f, -0.239021f, 0.066322f, 0.007596f, -0.006714f, 0.191301f, -0.258897f, -0.010073f, -0.162420f, -0.097255f, -0.004180f, 0.002619f, -0.049098f, -0.304577f, -0.014769f, -0.010216f, 0.022499f, -0.185148f, 0.195202f, -0.062012f, -0.197865f, -0.114922f, -0.121776f, -0.196857f, -0.001606f, 0.022814f, 0.254063f, 0.208633f, 0.162412f, 0.128381f, -0.114993f, -0.372046f, 0.174590f, 0.101295f, 0.098583f, 0.118887f, -0.162240f, 0.032504f},
  {0.012863f, 0.196014f, 0.042840f, 0.132895f, 0.098977f, -0.269104f, 0.142203f, 0.132266f, -0.104484f, -0.117844f, 0.192200f, 0.219203f, -0.023844f, -0.030323f, -0.080310f, -0.068030f, -0.045362f, -0.056575f, -0.081379f, -0.288266f, -0.202046f, -0.053842f, 0.115315f, 0.076525f, 0.031696f, -0.018334f, 0.028417f, -0.178561f, -0.081411f, 0.148815f, 0.196903f, -0.039361f, 0.105334f, -0.094072f, -0.245043f, 0.042610f, 0.040463f, -0.025250f, 0.078651f, 0.008975f, -0.097250f, -0.130131f, -0.113782f, 0.133194f, 0.046020f, 0.034605f, 0.069684f, -0.267754f, -0.107502f, 0.052476f, -0.145649f, -0.168337f, 0.220935f, 0.100769f, 0.188553f, -0.242310f, 0.102399f, -0.002922f, 0.001460f, 0.084381f, -0.095693f, 0.009999f, 0.001865f, 0.095886f},
  {0.247115f, -0.071009f, 0.105506f, 0.092481f, 0.121874f, -0.062385f, 0.004360f, -0.170647f, -0.111678f, 0.163722f, 0.005406f, -0.101063f, -0.001761f, -0.317004f, 0.144803f, -0.181784f, -0.079131f, -0.194847f, 0.448558f, -0.018253f, -0.204171f, 0.000998f, -0.112675f, -0.327444f, -0.064110f, 0.089626f, 0.009732f, -0.201206f, -0.088101f, 0.156944f, 0.059148f, 0.034534f, -0.219956f, 0.155547f, -0.128252f, -0.099460f, 0.199275f, -0.096445f, -0.025395f, -0.327389f, -0.163189f, -0.019564f, -0.211998f, 0.099872f, -0.164680f, -0.178536f, 0.021221f, 0.252363f, 0.073253f, 0.051500f, -0.176842f, 0.161319f, -0.234942f, -0.229792f, -0.126647f, -0.249288f, 0.015414f, -0.018550f, 0.267320f, 0.020481f, -0.074301f, -0.142764f, -0.224392f, -0.122996f},
  {0.212310f, 0.003261f, 0.319078f, 0.121534f, -0.016556f, -0.176712f, -0.197834f, -0.087038f, -0.007505f, 0.028136f, 0.098350f, 0.119320f, -0.103618f, -0.066005f, 0.066402f, 0.050202f, -0.027518f, -0.126721f, -0.048784f, 0.099787f, 0.195765f, -0.002916f, 0.036221f, -0.062508f, 0.155250f, -0.069557f, 0.460138f, 0.019488f, -0.075377f, 0.093326f, 0.064499f, -0.040266f, 0.286102f, -0.067158f, 0.200822f, 0.109138f, -0.098476f, 0.070526f, 0.053587f, -0.128301f, 0.055090f, -0.258772f, -0.105522f, -0.002204f, 0.105532f, -0.039390f, 0.023857f, -0.110593f, -0.190468f, 0.004259f, 0.120454f, 0.012221f, 0.085978f, -0.054926f, 0.048633f, -0.095319f, 0.167012f, 0.093855f, 0.039659f, 0.103998f, 0.025408f, -0.090702f, -0.011471f, -0.071328f},
  {-0.001903f, -0.228417f, 0.313707f, -0.092326f, 0.122179f, 0.026728f, 0.151026f, 0.221128f, -0.033659f, -0.348352f, -0.024387f, 0.057605f, 0.046099f, 0.004803f, -0.233882f, 0.195975f, 0.010838f, -0.170831f, 0.079099f, 0.109326f, 0.132951f, 0.000459f, -0.249942f, -0.094909f, 0.190902f, -0.014021f, 0.118580f, -0.039788f, -0.092066f, -0.021787f, -0.178452f, -0.063861f, -0.218217f, 0.009762f, -0.258150f, -0.144286f, -0.123087f, -0.180790f, -0.030145f, 0.031444f, -0.060063f, 0.154533f, -0.066190f, 0.204831f, 0.154872f, 0.048383f, -0.088571f, -0.061819f, 0.033143f, 0.046075f, 0.131230f, -0.046226f, 0.107545f, -0.117757f, -0.181248f, 0.152183f, -0.035523f, -0.126070f, -0.332133f, -0.037936f, -0.325844f, -0.122896f, 0.121000f, -0.066884f},
  {-0.272218f, 0.019196f, -0.242013f, 0.050069f, -0.179625f, 0.022811f, 0.091421f, -0.247620f, -0.296601f, 0.229724f, -0.098679f, 0.019276f, 0.040929f, -0.071186f, 0.008506f, -0.111839f, -0.052914f, -0.051847f, -0.358733f, 0.157793f, 0.377758f, 0.179454f, 0.004831f, 0.132109f, 0.044012f, -0.071209f, 0.031719f, 0.046169f, 0.103097f, 0.256561f, 0.070557f, -0.027434f, 0.234172f, -0.044902f, -0.179615f, 0.206649f, -0.093257f, -0.380314f, 0.029203f, 0.016360f, 0.278439f, -0.040633f, 0.401553f, -0.033386f, -0.158104f, 0.125932f, -0.019353f, 0.312530f, -0.118204f, 0.142759f, -0.223408f, -0.028221f, -0.033399f, -0.233072f, 0.063063f, 0.080172f, 0.108014f, 0.083567f, -0.170615f, 0.040261f, 0.113623f, -0.296061f, -0.028916f, -0.117006f},
  {-0.033903f, -0.145022f, -0.042692f, 0.026937f, -0.125843f, -0.016654f, 0.095787f, 0.160696f, -0.019379f, -0.172078f, 0.005877f, -0.237746f, -0.135006f, 0.042027f, 0.029996f, -0.076104f, 0.150286f, -0.100289f, 0.047120f, 0.047388f, -0.004060f, -0.114743f, 0.072751f, -0.036185f, 0.198172f, -0.054909f, -0.320403f, 0.248607f, 0.169647f, -0.129008f, 0.102498f, 0.092024f, -0.157396f, -0.162750f, 0.007019f, 0.057992f, 0.057000f, -0.089993f, -0.038289f, 0.032644f, 0.001530f, 0.137857f, 0.039140f, -0.215728f, -0.038586f, -0.077719f, 0.148180f, 0.127960f, 0.082550f, -0.075817f, 0.018212f, 0.134901f, 0.115281f, 0.131046f, 0.117232f, -0.308604f, -0.203600f, -0.245196f, 0.090936f, 0.169152f, 0.003635f, -0.183907f, -0.172618f, 0.384228f},
};

static const float layer_2_biases[32] = {
  0.005467f, -0.007854f, -0.018806f, -0.002397f, -0.001239f, -0.004791f, 0.005826f, 0.001306f, 0.019973f, 0.001602f, -0.002186f, -0.011317f, -0.001491f, 0.000694f, -0.017883f, 0.002501f, 0.000672f, -0.024047f, 0.002745f, -0.000657f, 0.016325f, -0.009806f, -0.020667f, -0.013502f, -0.010359f, 0.007023f, 0.009772f, -0.029032f, -0.016152f, -0.005291f, -0.000588f, 0.003552f
};

// Layer 3: 32 → 32 (linear)
static const float layer_3_weights[32][32] = {
  {0.058650f, -0.048172f, -0.222758f, -0.053704f, -0.224057f, 0.002188f, -0.021652f, 0.033648f, 0.189673f, 0.271156f, 0.211970f, -0.058547f, 0.003532f, 0.087980f, 0.000878f, 0.236131f, 0.017003f, -0.035433f, 0.113485f, -0.090732f, -0.012073f, 0.154096f, 0.349661f, -0.228525f, 0.164995f, 0.063082f, -0.092558f, -0.019568f, -0.050211f, -0.238268f, -0.028555f, 0.046076f},
  {0.211206f, 0.026488f, -0.028369f, 0.020025f, 0.089024f, -0.118139f, 0.112767f, -0.017274f, -0.235471f, -0.025210f, -0.066024f, 0.178475f, -0.106043f, -0.002664f, -0.064319f, 0.039245f, -0.280671f, 0.104840f, 0.244607f, 0.343483f, 0.365841f, -0.200257f, 0.289095f, 0.039122f, 0.255087f, -0.018945f, -0.123704f, 0.136669f, 0.043224f, -0.128097f, -0.095057f, 0.149905f},
  {0.086905f, -0.130560f, 0.449805f, 0.317748f, 0.004842f, -0.059989f, 0.212040f, 0.005478f, -0.238666f, -0.030181f, 0.051056f, -0.048645f, 0.209420f, 0.118560f, -0.208478f, 0.203861f, -0.041764f, 0.083730f, -0.159927f, 0.025920f, 0.392798f, 0.098258f, -0.075498f, -0.011493f, -0.048236f, -0.231081f, 0.484946f, 0.051462f, -0.288382f, 0.023528f, 0.338252f, -0.336964f},
  {-0.169001f, -0.291453f, -0.131938f, -0.221189f, 0.109664f, 0.382661f, -0.282965f, 0.147715f, 0.216399f, -0.057699f, 0.017123f, 0.055425f, -0.257752f, -0.008468f, -0.270353f, 0.087594f, -0.008989f, 0.011769f, 0.055501f, -0.166108f, -0.391506f, 0.003382f, 0.025472f, 0.145927f, 0.050559f, 0.122555f, 0.314331f, -0.226709f, 0.039730f, 0.046368f, -0.058602f, -0.061328f},
  {-0.077903f, 0.060307f, -0.088735f, -0.011404f, -0.042996f, 0.013869f, -0.202591f, 0.078914f, -0.004204f, 0.099601f, 0.117959f, -0.021180f, 0.333183f, 0.530486f, -0.044600f, -0.066362f, 0.046792f, 0.264586f, -0.242129f, 0.190905f, 0.120984f, -0.293629f, 0.091613f, -0.173081f, -0.116872f, 0.226283f, -0.004490f, 0.054273f, -0.171608f, -0.254808f, -0.034211f, 0.246651f},
  {-0.099904f, -0.364474f, 0.162417f, 0.151192f, 0.009946f, -0.025868f, 0.245317f, 0.326776f, -0.079028f, -0.130808f, 0.047539f, 0.059865f, 0.099139f, -0.227525f, -0.132558f, -0.468424f, -0.060080f, -0.135097f, 0.075397f, 0.160447f, -0.009738f, 0.058196f, -0.077756f, -0.056908f, 0.197015f, 0.053700f, 0.132844f, 0.103341f, 0.065320f, -0.095285f, 0.022148f, 0.018054f},
  {-0.546708f, -0.378702f, 0.076159f, -0.040658f, -0.143948f, -0.269271f, -0.238072f, 0.171293f, 0.349899f, -0.164620f, 0.108861f, -0.084016f, 0.223429f, 0.153692f, 0.223213f, 0.142111f, 0.281991f, 0.215032f, -0.144617f, 0.009515f, -0.218211f, -0.163350f, 0.371688f, -0.044891f, -0.282808f, 0.250940f, -0.029392f, -0.046810f, 0.061303f, -0.137163f, -0.180825f, 0.011207f},
  {-0.042780f, -0.378758f, -0.019933f, 0.140113f, 0.175313f, -0.145054f, 0.093253f, -0.056639f, -0.030135f, -0.039214f, -0.036070f, -0.044430f, 0.121381f, 0.354585f, -0.011876f, -0.354058f, 0.109187f, 0.007315f, -0.004061f, -0.078509f, 0.055659f, -0.057365f, 0.104902f, -0.269586f, 0.067754f, -0.195472f, -0.005718f, 0.114075f, 0.087133f, 0.101498f, -0.074127f, 0.218554f},
  {-0.069550f, -0.004372f, 0.185746f, -0.155226f, -0.207044f, 0.189930f, 0.320813f, 0.019548f, -0.026991f, 0.138094f, -0.370858f, 0.088945f, -0.036196f, -0.156406f, 0.167528f, 0.269296f, -0.094672f, -0.242255f, 0.038192f, -0.163307f, 0.102065f, 0.008347f, 0.098492f, 0.137915f, 0.011902f, 0.075227f, -0.359991f, -0.153506f, 0.254313f, 0.407238f, -0.069089f, 0.180319f},
  {-0.152558f, -0.371211f, 0.087264f, 0.302384f, 0.139579f, 0.351128f, -0.145480f, 0.212481f, 0.114243f, -0.180877f, -0.041421f, 0.121317f, 0.037922f, 0.253937f, -0.013752f, -0.149143f, 0.096141f, 0.066934f, 0.045889f, 0.182519f, -0.022429f, 0.311606f, -0.199836f, -0.170369f, -0.176067f, 0.363504f, 0.042650f, 0.260561f, 0.031862f, -0.197296f, 0.161522f, -0.169390f},
  {0.048083f, 0.324101f, 0.076361f, -0.153104f, 0.289294f, 0.062723f, 0.093602f, -0.262340f, -0.030023f, 0.269720f, -0.212480f, 0.083290f, -0.460553f, -0.063035f, -0.015531f, 0.123428f, 0.106674f, 0.122688f, -0.122634f, 0.228598f, 0.348191f, -0.259668f, 0.270351f, -0.215310f, 0.285254f, 0.104735f, -0.327792f, -0.047975f, -0.094081f, -0.364318f, -0.131629f, 0.126419f},
  {0.117676f, 0.323215f, 0.466364f, 0.017524f, 0.105998f, 0.069286f, -0.170698f, 0.002464f, 0.010211f, -0.082091f, 0.254635f, 0.073540f, -0.285636f, 0.186067f, -0.046518f, -0.029424f, -0.078536f, -0.164069f, 0.023282f, -0.106794f, 0.132210f, -0.274711f, -0.076521f, 0.149709f, -0.059435f, 0.182736f, -0.092918f, -0.168053f, -0.256751f, -0.144346f, 0.352372f, -0.039241f},
  {0.195633f, -0.016695f, 0.146871f, -0.248942f, 0.320879f, -0.095141f, -0.226574f, 0.297880f, -0.171895f, -0.147102f, -0.061617f, -0.176885f, 0.132538f, -0.045791f, -0.283390f, 0.054315f, 0.036711f, 0.002413f, 0.111222f, 0.134498f, 0.145539f, 0.187330f, 0.069246f, 0.192461f, -0.223644f, -0.112355f, 0.082455f, 0.139625f, 0.140936f, 0.031283f, 0.144054f, 0.464833f},
  {-0.093587f, 0.243771f, 0.043391f, -0.103042f, 0.170693f, -0.095317f, -0.015892f, -0.120565f, -0.054382f, 0.225956f, -0.033058f, -0.134217f, -0.021324f, -0.051856f, 0.163192f, 0.165718f, 0.106506f, 0.015214f, 0.115513f, 0.093088f, -0.223218f, 0.230587f, 0.113704f, -0.403327f, 0.245341f, -0.108690f, -0.025579f, -0.009826f, 0.199035f, -0.191248f, 0.100102f, -0.046199f},
  {0.057257f, 0.138776f, -0.044997f, -0.116810f, 0.095448f, -0.093560f, 0.115688f, 0.018755f, 0.073256f, 0.021808f, 0.305788f, 0.049670f, 0.081401f, 0.410706f, -0.034096f, -0.376520f, 0.199896f, 0.045023f, -0.039897f, 0.066295f, -0.093045f, -0.396743f, -0.119983f, 0.237974f, -0.136088f, 0.051769f, -0.093739f, -0.029024f, -0.046634f, -0.298883f, 0.236131f, -0.289198f},
  {-0.108498f, 0.246245f, 0.251580f, 0.046268f, -0.288611f, 0.255723f, -0.216890f, -0.188609f, 0.078775f, -0.160044f, 0.269452f, 0.109374f, -0.144357f, -0.012109f, 0.336920f, -0.138814f, -0.192142f, -0.070757f, 0.152780f, -0.142028f, -0.448812f, 0.149650f, 0.031237f, -0.076417f, -0.140231f, -0.135634f, 0.074607f, 0.187600f, -0.317975f, 0.272637f, 0.183771f, -0.107389f},
  {-0.156695f, -0.135044f, -0.016452f, 0.006702f, 0.055674f, 0.183628f, 0.104463f, 0.096179f, -0.170431f, 0.089147f, -0.193612f, 0.147281f, -0.019888f, 0.083500f, -0.055084f, -0.129423f, -0.134002f, -0.142597f, -0.089017f, -0.107175f, 0.019902f, -0.043249f, -0.104674f, 0.064688f, 0.222981f, -0.143618f, 0.031245f, 0.177445f, -0.124031f, 0.143092f, -0.014436f, -0.188118f},
  {-0.045815f, -0.062122f, 0.176759f, 0.053073f, -0.157413f, 0.149869f, 0.188274f, 0.021853f, -0.147416f, -0.064946f, -0.042921f, -0.178290f, 0.218062f, 0.310516f, 0.135952f, -0.283820f, 0.090288f, 0.016467f, -0.022012f, 0.087557f, -0.049331f, 0.119472f, 0.204004f, 0.116134f, 0.444107f, -0.130966f, 0.088317f, 0.219499f, -0.353009f, 0.221012f, 0.030329f, -0.048208f},
  {0.112503f, -0.150995f, 0.251206f, 0.112198f, -0.038888f, 0.208835f, 0.010011f, -0.128484f, -0.325661f, 0.267176f, -0.265995f, -0.213194f, 0.127295f, -0.003057f, 0.008261f, -0.322055f, 0.098637f, -0.049070f, 0.003655f, -0.059090f, -0.485292f, -0.173535f, 0.093533f, -0.262036f, -0.307795f, 0.108693f, -0.034965f, 0.084113f, -0.027879f, -0.147356f, 0.172049f, 0.093142f},
  {-0.033566f, -0.039994f, -0.038690f, -0.017500f, -0.020201f, -0.214502f, -0.180054f, 0.042231f, -0.276789f, 0.422728f, 0.023306f, 0.021278f, 0.131028f, 0.194523f, 0.304899f, 0.038718f, -0.029532f, -0.003623f, -0.089848f, -0.108845f, -0.126016f, -0.107441f, 0.036979f, 0.027165f, -0.124364f, -0.126644f, -0.082852f, -0.063553f, 0.046560f, -0.036486f, -0.188736f, 0.004681f},
  {-0.197215f, -0.125864f, -0.090777f, 0.156376f, -0.324965f, -0.036816f, 0.125393f, 0.222856f, -0.209965f, -0.011910f, 0.316053f, 0.383195f, -0.107015f, 0.105048f, 0.038127f, 0.305757f, -0.000941f, -0.106787f, 0.083490f, -0.310383f, -0.033474f, -0.133022f, 0.031673f, -0.052874f, -0.042649f, -0.084451f, -0.004192f, -0.134878f, 0.136807f, 0.005315f, -0.004098f, -0.016237f},
  {-0.111133f, -0.196670f, -0.009439f, -0.281624f, -0.272887f, 0.316914f, -0.063620f, 0.183788f, -0.091781f, 0.001155f, -0.151437f, 0.093033f, 0.265006f, -0.020343f, 0.158434f, 0.369670f, 0.076686f, 0.020879f, 0.256782f, -0.028050f, -0.021906f, -0.046311f, -0.071470f, -0.046208f, -0.073861f, -0.123290f, 0.293012f, -0.079987f, -0.156148f, -0.125882f, 0.168833f, 0.119193f},
  {-0.134613f, -0.012731f, 0.070219f, -0.235859f, 0.015815f, -0.010843f, 0.044577f, -0.108977f, 0.120112f, -0.014405f, 0.083743f, -0.097998f, 0.027523f, -0.301504f, -0.118566f, 0.249418f, -0.007212f, -0.048905f, 0.003260f, 0.190209f, 0.175305f, 0.161051f, -0.150483f, -0.165276f, 0.069348f, 0.260507f, 0.291380f, -0.393469f, -0.133038f, 0.093292f, 0.111072f, -0.194640f},
  {0.158218f, -0.099140f, -0.242391f, 0.025670f, -0.335427f, 0.143164f, -0.084033f, -0.200690f, 0.037963f, 0.177950f, -0.332859f, 0.248143f, -0.042393f, 0.171160f, -0.026346f, -0.088344f, 0.133467f, -0.012531f, -0.417497f, 0.109019f, -0.250492f, -0.087722f, 0.163687f, 0.346187f, -0.141091f, -0.050545f, -0.132494f, -0.165848f, 0.025682f, 0.115040f, -0.206088f, 0.009417f},
  {0.037167f, -0.039287f, -0.092333f, 0.361754f, 0.000540f, 0.480902f, -0.177069f, 0.193234f, 0.009676f, 0.064241f, -0.243811f, -0.026073f, -0.213673f, 0.248541f, 0.209940f, -0.032058f, 0.191269f, 0.099635f, 0.334720f, 0.089641f, 0.319751f, 0.106542f, -0.111334f, -0.030071f, -0.055442f, 0.207558f, -0.056683f, 0.299978f, 0.148418f, 0.011166f, -0.120802f, 0.209788f},
  {-0.145662f, -0.123862f, 0.374834f, -0.259502f, 0.265322f, -0.078695f, 0.092945f, -0.345774f, 0.170567f, -0.168751f, 0.199277f, 0.127375f, 0.078980f, -0.152261f, 0.337692f, -0.063337f, -0.108659f, -0.082374f, 0.059546f, 0.083613f, -0.031743f, 0.130020f, -0.246845f, 0.272147f, -0.057574f, 0.174002f, -0.220858f, 0.087401f, -0.216258f, -0.121918f, 0.061317f, 0.185290f},
  {0.338058f, 0.271740f, 0.172493f, -0.092167f, -0.044443f, -0.004577f, -0.044343f, 0.131032f, 0.158572f, -0.267736f, 0.019180f, 0.183806f, 0.148162f, -0.011415f, 0.030390f, -0.038611f, 0.251293f, 0.020414f, -0.074837f, -0.140559f, -0.236269f, 0.173293f, 0.370811f, 0.076061f, -0.174170f, -0.098349f, 0.107675f, 0.042177f, -0.158090f, 0.170627f, -0.159514f, 0.222435f},
  {-0.045705f, -0.079683f, -0.009313f, 0.089839f, -0.013479f, 0.038675f, -0.048551f, 0.057064f, -0.244586f, 0.032293f, 0.160980f, -0.080639f, 0.033822f, 0.190123f, -0.056518f, -0.103639f, -0.193917f, 0.024770f, 0.148280f, 0.187420f, -0.012018f, -0.357604f, 0.420575f, 0.328201f, 0.197985f, -0.035198f, -0.131597f, 0.141439f, 0.414489f, -0.125072f, 0.019231f, -0.219102f},
  {0.037406f, -0.015531f, -0.163790f, -0.228272f, 0.089762f, -0.315115f, -0.115708f, -0.022229f, -0.285506f, 0.054214f, 0.123250f, -0.149481f, -0.154015f, 0.262997f, -0.057646f, -0.106095f, -0.162216f, 0.022884f, -0.336266f, 0.110512f, 0.429954f, -0.057813f, 0.274189f, -0.058881f, -0.207122f, -0.174366f, -0.273184f, 0.169836f, -0.008986f, -0.096850f, 0.219201f, -0.125051f},
  {0.140230f, -0.106597f, 0.201002f, -0.160035f, 0.209299f, -0.385387f, -0.056197f, 0.158404f, 0.138053f, -0.260831f, -0.103817f, 0.291915f, 0.016246f, -0.137139f, 0.165142f, -0.121732f, -0.021493f, 0.292591f, -0.255414f, 0.200727f, -0.044655f, 0.014535f, -0.023786f, -0.102603f, 0.149206f, -0.003902f, 0.011498f, -0.122261f, 0.031801f, -0.092249f, -0.171317f, -0.072038f},
  {-0.202504f, 0.024987f, -0.149981f, 0.125319f, 0.145986f, 0.037668f, -0.067773f, 0.168913f, 0.157660f, -0.260712f, -0.024464f, -0.298539f, -0.100345f, 0.000027f, -0.025579f, 0.436598f, -0.026397f, -0.005796f, 0.175121f, -0.018218f, -0.123107f, 0.043333f, 0.051292f, -0.015261f, -0.153322f, 0.145223f, -0.056352f, -0.209026f, 0.203663f, 0.230243f, -0.115076f, -0.062506f},
  {0.119185f, 0.186956f, -0.346508f, -0.230493f, -0.234379f, 0.053176f, -0.096421f, 0.021688f, -0.291178f, -0.055399f, -0.221948f, 0.112549f, 0.071508f, 0.057302f, -0.225819f, 0.104052f, -0.225795f, -0.336364f, -0.212987f, 0.222533f, -0.193800f, 0.030477f, -0.235105f, -0.077549f, -0.305344f, 0.041932f, -0.189489f, -0.092703f, 0.191110f, 0.245510f, -0.086591f, -0.164289f},
};

static const float layer_3_biases[32] = {
  0.008734f, 0.014691f, -0.006756f, -0.008191f, -0.007921f, -0.000266f, -0.006191f, 0.007301f, -0.009902f, -0.003121f, 0.003859f, 0.004451f, -0.009975f, 0.000687f, -0.001666f, -0.013263f, 0.001044f, 0.008592f, -0.007264f, -0.007940f, -0.004635f, 0.006214f, -0.000607f, -0.010774f, 0.006656f, 0.005719f, 0.012518f, -0.002091f, 0.000699f, -0.006307f, 0.001457f, -0.005278f
};

// Network structure
typedef struct {
    int num_layers;
    int layer_sizes[4];  // Input + 3 layers
} cortex_neural_arch_t;

static const cortex_neural_arch_t cortex_neural_arch = {
    .num_layers = 3,
    .layer_sizes = {49, 64, 32, 32}
};

// Forward inference function
void cortex_neural_forward(const float input[49], float output[32]);

#endif // CORTEX_NEURAL_WEIGHTS_H
