// 🧠⚡ CortexCrypto Neural Network - Auto-generated
// Neural-augmented key derivation weights and biases

#ifndef CORTEX_NEURAL_WEIGHTS_H
#define CORTEX_NEURAL_WEIGHTS_H

// Layer 1: 49 → 64 (relu)
static const float layer_1_weights[64][49] = {
  {0.028419f, -0.289813f, 0.100119f, 0.123515f, 0.127132f, -0.068112f, -0.136842f, -0.043217f, 0.280553f, -0.031062f, -0.152895f, -0.205384f, 0.026144f, -0.168301f, -0.380720f, -0.073581f, 0.286788f, 0.141680f, 0.303729f, -0.070335f, 0.007801f, 0.104004f, -0.009281f, 0.177810f, -0.041612f, -0.058551f, -0.026089f, -0.127651f, -0.164801f, -0.185395f, -0.250621f, -0.038518f, 0.066915f, 0.151530f, 0.072818f, 0.047337f, 0.178304f, 0.053227f, 0.045521f, -0.088930f, -0.300612f, 0.118305f, -0.066557f, -0.417603f, -0.090042f, -0.219085f, -0.001834f, 0.028330f, -0.082223f},
  {0.021256f, 0.008480f, 0.142821f, 0.018107f, 0.080871f, -0.048092f, 0.015857f, 0.277480f, 0.106156f, -0.100757f, -0.159081f, -0.004836f, -0.160409f, -0.114536f, -0.136231f, 0.098489f, -0.154019f, 0.031519f, -0.099928f, 0.296226f, -0.013446f, 0.033616f, 0.195225f, -0.148815f, -0.074264f, 0.046804f, 0.095823f, 0.112128f, 0.086043f, 0.087472f, 0.026342f, -0.070152f, -0.096930f, -0.110514f, 0.024557f, 0.081499f, 0.112330f, -0.083701f, -0.112539f, -0.050587f, -0.038013f, 0.116960f, 0.149259f, -0.137813f, -0.294571f, 0.131017f, 0.149798f, -0.110375f, -0.045850f},
  {0.170470f, -0.005237f, 0.181928f, 0.130448f, 0.182746f, -0.268636f, -0.072253f, -0.047377f, -0.051147f, 0.042223f, 0.210174f, -0.297224f, 0.079313f, 0.115876f, -0.196986f, -0.065592f, 0.061364f, 0.200627f, -0.163915f, -0.078087f, -0.149017f, -0.110908f, -0.092225f, -0.213588f, -0.112707f, 0.054209f, 0.146266f, 0.041738f, -0.152951f, -0.196342f, 0.127439f, 0.027529f, 0.036665f, -0.147536f, -0.004494f, 0.149776f, -0.147101f, -0.187185f, 0.022728f, 0.058128f, -0.002305f, 0.018931f, -0.020096f, -0.045892f, 0.128151f, -0.034417f, 0.108141f, -0.046904f, -0.242817f},
  {-0.002288f, -0.008256f, -0.075565f, 0.127009f, 0.016359f, 0.125713f, -0.120995f, 0.117719f, -0.095168f, 0.011564f, -0.171181f, -0.058804f, -0.086338f, 0.195084f, -0.101867f, 0.101179f, 0.321377f, 0.149242f, 0.070698f, 0.005895f, 0.118217f, 0.029474f, -0.049989f, -0.177990f, 0.067409f, 0.034651f, 0.320893f, -0.090402f, -0.010417f, -0.160446f, 0.069023f, -0.155953f, 0.099180f, -0.106605f, -0.141169f, -0.040663f, 0.017512f, -0.001509f, 0.132279f, -0.000168f, 0.166356f, -0.419925f, -0.037464f, 0.221547f, -0.104088f, -0.150417f, 0.234293f, 0.211557f, -0.073076f},
  {0.018525f, -0.013416f, -0.129702f, -0.071793f, -0.163061f, -0.271443f, 0.191688f, -0.113054f, 0.189871f, -0.039935f, 0.015156f, 0.131353f, 0.122339f, 0.176343f, -0.007268f, 0.011147f, 0.179500f, -0.069264f, -0.209607f, 0.280138f, 0.045925f, 0.042803f, 0.006289f, -0.086342f, -0.029237f, -0.154878f, 0.055865f, -0.063037f, 0.096560f, 0.125615f, 0.279555f, 0.073549f, -0.092847f, 0.067476f, -0.281246f, -0.074291f, -0.044041f, -0.106123f, -0.089071f, -0.097914f, 0.060909f, -0.048819f, 0.066452f, -0.319110f, -0.081545f, -0.050408f, 0.011782f, 0.065936f, 0.061327f},
  {-0.011365f, 0.043058f, 0.243307f, 0.209899f, -0.070421f, 0.152480f, -0.043089f, 0.181499f, -0.043789f, -0.001373f, 0.189000f, -0.055276f, -0.116107f, 0.149889f, 0.024658f, 0.021399f, 0.020985f, 0.227551f, -0.166712f, -0.016302f, -0.036792f, 0.017772f, -0.103724f, 0.267902f, 0.017414f, 0.083215f, -0.285241f, 0.088280f, -0.056232f, -0.374249f, -0.117691f, -0.062845f, -0.051586f, 0.095209f, 0.080803f, 0.011216f, 0.041786f, 0.155958f, 0.020130f, -0.121365f, 0.039890f, 0.077932f, 0.070322f, -0.181982f, -0.090247f, -0.063452f, -0.119733f, 0.130354f, -0.111370f},
  {0.017214f, 0.111634f, -0.197403f, 0.071800f, -0.013574f, 0.045524f, -0.351119f, -0.082925f, 0.038665f, -0.061636f, -0.071150f, -0.046535f, 0.045461f, -0.107720f, -0.098642f, 0.328104f, 0.128945f, -0.012692f, -0.032707f, -0.093479f, 0.073285f, 0.315050f, -0.093924f, -0.105391f, 0.255937f, 0.047636f, -0.146452f, 0.234154f, -0.034594f, 0.219934f, 0.242709f, -0.060891f, 0.068746f, -0.001964f, -0.067037f, 0.000689f, 0.006641f, -0.065692f, -0.008929f, -0.118829f, -0.066210f, -0.073633f, 0.161473f, 0.122219f, -0.003904f, 0.019187f, -0.384870f, 0.160653f, -0.078426f},
  {-0.046499f, -0.109405f, 0.021430f, 0.010611f, -0.114880f, 0.000091f, 0.120385f, 0.039501f, 0.092882f, 0.282251f, -0.165395f, 0.105407f, 0.044805f, -0.105769f, 0.136746f, -0.182858f, 0.123175f, -0.002536f, 0.194582f, -0.379103f, -0.020413f, 0.213387f, 0.117061f, 0.019683f, 0.033842f, -0.033205f, -0.295947f, 0.127708f, -0.031974f, 0.146850f, -0.277823f, 0.012166f, -0.274919f, 0.057914f, -0.310850f, 0.121503f, -0.075639f, 0.015091f, 0.033181f, 0.023543f, 0.021129f, 0.171352f, 0.196614f, -0.057369f, -0.038283f, -0.231824f, -0.080154f, -0.193743f, -0.111034f},
  {0.118514f, 0.128517f, -0.097538f, 0.085279f, -0.021552f, -0.072527f, -0.111753f, -0.006042f, -0.040342f, -0.226927f, 0.149149f, 0.256689f, 0.012193f, 0.088201f, 0.210430f, 0.069617f, -0.083685f, -0.056035f, -0.087489f, 0.085725f, 0.110666f, 0.003081f, 0.032104f, -0.240963f, -0.165712f, -0.189231f, -0.060014f, -0.039676f, -0.075218f, -0.064899f, 0.031631f, 0.018327f, -0.088618f, 0.141386f, 0.092553f, 0.042404f, 0.176020f, -0.004362f, -0.117090f, 0.114063f, 0.154430f, -0.045869f, -0.068820f, 0.102474f, 0.179709f, 0.353059f, 0.156346f, 0.039585f, -0.108461f},
  {0.096584f, -0.051394f, -0.193024f, 0.141379f, -0.127591f, -0.213585f, -0.104205f, -0.029673f, -0.137961f, 0.040742f, 0.185512f, 0.096112f, -0.190936f, 0.156509f, -0.076117f, -0.135601f, -0.119161f, 0.165467f, -0.084837f, -0.094506f, -0.177831f, -0.006368f, -0.017731f, 0.230524f, -0.025809f, 0.053335f, -0.105697f, -0.109155f, -0.180074f, 0.028395f, 0.073465f, 0.048051f, 0.203025f, 0.102712f, 0.136794f, -0.076125f, -0.008467f, 0.129599f, -0.201248f, -0.135177f, -0.156824f, 0.082011f, 0.011326f, 0.027632f, -0.057197f, 0.094133f, 0.021400f, 0.044204f, -0.047624f},
  {0.044645f, 0.138473f, 0.171659f, -0.025353f, 0.172280f, 0.028660f, 0.065269f, -0.008938f, 0.055989f, -0.087707f, 0.197502f, 0.121422f, -0.183528f, 0.012397f, 0.052554f, -0.064160f, -0.156614f, -0.066305f, -0.122171f, -0.069896f, 0.061228f, 0.093246f, -0.108227f, 0.030882f, -0.081973f, 0.005167f, -0.053212f, 0.098468f, -0.215748f, 0.001218f, 0.131593f, 0.112832f, 0.162421f, -0.095903f, -0.180102f, -0.148570f, -0.285109f, 0.072763f, -0.064272f, 0.050259f, -0.318993f, 0.014292f, -0.096791f, 0.035523f, -0.062706f, -0.215185f, -0.107836f, 0.028318f, 0.173204f},
  {-0.056471f, 0.254584f, 0.041643f, 0.143860f, -0.182947f, -0.194740f, -0.218229f, 0.030315f, 0.148260f, -0.254466f, -0.121603f, -0.132223f, -0.200741f, 0.103544f, -0.001367f, -0.141468f, 0.013881f, 0.017825f, -0.099290f, 0.054513f, -0.026683f, -0.070388f, 0.095734f, 0.020250f, 0.186427f, -0.142356f, 0.067764f, -0.187956f, -0.089084f, 0.196967f, -0.124327f, -0.138126f, -0.019075f, -0.161047f, -0.164922f, -0.097864f, -0.023590f, 0.006386f, 0.078717f, 0.028009f, 0.137845f, 0.010256f, -0.158300f, -0.063513f, 0.263641f, -0.269928f, -0.021493f, -0.047285f, 0.068072f},
  {0.285129f, 0.048437f, 0.128654f, -0.148620f, -0.071026f, -0.007904f, -0.106766f, -0.252234f, 0.286712f, -0.090353f, 0.084603f, -0.019375f, -0.087271f, 0.006908f, -0.251262f, -0.287567f, -0.194571f, 0.047409f, -0.148956f, -0.095151f, 0.130502f, -0.072831f, 0.050175f, 0.083364f, 0.093071f, -0.307572f, 0.166854f, -0.013025f, 0.055547f, -0.099896f, 0.057289f, -0.051824f, 0.058687f, 0.088164f, 0.097734f, 0.073247f, 0.006800f, -0.114737f, 0.184205f, 0.142999f, -0.182939f, -0.159834f, 0.253177f, -0.198730f, -0.105282f, 0.073574f, 0.188577f, -0.132960f, -0.198941f},
  {-0.067392f, -0.016529f, 0.199216f, -0.306098f, 0.039729f, 0.047733f, -0.181288f, -0.023393f, 0.091457f, 0.125046f, -0.269465f, 0.153120f, 0.116407f, 0.162172f, 0.050316f, 0.298535f, 0.176386f, 0.176880f, 0.128016f, -0.180236f, 0.028782f, 0.247319f, 0.383012f, 0.078939f, 0.123667f, 0.113410f, 0.321036f, 0.027044f, -0.123095f, 0.066291f, 0.310382f, -0.082960f, -0.159603f, -0.114968f, -0.003320f, -0.270862f, 0.237519f, -0.227945f, 0.003940f, -0.160743f, 0.053593f, 0.172408f, -0.153429f, -0.137139f, -0.144551f, 0.287812f, 0.019649f, 0.000370f, -0.042320f},
  {0.242529f, 0.005964f, 0.095230f, -0.013532f, -0.015170f, 0.175863f, -0.137347f, 0.144597f, -0.136935f, -0.066323f, -0.045938f, 0.046649f, 0.202997f, 0.027365f, 0.213215f, -0.124179f, 0.072460f, -0.018214f, 0.025308f, 0.146471f, 0.200674f, 0.118357f, 0.054448f, -0.024787f, 0.069568f, 0.054360f, 0.248641f, -0.010053f, 0.049290f, 0.077682f, 0.005112f, 0.177623f, -0.151177f, -0.057061f, -0.071571f, -0.154680f, 0.300066f, -0.262157f, -0.146864f, -0.053174f, 0.050609f, -0.059866f, 0.122372f, 0.011639f, 0.110888f, -0.030614f, 0.124026f, 0.349244f, 0.016812f},
  {-0.038563f, 0.030255f, -0.098278f, 0.063665f, 0.080067f, -0.106328f, 0.055484f, -0.114509f, -0.028764f, 0.126238f, -0.050626f, 0.107882f, -0.027072f, -0.045372f, 0.028345f, -0.069180f, 0.168651f, -0.007540f, 0.017809f, 0.093690f, 0.150010f, -0.143849f, -0.136885f, -0.078407f, 0.079104f, 0.063645f, 0.030875f, -0.115921f, -0.110532f, 0.139138f, 0.151632f, 0.157510f, 0.057867f, -0.024136f, 0.036095f, -0.024301f, 0.066009f, 0.024080f, 0.242216f, -0.249644f, 0.064657f, -0.025418f, 0.047885f, 0.162611f, -0.133672f, 0.086956f, -0.212663f, -0.209654f, -0.015027f},
  {-0.116550f, -0.022678f, -0.275778f, -0.159028f, -0.089251f, -0.041738f, -0.183677f, -0.147332f, -0.114304f, -0.245015f, 0.007995f, 0.112228f, 0.002857f, 0.167196f, 0.055472f, -0.249406f, 0.137134f, 0.161865f, -0.123748f, -0.249446f, -0.047039f, -0.099305f, -0.065235f, 0.225379f, 0.252187f, -0.016232f, 0.039398f, 0.119369f, 0.046985f, -0.090154f, 0.008984f, -0.078926f, 0.161847f, 0.306034f, -0.167324f, -0.041171f, -0.057972f, 0.097103f, 0.235415f, -0.288324f, -0.138584f, 0.064252f, 0.045190f, 0.059722f, 0.148729f, -0.108041f, -0.336785f, -0.051905f, 0.194240f},
  {-0.165369f, 0.036444f, -0.242888f, -0.161949f, -0.032837f, 0.206892f, 0.090587f, 0.060334f, -0.010177f, 0.058709f, 0.125348f, -0.124527f, 0.286031f, -0.060716f, -0.122022f, -0.182801f, 0.206915f, -0.112388f, -0.169895f, 0.170868f, 0.183082f, 0.064529f, 0.007177f, -0.042012f, -0.187052f, 0.097250f, -0.069064f, -0.035457f, 0.030086f, 0.035364f, 0.038111f, -0.181573f, -0.187039f, 0.110713f, -0.035440f, -0.491308f, -0.104164f, 0.006661f, -0.341882f, 0.149064f, 0.063118f, 0.015161f, 0.050149f, -0.032082f, -0.089819f, -0.005897f, 0.098787f, 0.060750f, -0.020866f},
  {-0.198980f, 0.156134f, -0.129911f, -0.036706f, -0.275593f, -0.012854f, -0.007403f, -0.084897f, 0.006250f, -0.086080f, 0.074006f, 0.223278f, 0.087368f, 0.241051f, 0.108750f, 0.155604f, -0.066643f, -0.102560f, 0.020158f, -0.128795f, -0.131522f, 0.007776f, 0.195459f, -0.070300f, -0.123330f, -0.095994f, 0.083811f, -0.081069f, 0.135897f, 0.046293f, -0.145183f, -0.113897f, -0.153347f, 0.113098f, 0.135404f, 0.208759f, 0.056595f, 0.169198f, -0.102710f, -0.351546f, -0.278803f, 0.029651f, -0.204448f, 0.047459f, 0.011791f, 0.060313f, -0.118847f, 0.058367f, 0.113234f},
  {0.149357f, 0.003043f, 0.159209f, -0.014929f, 0.118019f, -0.037253f, -0.028350f, -0.022531f, -0.008112f, 0.165481f, -0.049523f, 0.019817f, 0.210002f, 0.014467f, -0.310737f, 0.002688f, 0.036846f, 0.094863f, 0.167211f, -0.019269f, -0.105410f, -0.145208f, -0.048840f, 0.039856f, 0.150654f, -0.133477f, -0.016094f, 0.065046f, 0.079607f, 0.070211f, 0.185352f, -0.014235f, 0.099773f, 0.268456f, -0.019876f, -0.235021f, -0.128179f, 0.016054f, 0.351082f, -0.014925f, -0.153558f, -0.044359f, 0.149834f, -0.009224f, 0.116617f, -0.178122f, 0.014044f, 0.236521f, -0.087843f},
  {0.043920f, 0.114586f, 0.016572f, -0.157904f, -0.046512f, 0.119484f, 0.023692f, 0.042051f, 0.302872f, -0.003483f, 0.161029f, -0.017661f, 0.135637f, -0.007693f, -0.033653f, 0.092711f, 0.222598f, 0.217147f, -0.055274f, -0.097591f, -0.118167f, -0.014528f, 0.146562f, 0.106983f, -0.090529f, 0.194214f, -0.038324f, -0.079661f, -0.019455f, -0.024194f, 0.109078f, -0.125543f, -0.073616f, 0.133087f, 0.185596f, 0.065689f, 0.114172f, -0.051366f, -0.072778f, -0.076991f, 0.063684f, -0.052543f, -0.389266f, 0.132544f, 0.004321f, -0.157935f, 0.163708f, 0.089812f, 0.169794f},
  {-0.004974f, -0.192551f, 0.102148f, -0.047156f, 0.273877f, -0.227849f, 0.278292f, 0.017869f, -0.086381f, 0.033570f, 0.188019f, -0.089991f, -0.110099f, 0.009714f, 0.021034f, 0.052150f, 0.122465f, -0.029777f, 0.057832f, 0.000893f, -0.156334f, 0.197125f, -0.018025f, 0.126857f, -0.215601f, 0.152997f, 0.201108f, 0.103169f, 0.045792f, -0.031854f, 0.018138f, 0.041956f, 0.296383f, -0.024706f, -0.025487f, 0.050724f, -0.030034f, -0.332121f, -0.259496f, -0.075065f, 0.121035f, 0.157335f, 0.027093f, -0.016569f, 0.154778f, -0.092058f, -0.020902f, -0.015000f, -0.032315f},
  {0.139073f, 0.061955f, 0.037588f, 0.160110f, 0.055164f, 0.094403f, 0.239679f, -0.070221f, -0.130119f, -0.059936f, -0.116929f, -0.031277f, -0.084579f, 0.103562f, 0.186851f, -0.177072f, -0.001843f, -0.049473f, 0.157250f, 0.104432f, -0.198564f, -0.262164f, -0.160463f, -0.127133f, -0.090715f, -0.021893f, 0.132346f, 0.087942f, 0.045510f, 0.082304f, 0.015050f, -0.157815f, 0.276673f, -0.103466f, -0.145372f, 0.032466f, 0.009989f, 0.147729f, 0.041397f, -0.076726f, -0.046149f, -0.086368f, 0.055164f, 0.136023f, -0.040798f, 0.008296f, -0.136085f, 0.042133f, -0.153585f},
  {0.072172f, -0.018796f, -0.151285f, -0.216611f, -0.011038f, 0.167509f, 0.129699f, -0.106527f, 0.002092f, -0.007946f, 0.197349f, 0.065044f, 0.121638f, -0.021058f, -0.022060f, -0.069882f, 0.145081f, 0.224874f, 0.115382f, 0.151402f, -0.066733f, -0.033300f, 0.177456f, 0.128191f, -0.119682f, 0.098851f, -0.309998f, 0.240050f, 0.017932f, 0.023501f, 0.074001f, 0.028036f, 0.143512f, 0.086264f, 0.097597f, -0.120142f, -0.136477f, -0.197863f, -0.229388f, 0.063745f, 0.020859f, -0.077443f, -0.094318f, 0.127697f, 0.006969f, 0.031168f, 0.040441f, 0.021183f, 0.238967f},
  {0.093247f, 0.077332f, -0.196427f, -0.046157f, -0.007623f, -0.197922f, 0.016667f, 0.037206f, 0.024605f, -0.104859f, 0.123506f, -0.051285f, 0.098717f, -0.052770f, -0.005998f, 0.079579f, -0.014362f, 0.034733f, -0.290938f, 0.027753f, 0.093078f, -0.135438f, -0.140079f, 0.160212f, -0.021975f, -0.218236f, -0.062423f, -0.008763f, -0.115691f, 0.055249f, 0.149177f, -0.211232f, -0.122208f, 0.359130f, 0.017460f, -0.091072f, 0.157333f, 0.123713f, -0.035326f, -0.039619f, 0.023110f, 0.015994f, -0.150526f, 0.075572f, -0.192722f, 0.089710f, 0.023105f, 0.158693f, 0.218987f},
  {-0.116166f, 0.039840f, 0.276192f, -0.121959f, 0.174306f, -0.174852f, 0.283996f, -0.005780f, -0.036414f, -0.076018f, -0.150534f, 0.235263f, -0.242296f, 0.092757f, 0.015115f, -0.011204f, 0.012943f, 0.183610f, 0.024333f, 0.038627f, 0.248808f, -0.087397f, -0.073266f, -0.100183f, -0.066222f, 0.211376f, -0.096069f, -0.020323f, 0.052325f, 0.136235f, -0.030210f, -0.053028f, 0.030279f, 0.130321f, -0.016243f, 0.014264f, -0.084584f, -0.004644f, -0.214027f, 0.110086f, -0.003325f, -0.071459f, 0.004110f, -0.234209f, -0.119030f, 0.164252f, 0.194345f, -0.021898f, -0.033710f},
  {0.062111f, 0.179580f, -0.051758f, -0.117713f, -0.222220f, -0.077368f, 0.021287f, 0.050862f, -0.105760f, 0.006883f, 0.061363f, -0.018800f, 0.047311f, 0.087585f, -0.001897f, 0.048655f, -0.031586f, -0.102911f, 0.048316f, 0.067493f, -0.180836f, 0.168168f, 0.013184f, 0.016794f, 0.217790f, -0.109637f, 0.092249f, -0.041420f, -0.078986f, -0.071097f, 0.030245f, -0.164068f, -0.132473f, 0.235979f, 0.083212f, 0.303934f, -0.086006f, 0.130277f, -0.047061f, -0.146436f, 0.152431f, 0.009064f, 0.253365f, -0.225615f, 0.072567f, 0.088354f, -0.071542f, -0.041258f, -0.063352f},
  {-0.095703f, -0.087717f, 0.191819f, 0.110652f, 0.025758f, -0.249720f, 0.114147f, -0.179223f, 0.109649f, 0.167179f, 0.095550f, -0.289656f, -0.061343f, 0.023966f, -0.102906f, -0.018485f, 0.172591f, -0.164966f, 0.049627f, 0.052409f, -0.216828f, -0.192428f, 0.013967f, -0.099827f, 0.069570f, 0.039812f, 0.103528f, 0.032747f, -0.179679f, -0.124625f, 0.153117f, -0.308921f, 0.122473f, -0.144247f, 0.260370f, -0.206124f, 0.078425f, 0.042934f, 0.142989f, -0.077548f, 0.075264f, -0.067874f, 0.171676f, 0.037999f, -0.093512f, -0.058876f, 0.144111f, 0.237929f, -0.010629f},
  {-0.145042f, 0.148759f, 0.023590f, -0.160743f, -0.072563f, -0.213117f, 0.143547f, -0.018194f, -0.069714f, 0.288482f, 0.205492f, -0.106039f, -0.028411f, -0.114485f, -0.085776f, -0.066199f, 0.208828f, -0.105348f, 0.056058f, 0.056351f, -0.027216f, 0.213721f, -0.030732f, -0.016843f, -0.157625f, 0.198470f, 0.079017f, -0.023671f, 0.013941f, 0.141354f, -0.176581f, 0.034144f, -0.087592f, 0.024520f, -0.357681f, 0.011810f, -0.052284f, -0.112104f, 0.088100f, 0.151586f, -0.186617f, -0.154169f, 0.175112f, 0.024903f, 0.080019f, 0.198841f, -0.135053f, 0.117270f, -0.228841f},
  {0.136777f, 0.312013f, 0.040895f, -0.054619f, -0.133498f, 0.040178f, 0.026001f, -0.159449f, -0.106989f, -0.125573f, -0.041939f, 0.016635f, -0.024104f, -0.166642f, 0.062590f, 0.012675f, 0.212178f, 0.267037f, 0.114927f, 0.148351f, 0.089868f, -0.118403f, -0.197806f, 0.222492f, -0.027634f, 0.049322f, -0.092018f, 0.080789f, -0.241813f, 0.061175f, 0.012683f, -0.018474f, -0.186483f, 0.012976f, -0.117805f, 0.101909f, 0.120641f, 0.091219f, -0.233972f, 0.019801f, -0.022065f, -0.150831f, -0.009403f, -0.087799f, 0.152283f, 0.219700f, -0.271864f, 0.101854f, -0.179662f},
  {0.036847f, 0.129650f, 0.095813f, 0.267014f, 0.029497f, -0.056566f, 0.013365f, -0.090004f, -0.034582f, -0.001992f, 0.157695f, 0.101649f, 0.111287f, 0.071532f, -0.053185f, -0.131184f, 0.171896f, 0.070691f, 0.188465f, -0.209814f, 0.050919f, 0.162614f, 0.158536f, -0.121045f, 0.023365f, 0.020881f, 0.076590f, -0.029191f, -0.047880f, -0.026593f, -0.065409f, -0.145999f, -0.061933f, -0.176630f, 0.315937f, 0.232863f, 0.111644f, 0.009862f, -0.023940f, -0.137052f, -0.097872f, 0.019959f, 0.011651f, -0.048928f, -0.132851f, 0.117903f, -0.172630f, -0.095440f, 0.002463f},
  {0.177333f, 0.115048f, 0.117430f, 0.078854f, -0.143905f, 0.049757f, 0.093799f, -0.089501f, -0.016598f, 0.085574f, 0.305703f, 0.046301f, -0.367285f, 0.051711f, 0.213876f, 0.132816f, 0.095835f, 0.062871f, 0.054543f, -0.196739f, -0.162329f, 0.068312f, 0.092650f, 0.169929f, -0.239104f, -0.165733f, -0.167149f, -0.029101f, 0.199031f, -0.202665f, 0.041050f, -0.196128f, -0.071691f, 0.085795f, 0.120827f, -0.223805f, 0.083205f, 0.014894f, -0.025067f, -0.265342f, 0.053981f, 0.118212f, 0.032866f, -0.041662f, 0.191780f, 0.390636f, -0.017445f, 0.153535f, -0.278624f},
  {0.231250f, 0.145324f, 0.032543f, -0.013587f, -0.051698f, 0.139045f, 0.135277f, -0.287167f, 0.136608f, -0.301995f, 0.057594f, 0.056978f, 0.170284f, 0.145704f, 0.151566f, 0.033707f, -0.113444f, 0.071457f, 0.053475f, 0.088154f, 0.042667f, -0.078263f, 0.384708f, 0.044730f, -0.102466f, -0.071850f, 0.201951f, 0.177904f, 0.197395f, 0.003903f, -0.048521f, 0.135926f, -0.032376f, -0.158443f, 0.144963f, -0.001525f, -0.260897f, -0.029568f, -0.104004f, -0.014850f, 0.281395f, -0.039206f, -0.106251f, -0.129893f, -0.195866f, -0.039994f, -0.126594f, 0.339842f, 0.165465f},
  {0.006133f, 0.218216f, 0.136968f, 0.088335f, -0.100746f, 0.012292f, 0.278052f, -0.255344f, -0.077112f, 0.129849f, 0.031414f, -0.012270f, 0.149583f, 0.056435f, 0.011297f, 0.012156f, -0.251329f, 0.227246f, 0.022162f, -0.170791f, 0.453704f, 0.074404f, 0.056940f, -0.029115f, -0.016505f, -0.003786f, -0.311537f, 0.119666f, 0.054163f, 0.168183f, 0.116126f, 0.057413f, 0.009872f, -0.039332f, -0.172228f, -0.013531f, 0.030965f, 0.039471f, -0.191828f, -0.117156f, -0.079979f, 0.012455f, -0.046769f, -0.053482f, 0.000809f, 0.141001f, -0.249790f, -0.081177f, -0.227519f},
  {0.109638f, -0.101749f, -0.040956f, 0.017267f, -0.028164f, -0.261494f, 0.079096f, -0.261048f, -0.214751f, -0.044031f, -0.130930f, -0.012698f, -0.211875f, -0.082368f, 0.184266f, 0.305570f, 0.043927f, 0.020206f, 0.126228f, -0.032729f, -0.119727f, 0.022335f, 0.090601f, 0.229084f, -0.135773f, 0.072888f, -0.043706f, -0.039220f, -0.059174f, 0.069616f, 0.113470f, 0.053991f, 0.025968f, 0.077421f, -0.031507f, -0.112761f, 0.088387f, -0.174047f, -0.064270f, 0.071840f, 0.135559f, 0.050509f, -0.221499f, -0.005451f, 0.085602f, 0.108323f, 0.029431f, -0.057214f, 0.022217f},
  {0.210690f, 0.098988f, -0.155605f, 0.011252f, 0.105781f, -0.094162f, 0.282280f, -0.002642f, -0.230584f, -0.026049f, -0.048722f, 0.116529f, -0.238923f, -0.200363f, 0.095867f, 0.173565f, 0.039304f, -0.172806f, -0.070759f, 0.153078f, 0.165332f, 0.256678f, -0.119083f, 0.170441f, -0.288220f, 0.032122f, -0.076521f, 0.060913f, -0.005736f, 0.202228f, -0.033541f, 0.107557f, 0.074430f, -0.267357f, -0.067309f, -0.209064f, 0.029261f, 0.128473f, -0.043722f, -0.021590f, -0.336310f, 0.015472f, 0.003283f, 0.109774f, -0.017886f, 0.042403f, -0.127221f, -0.069234f, -0.188775f},
  {0.043712f, 0.132300f, -0.084393f, -0.288058f, 0.113462f, -0.024440f, 0.026846f, 0.040313f, -0.094641f, -0.034465f, -0.119616f, -0.204629f, 0.020036f, 0.155899f, -0.039758f, 0.175519f, -0.027741f, -0.178530f, -0.027145f, 0.017982f, -0.204927f, 0.086606f, 0.034476f, 0.079458f, -0.004711f, 0.048745f, -0.052206f, 0.084859f, -0.137370f, -0.095437f, 0.237671f, 0.002674f, 0.102555f, -0.057741f, -0.006541f, -0.006296f, 0.003675f, -0.068469f, -0.012533f, -0.017650f, -0.113041f, 0.080730f, 0.050481f, 0.038860f, 0.370487f, 0.203155f, 0.157174f, 0.029130f, 0.107047f},
  {-0.118248f, 0.248327f, 0.392455f, 0.067386f, 0.192007f, -0.067263f, -0.103895f, -0.242515f, -0.311945f, 0.051930f, 0.050624f, -0.018861f, -0.027197f, 0.015473f, -0.079349f, 0.196191f, -0.104694f, -0.300752f, 0.148567f, -0.125721f, 0.114112f, 0.185621f, -0.051074f, 0.031249f, -0.010829f, -0.041702f, -0.127872f, -0.092457f, 0.259510f, 0.206785f, 0.251767f, -0.018262f, -0.291042f, -0.141252f, 0.300982f, 0.022996f, 0.037083f, -0.153029f, -0.184941f, 0.006141f, 0.170768f, -0.314430f, -0.068876f, -0.046789f, -0.067589f, -0.010434f, 0.057223f, -0.103584f, 0.092508f},
  {0.176618f, -0.273542f, 0.078218f, -0.303324f, 0.148068f, -0.055920f, -0.169857f, 0.141507f, 0.165068f, 0.054014f, -0.096448f, -0.318847f, 0.043676f, -0.202519f, -0.031459f, -0.081880f, -0.031142f, 0.128018f, 0.031262f, 0.012766f, -0.261738f, -0.018210f, 0.056895f, 0.098929f, 0.206049f, -0.144584f, -0.163986f, -0.091112f, -0.124091f, -0.015007f, -0.107036f, -0.163882f, 0.047638f, 0.237065f, 0.013630f, -0.193461f, -0.251279f, 0.253713f, 0.079606f, 0.114248f, 0.168468f, 0.115828f, 0.184218f, 0.222429f, -0.011596f, 0.030993f, 0.031246f, -0.050246f, 0.104447f},
  {-0.113907f, 0.127555f, -0.184917f, -0.102964f, 0.067468f, 0.070366f, 0.130755f, -0.039031f, -0.076179f, -0.020619f, 0.105201f, 0.109511f, 0.099739f, 0.148572f, 0.251910f, -0.183761f, 0.081013f, 0.089459f, -0.038631f, -0.210330f, -0.021754f, -0.281991f, 0.150438f, 0.053702f, 0.036845f, 0.032082f, -0.129155f, -0.043683f, -0.220474f, 0.192555f, -0.028850f, 0.017129f, -0.047341f, -0.144340f, -0.137195f, 0.048255f, 0.147860f, -0.220633f, 0.211175f, -0.140882f, 0.054284f, 0.023833f, -0.085054f, -0.003453f, -0.077130f, 0.196178f, 0.101794f, 0.116531f, 0.011915f},
  {-0.064744f, 0.143449f, 0.065185f, -0.022061f, -0.018714f, 0.119403f, -0.067489f, 0.179097f, 0.272852f, 0.021074f, 0.075511f, 0.030182f, 0.025009f, 0.059293f, 0.132658f, -0.093039f, 0.150022f, 0.080357f, -0.040253f, -0.081912f, 0.135592f, 0.151523f, 0.399731f, -0.003196f, -0.198158f, 0.041602f, 0.053642f, -0.056688f, -0.015880f, -0.023558f, -0.150818f, -0.112716f, -0.013343f, -0.013422f, -0.026280f, 0.205046f, -0.157894f, 0.152242f, 0.101911f, -0.047602f, 0.123398f, -0.082267f, 0.147309f, -0.120649f, 0.122682f, -0.088559f, 0.046104f, -0.058826f, -0.097977f},
  {0.006677f, 0.021640f, 0.060594f, -0.056054f, 0.106384f, 0.002279f, 0.096959f, -0.185953f, 0.068635f, 0.022567f, -0.114981f, -0.139750f, 0.050835f, 0.003834f, 0.073626f, 0.051018f, -0.171799f, -0.135057f, -0.053585f, -0.160816f, 0.014305f, 0.149458f, -0.047298f, 0.087428f, -0.177076f, -0.059690f, -0.219538f, -0.029764f, 0.131317f, -0.099534f, 0.104916f, -0.058904f, 0.221621f, 0.038265f, -0.009342f, -0.048079f, 0.201020f, 0.152027f, -0.080183f, -0.028632f, 0.090578f, 0.163690f, 0.042253f, 0.084754f, 0.190145f, -0.121838f, 0.068576f, 0.060768f, 0.174026f},
  {-0.137002f, 0.049721f, 0.151008f, 0.274708f, -0.042548f, 0.065078f, 0.220456f, 0.255977f, 0.128093f, -0.094272f, 0.049355f, -0.075110f, -0.172044f, 0.122785f, -0.077920f, 0.035134f, 0.065773f, 0.288256f, 0.138009f, -0.074479f, 0.170880f, 0.003390f, 0.039636f, 0.246645f, 0.063777f, 0.020789f, -0.213890f, -0.037435f, -0.084557f, 0.063031f, -0.201521f, 0.095923f, -0.115435f, 0.193881f, 0.169614f, -0.107382f, 0.059220f, -0.077090f, -0.093616f, -0.130468f, 0.160999f, -0.299044f, 0.165267f, -0.150269f, -0.246410f, 0.252215f, 0.080659f, 0.137512f, -0.029947f},
  {0.099009f, 0.111654f, 0.212359f, 0.071468f, -0.291277f, -0.041441f, 0.007233f, -0.038432f, -0.139228f, -0.076921f, 0.322368f, -0.044834f, 0.085056f, -0.023611f, -0.236531f, -0.034454f, -0.081906f, 0.044421f, -0.016974f, -0.061710f, -0.102165f, 0.040844f, -0.021002f, -0.109113f, -0.108945f, -0.132640f, 0.004626f, 0.080331f, -0.100164f, -0.134351f, 0.103294f, -0.015928f, 0.030929f, 0.072761f, 0.060788f, 0.036651f, 0.037055f, 0.077913f, -0.023544f, -0.210390f, 0.051841f, 0.081935f, 0.143705f, 0.122834f, 0.125678f, 0.015938f, 0.003830f, -0.153701f, -0.073692f},
  {-0.093102f, 0.197613f, 0.014718f, 0.033270f, -0.113775f, 0.148632f, 0.088717f, -0.077193f, -0.152723f, -0.059814f, 0.125322f, 0.111705f, 0.048609f, 0.083553f, 0.064507f, 0.034276f, 0.275071f, -0.134082f, 0.085835f, 0.139446f, 0.036761f, 0.304748f, 0.029677f, 0.174731f, -0.002742f, 0.164625f, 0.017021f, 0.170459f, -0.085475f, 0.025895f, 0.257147f, -0.111151f, -0.004571f, 0.097388f, -0.051575f, 0.018649f, 0.180423f, -0.183560f, 0.139297f, -0.041114f, 0.186500f, 0.163041f, -0.015960f, 0.104151f, -0.123851f, 0.065352f, 0.041082f, -0.123091f, -0.040310f},
  {-0.086167f, 0.047578f, 0.041047f, 0.005957f, 0.104839f, 0.041040f, 0.087433f, 0.125232f, 0.023945f, 0.030253f, 0.067739f, 0.043869f, 0.265729f, 0.218147f, 0.078903f, 0.120577f, -0.124697f, 0.017989f, -0.126074f, 0.094392f, -0.016167f, -0.122431f, -0.065074f, -0.193728f, -0.043160f, 0.219229f, 0.011202f, 0.012269f, -0.210226f, 0.006393f, -0.165966f, -0.070398f, 0.005712f, 0.068233f, -0.250416f, -0.219222f, 0.001028f, -0.086154f, -0.172369f, 0.044127f, 0.040952f, 0.131587f, -0.069734f, 0.113421f, 0.036126f, -0.053827f, -0.138322f, -0.080955f, -0.042684f},
  {0.189209f, 0.082999f, 0.196428f, -0.196810f, 0.266975f, -0.025845f, 0.239467f, -0.072345f, 0.020613f, -0.080181f, 0.135541f, -0.138713f, 0.026542f, -0.039031f, 0.019050f, 0.018713f, 0.004460f, -0.132586f, -0.022980f, 0.065791f, -0.174602f, 0.088077f, 0.220276f, 0.139631f, -0.096118f, 0.210508f, -0.353479f, -0.059587f, 0.050838f, -0.163817f, -0.026472f, -0.033384f, -0.130759f, 0.086542f, -0.004030f, -0.116215f, 0.030859f, 0.178584f, 0.198010f, -0.051828f, -0.047521f, -0.127340f, -0.235039f, 0.128521f, 0.097718f, 0.076874f, -0.223626f, -0.164078f, -0.025252f},
  {-0.153062f, 0.189706f, -0.002527f, -0.069059f, 0.166606f, -0.095552f, -0.005661f, -0.178219f, -0.040109f, -0.038476f, -0.091313f, 0.042097f, 0.110801f, -0.289329f, 0.099796f, 0.113562f, 0.167834f, 0.140029f, 0.185158f, -0.044702f, 0.171529f, 0.044880f, 0.119106f, -0.182422f, -0.128549f, 0.173290f, 0.060169f, 0.095771f, -0.119368f, 0.075104f, -0.069258f, -0.240661f, -0.004872f, -0.064922f, 0.234319f, 0.114312f, 0.024568f, -0.006347f, 0.281387f, -0.172504f, 0.076998f, 0.067488f, 0.018029f, 0.097905f, 0.185768f, 0.066260f, 0.096829f, 0.034017f, 0.046803f},
  {0.072167f, 0.065781f, -0.148335f, 0.014845f, -0.180729f, -0.042807f, -0.055132f, -0.026096f, -0.105063f, 0.118378f, 0.007889f, -0.107912f, 0.050883f, 0.230948f, -0.141107f, -0.164843f, 0.080606f, -0.070198f, -0.205565f, 0.235159f, 0.193381f, 0.015424f, -0.074790f, -0.116190f, 0.143079f, -0.096505f, -0.126913f, -0.113943f, 0.143821f, -0.161904f, -0.081124f, 0.107310f, 0.047694f, -0.117410f, 0.163227f, -0.019326f, -0.100393f, 0.064489f, 0.012410f, -0.064504f, 0.146398f, 0.236598f, -0.122004f, -0.123304f, 0.125156f, 0.223958f, -0.006419f, -0.027011f, 0.123156f},
  {-0.136886f, 0.108197f, 0.036257f, 0.015583f, -0.242460f, 0.011166f, -0.036396f, -0.160977f, 0.087597f, -0.054463f, 0.024731f, 0.136104f, -0.034850f, 0.229971f, 0.015144f, -0.134920f, 0.173829f, -0.280323f, 0.143842f, 0.144539f, -0.075617f, -0.012875f, -0.086119f, -0.137527f, -0.002178f, 0.112145f, -0.113570f, 0.024860f, -0.019587f, -0.047662f, 0.058218f, -0.173327f, 0.233919f, -0.213138f, -0.294791f, 0.087617f, 0.332737f, 0.057782f, 0.003797f, 0.107063f, -0.178104f, -0.007791f, -0.160977f, 0.065613f, 0.090237f, -0.143965f, -0.138371f, 0.125020f, 0.089352f},
  {-0.125227f, -0.184773f, 0.040116f, 0.383707f, -0.151225f, -0.091343f, -0.072060f, -0.050089f, -0.041124f, -0.013135f, 0.179448f, -0.112515f, 0.017841f, -0.008275f, -0.181622f, 0.122283f, 0.025143f, -0.162815f, 0.055446f, -0.070650f, 0.088985f, 0.219486f, -0.076949f, -0.218474f, -0.284907f, 0.061928f, 0.135466f, -0.183600f, -0.153539f, 0.039861f, -0.193016f, 0.067553f, -0.035617f, -0.044100f, -0.170946f, -0.130248f, 0.120748f, 0.122826f, -0.087293f, 0.108192f, -0.226147f, -0.005139f, 0.191383f, -0.078814f, -0.042477f, 0.039642f, -0.133964f, -0.129014f, -0.018597f},
  {0.155217f, -0.160789f, -0.101896f, -0.263922f, -0.105782f, 0.115191f, -0.135786f, 0.039823f, -0.048397f, 0.024084f, 0.095227f, -0.058862f, -0.016162f, -0.059675f, -0.146927f, -0.085978f, 0.018350f, -0.068028f, 0.251453f, -0.073374f, -0.107589f, -0.113448f, -0.082303f, -0.220941f, 0.147969f, -0.111473f, -0.022727f, -0.305990f, -0.112797f, 0.054659f, 0.126227f, 0.127445f, 0.141196f, -0.008954f, 0.106089f, -0.213863f, -0.039694f, -0.154999f, -0.048246f, 0.110404f, -0.109205f, -0.016798f, 0.011156f, -0.238829f, -0.020744f, -0.090747f, 0.178289f, -0.077913f, 0.084442f},
  {0.217011f, 0.004276f, 0.097533f, 0.284512f, 0.281267f, -0.096422f, -0.243459f, 0.119436f, -0.269549f, -0.163877f, -0.183572f, -0.106664f, -0.116683f, 0.072439f, 0.079909f, 0.063685f, -0.188193f, -0.114877f, -0.007762f, 0.132775f, 0.158191f, 0.030534f, -0.049501f, 0.005030f, 0.070001f, 0.041475f, 0.044042f, 0.027546f, -0.173214f, 0.030644f, -0.036363f, -0.017814f, -0.094787f, -0.052785f, -0.154174f, -0.306341f, -0.211624f, 0.082412f, -0.166035f, -0.138619f, 0.194769f, -0.098703f, -0.247873f, 0.250325f, 0.004781f, 0.136071f, -0.161229f, -0.045513f, -0.224814f},
  {0.010961f, 0.033690f, 0.016316f, 0.063000f, -0.048962f, -0.164471f, 0.208792f, 0.205790f, -0.072277f, 0.000350f, 0.059079f, 0.046667f, -0.084343f, 0.117313f, -0.129714f, -0.034724f, 0.161867f, -0.016921f, -0.175023f, 0.082690f, -0.199430f, 0.262041f, 0.294807f, -0.065864f, 0.081763f, -0.010135f, 0.118963f, -0.041656f, 0.145750f, 0.080295f, -0.247463f, -0.053370f, -0.002363f, -0.108307f, -0.064132f, 0.152716f, 0.103661f, 0.141752f, 0.003914f, 0.237970f, -0.070891f, 0.050307f, -0.071373f, 0.239924f, 0.022282f, -0.051392f, 0.144237f, 0.055791f, 0.095540f},
  {-0.189577f, 0.039654f, 0.207471f, 0.029064f, 0.148249f, 0.036617f, 0.073333f, 0.153282f, 0.130741f, 0.050001f, -0.065948f, -0.166351f, -0.114252f, 0.071733f, 0.138990f, 0.063749f, -0.068610f, 0.056585f, 0.005296f, -0.298277f, -0.165779f, -0.097449f, -0.012791f, -0.202956f, -0.236219f, -0.005622f, -0.034993f, 0.030503f, -0.141394f, -0.049291f, -0.056357f, -0.070656f, 0.091811f, 0.206518f, 0.162890f, -0.035728f, 0.084126f, -0.119107f, -0.364537f, -0.137114f, -0.013293f, -0.079420f, -0.042881f, 0.007415f, 0.330774f, -0.075189f, 0.061939f, -0.202203f, -0.106495f},
  {0.143339f, 0.078521f, -0.098682f, 0.080324f, -0.091562f, 0.036014f, -0.176108f, -0.149916f, -0.036090f, -0.137453f, -0.095524f, -0.163181f, 0.249154f, -0.046307f, 0.103402f, 0.095043f, -0.253182f, -0.099074f, 0.072491f, -0.040845f, -0.037238f, -0.009920f, -0.165604f, -0.185069f, 0.135617f, -0.007416f, 0.013180f, -0.109133f, 0.010949f, 0.012136f, 0.042180f, 0.206641f, -0.086503f, -0.170156f, 0.048635f, -0.069890f, -0.048789f, 0.149309f, -0.175849f, 0.282485f, 0.091286f, -0.045809f, 0.146322f, -0.033771f, 0.012566f, -0.325534f, 0.080175f, 0.083596f, 0.139035f},
  {0.009766f, 0.108659f, -0.069920f, -0.028181f, -0.105930f, 0.271698f, 0.121597f, 0.133114f, -0.011376f, -0.171684f, 0.047177f, -0.089012f, -0.181411f, 0.168813f, 0.059739f, 0.297574f, 0.049669f, -0.043319f, 0.056999f, -0.057173f, 0.232543f, -0.029951f, -0.035275f, -0.086878f, -0.153541f, 0.141998f, 0.021834f, 0.037337f, 0.074920f, 0.177314f, 0.052932f, -0.044159f, -0.106333f, -0.147407f, 0.225161f, 0.062820f, 0.045139f, -0.040608f, -0.062519f, -0.126329f, 0.051197f, 0.119368f, -0.008774f, 0.031083f, -0.116133f, 0.026797f, 0.054531f, 0.021348f, 0.051273f},
  {0.129816f, -0.105769f, 0.190839f, 0.246517f, 0.056279f, -0.222943f, -0.140525f, 0.003390f, -0.208145f, -0.182487f, -0.041420f, -0.051051f, -0.021328f, -0.220473f, 0.226395f, -0.075635f, 0.053152f, 0.215160f, -0.133302f, 0.147161f, 0.113356f, 0.030156f, -0.057546f, 0.113192f, 0.096722f, -0.015214f, 0.053654f, -0.077925f, 0.033824f, -0.167929f, -0.006692f, 0.066634f, -0.014370f, -0.013314f, 0.099431f, -0.030960f, -0.031568f, 0.005445f, 0.093093f, -0.002991f, -0.067898f, -0.197184f, 0.059733f, -0.041115f, -0.044641f, 0.146589f, 0.039106f, -0.098675f, -0.296266f},
  {-0.042990f, -0.173519f, 0.048186f, 0.074776f, -0.072573f, 0.132691f, 0.172451f, 0.099094f, -0.126212f, 0.113382f, -0.047991f, -0.007394f, -0.052779f, 0.097841f, -0.161325f, -0.203308f, 0.117989f, 0.090145f, 0.045378f, 0.138337f, -0.050150f, 0.180003f, 0.105412f, 0.048281f, 0.156858f, 0.217569f, 0.189704f, -0.120345f, 0.010397f, 0.245914f, 0.155132f, 0.003984f, -0.187268f, 0.190663f, -0.058340f, -0.203037f, 0.042902f, -0.121480f, -0.065298f, -0.004882f, -0.103503f, -0.053010f, 0.065424f, -0.089817f, -0.004175f, 0.051208f, 0.119167f, 0.055064f, -0.141248f},
  {-0.126948f, 0.148772f, 0.052861f, 0.114274f, 0.036287f, -0.143821f, 0.145514f, -0.036189f, -0.140059f, 0.006046f, -0.242039f, -0.296010f, 0.101744f, -0.057453f, -0.166616f, 0.027171f, 0.003708f, 0.203116f, 0.009926f, 0.045341f, 0.106116f, -0.090618f, -0.016133f, 0.101709f, -0.144795f, -0.021538f, -0.004206f, 0.000669f, 0.164565f, 0.246887f, 0.219184f, 0.191462f, -0.022169f, -0.070280f, -0.048762f, 0.087422f, -0.308062f, 0.005566f, -0.070066f, -0.237850f, -0.188956f, -0.036180f, -0.035308f, -0.055480f, -0.056268f, -0.047036f, 0.289207f, 0.051227f, 0.031002f},
  {-0.065883f, -0.001093f, -0.004260f, -0.061079f, -0.061081f, 0.044890f, 0.099512f, -0.043812f, -0.299193f, 0.203574f, -0.019041f, -0.009043f, 0.063332f, -0.030356f, -0.005721f, -0.077476f, -0.031533f, 0.110754f, 0.085400f, 0.004258f, -0.158429f, -0.175510f, 0.127216f, 0.077153f, 0.278423f, -0.148465f, -0.054199f, 0.059349f, 0.026622f, 0.018912f, -0.136207f, -0.202118f, -0.024597f, 0.009366f, -0.003535f, 0.108668f, 0.008656f, -0.178030f, 0.049113f, 0.085835f, -0.041299f, -0.052822f, -0.216662f, -0.033314f, -0.043278f, -0.081261f, 0.202012f, 0.279417f, 0.075954f},
  {-0.095414f, 0.155146f, -0.002525f, 0.042779f, 0.003313f, 0.211878f, 0.092687f, 0.180143f, -0.002276f, 0.061293f, 0.061691f, 0.043310f, -0.203529f, -0.036611f, -0.123437f, -0.117726f, -0.071537f, 0.090398f, 0.033042f, -0.058519f, 0.075081f, 0.033057f, -0.114258f, -0.120138f, 0.084952f, 0.175928f, -0.009410f, 0.322550f, -0.080279f, -0.122081f, -0.024884f, -0.032077f, -0.033522f, 0.043749f, 0.108151f, -0.107912f, -0.002300f, 0.103567f, 0.027396f, 0.059795f, 0.150585f, 0.009920f, -0.145550f, 0.102326f, 0.285398f, 0.139092f, -0.286618f, 0.099449f, -0.012782f},
  {0.111641f, -0.012304f, -0.129348f, 0.101583f, 0.247496f, -0.002327f, 0.010361f, -0.004206f, 0.146321f, 0.023841f, 0.015136f, -0.071321f, -0.016348f, 0.187120f, -0.136500f, 0.160610f, 0.045302f, -0.017645f, -0.011737f, -0.249516f, 0.019741f, 0.149119f, 0.053641f, -0.047499f, -0.196263f, 0.026559f, -0.086800f, 0.281135f, -0.000126f, -0.064369f, -0.168702f, 0.198616f, -0.021253f, -0.064052f, -0.206761f, 0.029255f, 0.177865f, -0.091817f, -0.006025f, 0.056972f, -0.060759f, -0.076100f, 0.008656f, -0.074926f, -0.056711f, 0.000582f, 0.213016f, 0.200452f, 0.039491f},
  {-0.215567f, 0.024189f, -0.165982f, -0.015820f, 0.073836f, -0.181697f, -0.154972f, 0.085468f, 0.029665f, 0.051243f, -0.281521f, -0.029337f, -0.139708f, 0.097070f, 0.000310f, 0.115701f, 0.047021f, -0.087808f, 0.030576f, 0.038138f, -0.048063f, 0.016189f, 0.061815f, -0.018885f, -0.151634f, 0.198310f, -0.278537f, -0.100122f, 0.058119f, 0.010178f, 0.158838f, 0.190836f, 0.069221f, 0.136152f, 0.057476f, -0.177900f, -0.308654f, 0.139100f, 0.060051f, -0.049158f, 0.179298f, 0.255032f, 0.099340f, 0.169983f, -0.213103f, -0.015575f, 0.025158f, 0.102384f, -0.102385f},
};

static const float layer_1_biases[64] = {
  -0.010859f, -0.000383f, -0.021733f, -0.007183f, 0.010107f, -0.007811f, -0.001553f, -0.000833f, -0.011295f, -0.003758f, 0.011986f, 0.003251f, 0.011721f, 0.021957f, -0.005080f, -0.007317f, 0.005630f, -0.000319f, 0.013535f, -0.013187f, -0.035016f, 0.007556f, -0.006710f, -0.014311f, 0.008285f, 0.000913f, 0.007115f, 0.015372f, -0.016166f, -0.022112f, -0.004328f, 0.008367f, 0.004290f, -0.018630f, 0.002004f, 0.012958f, -0.013946f, -0.003397f, 0.014563f, -0.020030f, -0.009974f, -0.006157f, 0.018345f, -0.006073f, -0.007478f, 0.008028f, -0.011237f, -0.014415f, -0.005415f, 0.003647f, 0.003346f, -0.005963f, -0.013571f, 0.004782f, -0.010838f, -0.008581f, -0.004451f, 0.012354f, 0.001451f, -0.008186f, 0.005656f, -0.012645f, -0.004766f, -0.013827f
};

// Layer 2: 64 → 32 (relu)
static const float layer_2_weights[32][64] = {
  {0.055004f, 0.020700f, -0.116387f, 0.246545f, -0.019927f, 0.075807f, -0.032781f, -0.162560f, -0.262192f, -0.126744f, -0.000657f, 0.198136f, 0.127938f, 0.056134f, -0.066823f, 0.213533f, -0.124777f, 0.058181f, -0.011166f, -0.116814f, 0.160342f, -0.105794f, 0.065730f, -0.041612f, -0.047286f, -0.041739f, 0.003744f, 0.096957f, 0.025916f, 0.122127f, -0.108740f, -0.007688f, -0.049383f, -0.020002f, -0.083583f, 0.173686f, -0.180763f, -0.350730f, 0.226846f, -0.014472f, 0.129951f, -0.238388f, -0.134811f, -0.007477f, 0.007206f, -0.138564f, 0.248806f, 0.201842f, 0.031835f, 0.014679f, 0.074189f, 0.183251f, -0.011246f, -0.157186f, 0.108172f, -0.100855f, 0.206687f, -0.057612f, 0.014168f, -0.061977f, -0.224978f, -0.213363f, -0.107602f, 0.259088f},
  {0.087680f, -0.060968f, -0.156798f, -0.081196f, -0.245730f, -0.167485f, -0.027550f, -0.122648f, 0.068624f, -0.186343f, -0.055950f, 0.318584f, -0.162731f, -0.029576f, -0.152336f, 0.061710f, 0.021123f, -0.089051f, 0.087643f, 0.035707f, -0.052818f, 0.037676f, 0.044973f, -0.354732f, -0.204233f, 0.031900f, 0.396696f, 0.227665f, -0.039802f, -0.171007f, -0.170996f, 0.026374f, 0.027620f, 0.062336f, 0.017092f, -0.000166f, 0.128210f, 0.043533f, 0.082343f, 0.193721f, 0.241729f, 0.055516f, -0.127795f, 0.142081f, -0.185497f, 0.078751f, 0.203521f, -0.091945f, -0.007056f, 0.128633f, 0.021207f, -0.000880f, 0.099025f, 0.059295f, 0.002766f, -0.043794f, -0.177289f, -0.094470f, 0.031398f, -0.072133f, -0.078003f, -0.333809f, -0.245128f, 0.014105f},
  {-0.049169f, 0.079133f, 0.158654f, -0.115433f, -0.103894f, 0.028919f, -0.119107f, -0.069534f, 0.005542f, -0.150604f, 0.168263f, -0.026827f, 0.057048f, -0.189262f, -0.013883f, 0.088256f, 0.163012f, -0.268685f, 0.317703f, -0.137926f, 0.102192f, -0.113250f, 0.039247f, 0.039891f, 0.006679f, 0.159373f, 0.037557f, -0.185738f, 0.047776f, -0.148250f, 0.090151f, -0.191344f, -0.172834f, -0.018032f, -0.047400f, -0.069310f, 0.022053f, -0.190679f, 0.127002f, 0.057278f, 0.111131f, -0.126246f, 0.128359f, 0.163549f, -0.058441f, -0.094671f, -0.173918f, -0.053920f, 0.166471f, -0.019892f, -0.152180f, 0.221082f, -0.109007f, 0.040491f, 0.042766f, 0.170869f, -0.027891f, 0.006157f, 0.243060f, -0.019478f, 0.237611f, -0.013818f, -0.143704f, -0.166399f},
  {-0.248693f, 0.052006f, -0.037353f, 0.171308f, -0.019006f, -0.098119f, -0.009523f, -0.149649f, -0.109004f, 0.408187f, -0.350823f, -0.037678f, 0.132892f, 0.146748f, -0.063093f, -0.009186f, 0.061155f, 0.162686f, -0.066712f, 0.173633f, 0.060387f, -0.085453f, 0.305346f, 0.038366f, 0.232394f, -0.145335f, 0.067041f, 0.021646f, 0.209150f, 0.229817f, 0.052083f, 0.037018f, 0.122251f, -0.362675f, -0.109342f, -0.116599f, 0.104675f, -0.149346f, -0.249920f, -0.025720f, 0.186275f, 0.141502f, -0.111936f, -0.130716f, 0.188590f, -0.216744f, 0.073244f, -0.156092f, -0.036535f, -0.123193f, -0.055059f, -0.199263f, 0.074973f, 0.195881f, -0.115972f, 0.014584f, 0.337025f, 0.028244f, 0.194592f, 0.160509f, 0.031615f, -0.051194f, -0.326240f, 0.248360f},
  {-0.095786f, -0.013183f, -0.045152f, -0.071635f, 0.002840f, -0.042662f, -0.052391f, -0.293664f, -0.127127f, -0.100807f, 0.046188f, 0.020537f, 0.054567f, 0.366740f, 0.087221f, -0.050386f, -0.011947f, -0.188653f, -0.179069f, 0.012900f, 0.086713f, -0.171465f, -0.114032f, -0.236216f, 0.111647f, -0.065034f, 0.000608f, -0.193202f, 0.006125f, -0.257482f, -0.009030f, -0.114847f, -0.216338f, 0.105687f, 0.115117f, 0.067867f, 0.025043f, 0.159504f, -0.153999f, -0.053579f, -0.171663f, 0.267250f, 0.128121f, -0.005940f, 0.032216f, 0.096746f, 0.296752f, -0.093679f, 0.054306f, -0.164566f, 0.073274f, -0.020881f, -0.275073f, 0.090436f, 0.104480f, 0.162693f, 0.229867f, 0.049447f, 0.077652f, 0.218071f, -0.035636f, 0.133177f, 0.122768f, 0.112976f},
  {-0.141370f, -0.143535f, -0.146658f, 0.092939f, 0.169653f, 0.132677f, 0.329967f, 0.208880f, -0.138219f, -0.125441f, -0.030932f, 0.033918f, 0.013076f, -0.064338f, 0.016447f, 0.099807f, 0.078810f, 0.023812f, 0.179298f, 0.036527f, -0.147706f, -0.158668f, 0.088272f, 0.249759f, -0.015569f, -0.169093f, -0.249249f, -0.110794f, 0.106420f, 0.156122f, -0.002650f, -0.139888f, -0.024292f, 0.010362f, 0.078950f, -0.147921f, 0.152396f, -0.031680f, -0.205566f, 0.117672f, -0.084489f, 0.054222f, 0.036625f, 0.147116f, -0.109209f, 0.197900f, 0.060892f, -0.352610f, 0.018056f, -0.032231f, -0.122026f, -0.051760f, 0.095808f, -0.037062f, 0.119004f, 0.084041f, -0.125761f, -0.074388f, -0.058074f, 0.217295f, 0.363096f, -0.093620f, -0.203815f, 0.024017f},
  {-0.165449f, -0.201484f, -0.133186f, -0.188272f, 0.124838f, -0.075018f, 0.084459f, 0.047850f, 0.019955f, 0.268574f, 0.254272f, -0.143109f, 0.202022f, 0.000466f, 0.088312f, -0.204164f, -0.163259f, -0.007075f, -0.119081f, -0.010958f, 0.154966f, -0.124497f, -0.119319f, -0.003324f, 0.243889f, 0.003999f, -0.013963f, -0.046502f, 0.151141f, -0.081305f, -0.197039f, 0.010111f, -0.148610f, -0.154118f, -0.104102f, 0.052322f, 0.067573f, 0.079561f, -0.082012f, 0.029216f, 0.000294f, -0.197480f, 0.142444f, 0.001594f, 0.052141f, -0.197360f, 0.119092f, 0.136410f, 0.011284f, -0.073212f, -0.170258f, -0.262870f, -0.029933f, -0.062514f, 0.019027f, 0.192273f, -0.043386f, -0.061790f, -0.020743f, 0.352313f, 0.230097f, -0.293984f, -0.305586f, 0.242355f},
  {-0.091507f, 0.142223f, -0.086285f, -0.004839f, -0.165068f, 0.030014f, -0.302080f, -0.272963f, 0.170186f, 0.198694f, 0.004119f, 0.120056f, -0.239048f, 0.017199f, 0.050787f, -0.010431f, -0.068617f, 0.246437f, -0.059856f, -0.238586f, -0.121792f, 0.034768f, -0.125816f, 0.079713f, 0.140159f, 0.074132f, 0.123063f, -0.142805f, 0.170632f, -0.171831f, -0.041420f, 0.075520f, -0.000191f, -0.059209f, -0.241659f, -0.006378f, 0.329769f, -0.023466f, -0.002478f, -0.040436f, -0.153111f, 0.115361f, -0.010798f, -0.051407f, -0.121640f, -0.049396f, -0.322782f, -0.063414f, 0.038080f, -0.329353f, -0.270573f, -0.069523f, 0.254057f, 0.216098f, -0.067772f, 0.047285f, -0.137638f, -0.176439f, 0.039290f, -0.364662f, 0.158241f, 0.181170f, -0.016717f, 0.286247f},
  {0.122091f, -0.114289f, 0.055631f, -0.160890f, 0.130260f, 0.061056f, -0.110744f, 0.163246f, -0.133979f, 0.039052f, 0.125945f, 0.288419f, 0.189261f, -0.184511f, 0.017983f, 0.243438f, -0.074356f, 0.176134f, -0.134519f, 0.201598f, 0.214490f, -0.009823f, 0.024216f, -0.171529f, 0.168420f, -0.300651f, -0.188618f, -0.175189f, -0.141836f, 0.405552f, 0.156639f, -0.027353f, -0.277435f, -0.140021f, -0.088175f, 0.093011f, -0.012855f, -0.113681f, 0.124103f, 0.032783f, 0.142250f, 0.105840f, 0.013611f, 0.097362f, -0.069199f, -0.120193f, -0.251218f, 0.039240f, -0.003496f, -0.066527f, -0.107944f, -0.130985f, -0.143686f, -0.008433f, -0.009259f, 0.084527f, -0.104843f, 0.098920f, -0.329559f, -0.069928f, -0.159619f, 0.012185f, -0.105304f, -0.042559f},
  {0.034933f, 0.079973f, 0.155226f, -0.012462f, 0.012951f, 0.167025f, -0.052745f, -0.240545f, 0.137960f, 0.269455f, -0.011119f, 0.246584f, -0.031807f, 0.147901f, 0.127445f, -0.092212f, -0.029031f, 0.448058f, 0.337029f, -0.030298f, -0.028312f, -0.079891f, 0.220056f, -0.099813f, 0.016930f, 0.238496f, -0.000240f, -0.325517f, -0.108019f, 0.032158f, 0.081202f, 0.219851f, -0.018525f, -0.129308f, -0.205600f, -0.166522f, -0.002634f, 0.138946f, -0.129714f, -0.129514f, -0.101587f, -0.035126f, 0.033630f, 0.158365f, -0.199946f, -0.022633f, -0.055825f, 0.056713f, 0.063242f, 0.088692f, 0.258884f, -0.097110f, 0.141412f, 0.197171f, -0.099132f, -0.165921f, 0.221683f, 0.101064f, -0.020197f, -0.121225f, 0.294185f, 0.067396f, -0.248314f, 0.194278f},
  {-0.122373f, 0.027517f, -0.090541f, 0.166949f, -0.027620f, -0.004611f, 0.395184f, 0.075840f, -0.131949f, -0.077854f, 0.061858f, -0.144814f, -0.177140f, -0.183213f, -0.097371f, 0.171436f, 0.092698f, 0.188910f, 0.116514f, 0.171223f, -0.127122f, -0.116679f, 0.385198f, 0.243711f, 0.118590f, -0.153798f, 0.138707f, -0.019573f, -0.277500f, 0.134031f, -0.067598f, -0.054369f, 0.076724f, 0.246514f, -0.228981f, 0.021359f, 0.005265f, -0.080999f, 0.088797f, 0.208893f, 0.196756f, 0.089243f, 0.008919f, -0.159072f, -0.047032f, 0.127324f, -0.056127f, -0.131227f, 0.215166f, 0.198595f, 0.066067f, -0.174980f, -0.172910f, -0.189747f, -0.089470f, -0.103628f, -0.169627f, -0.363384f, 0.088374f, 0.098335f, -0.019039f, -0.101981f, -0.209567f, -0.137988f},
  {-0.040422f, -0.129397f, 0.047229f, 0.065524f, -0.200655f, 0.294646f, 0.034141f, 0.121243f, 0.133006f, -0.064620f, -0.007076f, -0.152992f, -0.085959f, -0.205643f, -0.058084f, 0.100356f, 0.031065f, -0.026841f, -0.068756f, 0.163243f, -0.444234f, 0.105271f, 0.308077f, -0.050051f, 0.183360f, 0.008949f, 0.118743f, 0.087018f, -0.079203f, -0.014761f, -0.114061f, -0.099349f, -0.141497f, -0.169720f, 0.143233f, 0.124572f, -0.223905f, 0.084841f, -0.002036f, 0.069968f, 0.157859f, -0.060051f, 0.165846f, 0.128374f, -0.116965f, 0.022064f, 0.279596f, 0.118844f, -0.138854f, -0.046447f, -0.049162f, 0.042751f, 0.167418f, 0.256266f, 0.249249f, 0.097446f, -0.071672f, 0.220755f, 0.053197f, 0.221949f, -0.117394f, 0.207549f, -0.032697f, -0.080688f},
  {-0.053208f, 0.039051f, 0.023664f, 0.058785f, -0.006804f, -0.051859f, 0.173686f, -0.123864f, -0.182812f, -0.057449f, 0.048849f, 0.263809f, -0.214083f, 0.078537f, -0.219499f, -0.020516f, 0.009531f, -0.396311f, 0.084096f, -0.364077f, 0.090633f, -0.094203f, -0.009601f, -0.013959f, -0.035225f, -0.004632f, -0.058909f, 0.224220f, 0.100463f, -0.124162f, 0.389549f, -0.185709f, -0.068784f, -0.036618f, 0.006878f, -0.154591f, 0.114945f, 0.030434f, 0.044158f, 0.115388f, -0.198147f, -0.120465f, -0.001410f, -0.032615f, 0.134134f, -0.095535f, -0.158672f, 0.070711f, 0.182721f, -0.249898f, -0.076398f, 0.112421f, -0.019170f, -0.005764f, 0.168179f, -0.115459f, 0.348853f, -0.059530f, -0.154896f, 0.093160f, 0.125531f, -0.022730f, -0.080840f, -0.004223f},
  {0.028473f, -0.097331f, -0.082685f, 0.164054f, 0.079432f, -0.009250f, -0.105429f, 0.006426f, -0.110977f, 0.051385f, 0.108551f, 0.196953f, -0.446790f, -0.023115f, -0.040862f, -0.147688f, -0.201860f, -0.049138f, 0.043518f, 0.351699f, -0.072768f, 0.145642f, 0.082610f, -0.024145f, -0.109560f, -0.099431f, 0.084144f, -0.252347f, -0.229241f, 0.251924f, 0.093864f, -0.184421f, -0.042399f, 0.010666f, 0.048213f, 0.018822f, -0.030564f, 0.022575f, 0.253018f, 0.015918f, -0.092643f, -0.105170f, -0.066759f, 0.056059f, -0.142959f, -0.011743f, -0.006850f, -0.051187f, -0.227488f, 0.012789f, 0.148164f, -0.202616f, 0.043101f, 0.031343f, -0.145372f, 0.010126f, -0.003986f, 0.020299f, -0.112151f, 0.171341f, -0.149084f, -0.134315f, 0.004461f, 0.085518f},
  {-0.136567f, -0.038531f, 0.178587f, -0.034353f, 0.009331f, 0.099041f, -0.108203f, -0.144519f, 0.110396f, -0.208714f, -0.046251f, 0.440057f, -0.000402f, -0.112263f, 0.135334f, 0.002943f, -0.005624f, 0.090181f, 0.040951f, -0.151006f, -0.065275f, -0.062127f, 0.067991f, -0.236521f, 0.103253f, -0.050222f, 0.065846f, 0.070069f, -0.173606f, 0.009954f, 0.138077f, -0.267451f, -0.229861f, 0.084952f, 0.038127f, 0.296959f, 0.132878f, 0.284015f, 0.249932f, -0.070115f, -0.137315f, 0.111660f, -0.108378f, 0.030577f, 0.072088f, -0.089835f, -0.123097f, -0.049332f, -0.209473f, 0.176894f, -0.127657f, -0.141375f, -0.142098f, -0.205879f, 0.039521f, 0.094448f, -0.263413f, -0.191883f, -0.139126f, 0.011588f, 0.264572f, -0.075661f, 0.072055f, -0.026437f},
  {-0.083723f, -0.041819f, 0.080469f, 0.077091f, -0.015583f, -0.136352f, 0.004230f, 0.006689f, 0.289875f, -0.084221f, 0.115736f, 0.184418f, -0.019271f, 0.178855f, -0.091097f, -0.013854f, 0.069231f, -0.059026f, -0.068252f, 0.013561f, 0.222324f, 0.187046f, 0.289808f, -0.035975f, -0.108744f, -0.047556f, 0.143312f, 0.116016f, -0.050627f, 0.045046f, -0.153779f, 0.312686f, -0.093055f, -0.115685f, -0.095782f, 0.029659f, -0.113962f, 0.078108f, -0.055414f, 0.055621f, -0.061204f, -0.158600f, 0.137827f, -0.132170f, -0.043241f, -0.102505f, 0.303426f, -0.325707f, 0.088469f, -0.285716f, 0.152823f, 0.111929f, 0.118950f, 0.020081f, -0.200338f, -0.128553f, 0.164061f, 0.080927f, 0.047144f, 0.062805f, -0.332949f, -0.207066f, 0.149254f, -0.016295f},
  {-0.063379f, -0.062865f, -0.153984f, -0.091142f, -0.071345f, 0.130770f, 0.037930f, -0.138632f, -0.047704f, 0.271040f, 0.021392f, -0.084196f, 0.129604f, -0.273148f, 0.001536f, 0.128111f, -0.064526f, 0.006313f, -0.235469f, 0.044722f, -0.355517f, -0.220933f, 0.139553f, 0.225841f, -0.129299f, -0.253375f, 0.165182f, -0.122347f, 0.206997f, 0.272627f, 0.123002f, -0.113189f, 0.006898f, -0.028747f, 0.038899f, 0.088548f, -0.039782f, 0.198429f, 0.147401f, -0.017347f, -0.002666f, 0.147501f, 0.166176f, 0.272757f, 0.045693f, 0.200190f, -0.231486f, 0.207189f, 0.063572f, 0.133946f, 0.124078f, 0.350482f, -0.139920f, -0.117271f, -0.149132f, -0.097544f, -0.085823f, -0.134543f, -0.129132f, -0.037290f, 0.331305f, 0.054157f, -0.130157f, 0.059160f},
  {-0.106772f, 0.020213f, 0.061380f, 0.186713f, -0.047360f, 0.072218f, -0.101987f, -0.221702f, -0.025256f, -0.058114f, 0.106353f, 0.451047f, -0.028859f, 0.253683f, -0.043628f, 0.082632f, -0.273976f, 0.034003f, 0.060085f, 0.166946f, 0.013581f, 0.063318f, -0.026748f, -0.040416f, -0.046748f, 0.072999f, -0.296141f, -0.190055f, -0.080876f, -0.183119f, -0.136434f, 0.090460f, -0.019119f, -0.252649f, -0.018620f, 0.002768f, -0.058073f, 0.057327f, 0.042602f, 0.002391f, 0.005492f, 0.103482f, -0.005996f, -0.015427f, -0.145747f, -0.146674f, -0.047277f, -0.075215f, -0.038508f, -0.017784f, 0.170239f, -0.004794f, -0.072997f, -0.108803f, -0.135636f, 0.234376f, -0.311567f, 0.175751f, -0.248359f, 0.087309f, 0.126716f, 0.171356f, -0.015634f, 0.008842f},
  {0.068543f, -0.213508f, 0.215990f, -0.133376f, -0.054519f, 0.158339f, -0.098740f, -0.224706f, -0.010076f, 0.058839f, 0.134527f, -0.048516f, -0.245812f, -0.045414f, 0.042310f, 0.087688f, 0.009536f, -0.261311f, 0.075861f, -0.033882f, 0.103251f, -0.062282f, -0.035917f, 0.059609f, -0.095757f, 0.097413f, -0.124086f, 0.066740f, -0.015935f, 0.048971f, 0.007011f, -0.077151f, 0.174898f, -0.239418f, -0.227581f, 0.043585f, 0.079495f, -0.083926f, 0.120300f, -0.101629f, -0.136108f, 0.071585f, -0.062078f, 0.080492f, 0.147793f, 0.073031f, 0.120517f, -0.021692f, -0.021885f, 0.006996f, -0.104945f, -0.200909f, -0.027379f, 0.040617f, -0.178740f, 0.211179f, -0.069016f, 0.252095f, 0.088880f, 0.140208f, -0.058043f, 0.130370f, -0.119706f, -0.154510f},
  {0.010434f, -0.089830f, -0.028633f, -0.119063f, -0.086733f, 0.220912f, 0.245826f, -0.113542f, -0.205233f, 0.069267f, 0.025549f, 0.061529f, 0.137341f, 0.062141f, -0.000954f, -0.318374f, 0.062669f, 0.197846f, -0.152449f, -0.078960f, 0.120646f, 0.027630f, -0.241442f, -0.027888f, 0.006741f, 0.202029f, -0.040109f, -0.036776f, -0.049374f, 0.100244f, 0.121514f, -0.021145f, -0.034158f, 0.116387f, 0.193566f, -0.282146f, 0.258235f, -0.199754f, 0.147687f, -0.128408f, 0.032539f, 0.250415f, 0.011731f, 0.098225f, 0.152724f, 0.062852f, -0.003147f, 0.048538f, 0.210326f, -0.072557f, 0.020657f, -0.090288f, -0.156803f, -0.141232f, 0.014495f, 0.010245f, -0.085646f, -0.107218f, 0.239499f, -0.085358f, 0.074848f, -0.128670f, -0.021571f, 0.015776f},
  {-0.090248f, -0.000871f, -0.071749f, 0.025211f, 0.120940f, 0.046352f, -0.047075f, -0.093448f, 0.056791f, 0.200357f, -0.326874f, -0.044124f, 0.047639f, 0.002355f, 0.139479f, 0.195415f, 0.002833f, 0.198845f, 0.158736f, -0.234690f, 0.019270f, -0.013957f, -0.100142f, 0.301133f, -0.416819f, -0.091285f, 0.005741f, 0.122551f, -0.061548f, -0.122612f, -0.151725f, 0.264328f, -0.148597f, -0.070088f, 0.076075f, -0.078188f, -0.058198f, -0.216953f, 0.112014f, 0.062108f, 0.065331f, -0.056512f, -0.068417f, 0.132346f, 0.011769f, -0.136903f, -0.011772f, 0.026184f, 0.153023f, -0.168002f, 0.168802f, 0.215656f, -0.383107f, 0.293779f, -0.119485f, 0.183933f, -0.274208f, -0.067533f, 0.191619f, 0.314874f, 0.119849f, -0.048513f, 0.039729f, 0.122971f},
  {0.101339f, -0.089868f, 0.074972f, -0.172252f, -0.028692f, 0.231688f, -0.080349f, -0.128732f, 0.165822f, -0.072479f, -0.083178f, 0.009989f, 0.061416f, -0.105199f, 0.068979f, 0.070562f, 0.161836f, -0.006891f, 0.046461f, 0.016503f, 0.015887f, 0.263711f, -0.010324f, 0.193069f, 0.124842f, 0.228006f, -0.039001f, -0.026855f, 0.076028f, 0.066707f, 0.033176f, 0.020264f, 0.051301f, -0.027261f, -0.111354f, 0.195860f, 0.135201f, 0.242555f, 0.045207f, 0.076434f, -0.103556f, -0.039208f, -0.082657f, -0.054968f, -0.170084f, -0.191347f, 0.118351f, -0.037271f, -0.065405f, 0.290831f, -0.130216f, 0.003562f, 0.289252f, -0.020319f, -0.225973f, -0.035832f, 0.071615f, 0.249738f, -0.070548f, -0.316150f, -0.161650f, -0.021495f, 0.026192f, 0.138322f},
  {-0.174433f, -0.380182f, 0.254656f, -0.065053f, -0.149910f, -0.056333f, 0.128190f, -0.227919f, -0.004627f, -0.071845f, 0.102217f, 0.060910f, -0.007408f, 0.026556f, 0.136367f, 0.064380f, 0.184986f, 0.046268f, 0.144476f, -0.015539f, 0.271635f, -0.023906f, 0.061130f, -0.005338f, 0.160086f, 0.154710f, 0.055293f, -0.094488f, 0.003345f, 0.094560f, -0.034172f, -0.106736f, 0.097312f, -0.181823f, 0.070708f, 0.125951f, -0.284001f, 0.081375f, -0.048862f, -0.147015f, -0.029505f, 0.121519f, -0.078066f, -0.155161f, -0.018072f, -0.075083f, -0.088474f, -0.210741f, 0.239281f, -0.059510f, 0.144141f, 0.043899f, -0.002043f, -0.106710f, 0.057596f, -0.199912f, -0.012096f, -0.072513f, -0.108954f, -0.030503f, -0.154534f, 0.093799f, 0.080588f, -0.065415f},
  {0.067680f, 0.017258f, 0.019921f, 0.145050f, 0.252370f, -0.240105f, 0.005402f, -0.059715f, -0.157005f, 0.044441f, -0.077749f, 0.013651f, 0.059042f, -0.089249f, -0.102490f, -0.107974f, -0.047395f, 0.288506f, 0.028153f, 0.280886f, -0.116413f, -0.242827f, 0.218083f, 0.028181f, -0.052384f, 0.202566f, -0.044603f, -0.213854f, 0.102781f, -0.111148f, 0.187567f, -0.254800f, 0.138882f, -0.071880f, -0.046376f, 0.182480f, 0.076094f, 0.075923f, -0.103715f, 0.407287f, -0.008479f, 0.019175f, -0.292177f, 0.335031f, -0.117303f, -0.350154f, -0.077378f, -0.050611f, -0.132437f, 0.005528f, -0.036403f, 0.136494f, 0.126466f, -0.156195f, 0.005235f, -0.056209f, -0.025104f, 0.022169f, 0.034637f, 0.097866f, 0.037974f, -0.089437f, 0.036259f, -0.064344f},
  {-0.036006f, 0.062651f, 0.179793f, -0.101204f, 0.051471f, 0.218398f, -0.073986f, -0.066162f, 0.174134f, -0.335652f, 0.103755f, -0.032774f, -0.039668f, -0.028618f, -0.428077f, 0.291803f, -0.036481f, -0.116243f, 0.244562f, -0.030005f, -0.044352f, -0.124266f, -0.103450f, 0.099569f, 0.204772f, 0.032777f, 0.003184f, 0.188107f, -0.062160f, -0.112612f, 0.241118f, -0.149813f, 0.125145f, -0.151175f, 0.080724f, -0.192964f, 0.007304f, 0.279129f, -0.110026f, 0.067322f, 0.124254f, 0.050021f, 0.129538f, 0.064235f, -0.195560f, 0.049542f, -0.082558f, -0.012181f, 0.045527f, -0.182981f, 0.060184f, 0.214130f, 0.196910f, 0.122836f, -0.139174f, 0.164986f, -0.311926f, -0.158959f, 0.208165f, 0.035522f, -0.066293f, -0.166543f, -0.051392f, 0.040334f},
  {0.028910f, 0.206309f, 0.204161f, 0.004476f, -0.136720f, -0.107964f, 0.189806f, -0.015987f, -0.082786f, 0.035259f, -0.102617f, 0.072424f, 0.033175f, 0.052725f, 0.054120f, -0.313478f, 0.270701f, -0.145776f, 0.002654f, 0.219671f, 0.111447f, 0.140173f, 0.005454f, -0.113786f, -0.041411f, -0.003568f, -0.045274f, 0.153863f, 0.035129f, -0.164319f, 0.115021f, -0.145140f, 0.182805f, -0.029073f, -0.113631f, -0.028363f, 0.320432f, -0.047424f, 0.167118f, 0.146192f, -0.195945f, 0.059965f, 0.173441f, 0.012280f, 0.169405f, 0.144728f, 0.039899f, -0.286373f, 0.178669f, -0.129251f, -0.258171f, 0.190403f, -0.019737f, -0.110170f, -0.089347f, -0.263652f, 0.195286f, -0.030874f, 0.000250f, 0.216820f, -0.019356f, -0.098118f, 0.117211f, -0.028532f},
  {0.131315f, 0.124272f, -0.076735f, 0.096133f, 0.034860f, 0.039351f, 0.111546f, -0.041234f, -0.020451f, -0.069498f, 0.046927f, -0.278275f, -0.331258f, 0.023773f, -0.038764f, 0.158222f, 0.144887f, 0.070370f, -0.028294f, -0.087368f, -0.228519f, -0.024080f, 0.117363f, 0.015320f, 0.040134f, 0.346224f, 0.113889f, 0.244831f, 0.126507f, -0.085995f, -0.086375f, 0.305813f, 0.321726f, -0.132964f, -0.210859f, 0.172100f, -0.012823f, 0.167993f, 0.054366f, -0.070373f, 0.010999f, 0.159149f, 0.032939f, 0.131911f, -0.130971f, -0.255747f, -0.089924f, -0.017550f, -0.186790f, 0.195154f, 0.028325f, 0.138950f, -0.058947f, 0.011111f, 0.151669f, 0.110077f, 0.058047f, -0.001373f, -0.363861f, 0.024006f, 0.088506f, -0.143124f, -0.024541f, 0.451448f},
  {0.056630f, -0.079676f, -0.143237f, 0.027129f, 0.056027f, -0.074815f, -0.147034f, 0.029681f, 0.036416f, 0.121322f, -0.048445f, -0.076824f, -0.193226f, -0.045210f, 0.125637f, -0.335084f, -0.133832f, -0.038312f, -0.125736f, 0.051129f, -0.247701f, 0.200918f, -0.241796f, -0.062565f, 0.121172f, 0.460155f, -0.273272f, 0.014821f, 0.100785f, -0.094250f, 0.044026f, -0.005239f, -0.170304f, 0.026949f, -0.223778f, 0.173538f, -0.112906f, -0.079030f, -0.063670f, -0.070040f, -0.209674f, 0.253872f, -0.014942f, -0.134310f, 0.040186f, 0.221895f, -0.091204f, 0.002848f, -0.099064f, -0.149207f, 0.131314f, -0.111576f, 0.052809f, -0.134410f, 0.103149f, -0.114369f, -0.027427f, -0.175975f, -0.076081f, -0.222750f, 0.072800f, 0.150111f, -0.034012f, 0.008352f},
  {-0.236758f, -0.307727f, -0.210906f, -0.051682f, -0.196279f, 0.039766f, 0.130962f, -0.053073f, -0.023822f, 0.195875f, 0.142101f, -0.054039f, -0.051733f, 0.147958f, -0.238521f, -0.016895f, -0.126497f, 0.002676f, -0.157635f, -0.314223f, -0.094460f, -0.172113f, -0.211627f, 0.159388f, 0.335160f, 0.169635f, 0.184975f, 0.072295f, 0.161985f, -0.059415f, 0.258268f, 0.311598f, 0.128934f, -0.072674f, 0.137015f, -0.070080f, -0.071666f, -0.046115f, 0.168209f, 0.061258f, -0.013976f, -0.140282f, -0.087120f, -0.308415f, 0.009579f, -0.188660f, -0.025841f, -0.029376f, 0.255195f, -0.083575f, 0.129055f, -0.040163f, -0.307172f, 0.095270f, 0.155059f, 0.019848f, 0.066689f, -0.162871f, 0.058641f, -0.109489f, 0.240709f, 0.057804f, -0.019777f, -0.149855f},
  {-0.088580f, 0.315373f, 0.018088f, 0.123669f, 0.042353f, 0.014910f, 0.032864f, 0.187707f, -0.002429f, -0.112044f, -0.079364f, -0.185480f, 0.123321f, -0.123072f, 0.016610f, 0.240037f, 0.059889f, -0.129879f, -0.124293f, -0.114765f, 0.079426f, -0.128658f, 0.017301f, 0.252144f, 0.141860f, 0.081282f, -0.030972f, -0.077788f, 0.183779f, -0.061615f, -0.185706f, -0.022723f, -0.110083f, -0.300921f, -0.075843f, 0.180251f, 0.002008f, 0.107347f, -0.018592f, 0.002939f, -0.029070f, -0.114616f, -0.222832f, 0.123310f, -0.003321f, -0.055755f, 0.263075f, 0.029822f, -0.088995f, 0.178800f, -0.037255f, 0.117400f, 0.182778f, 0.151826f, 0.069404f, -0.068504f, 0.229439f, 0.098088f, 0.104307f, -0.098727f, 0.154491f, -0.145027f, 0.050706f, 0.110837f},
  {-0.089773f, 0.192060f, 0.031712f, 0.052099f, 0.033816f, 0.241364f, -0.026616f, -0.042265f, 0.026073f, 0.015167f, 0.015767f, 0.329708f, -0.075357f, 0.249462f, 0.001786f, -0.102766f, 0.014081f, -0.073164f, 0.248971f, 0.054601f, 0.136047f, 0.050053f, -0.020214f, 0.000751f, 0.010046f, 0.012316f, -0.092182f, -0.055623f, 0.203699f, -0.019553f, -0.024531f, -0.052716f, 0.199725f, 0.253051f, 0.029304f, 0.058604f, 0.023089f, -0.139476f, 0.030038f, 0.186878f, -0.168418f, -0.045974f, -0.013120f, -0.152584f, 0.163213f, -0.027058f, -0.043197f, -0.003059f, -0.150861f, -0.098586f, -0.086644f, 0.274497f, 0.071492f, -0.013477f, 0.029441f, -0.209286f, 0.036016f, -0.069743f, -0.173944f, -0.267268f, -0.020435f, 0.320952f, 0.148099f, -0.168603f},
  {-0.145473f, -0.242654f, 0.108694f, -0.091566f, -0.030799f, -0.113715f, 0.159169f, -0.078208f, -0.089533f, 0.077138f, 0.191752f, 0.045348f, 0.134842f, 0.134963f, 0.289065f, -0.051226f, 0.174392f, -0.110963f, -0.077385f, -0.073432f, 0.138625f, 0.102715f, 0.021924f, -0.057467f, 0.060179f, 0.108981f, -0.289892f, 0.122890f, -0.076293f, -0.055532f, 0.076861f, 0.340559f, -0.032979f, -0.086774f, -0.121568f, 0.069516f, -0.094198f, 0.044381f, -0.090178f, 0.086439f, 0.041820f, 0.007795f, 0.347803f, -0.091538f, -0.055158f, 0.040220f, 0.035999f, 0.105688f, -0.103298f, 0.046746f, -0.188472f, 0.093013f, -0.065503f, 0.176066f, -0.018635f, 0.001137f, -0.152346f, 0.104261f, -0.098537f, 0.179880f, 0.028997f, 0.019380f, -0.051799f, 0.146805f},
};

static const float layer_2_biases[32] = {
  -0.013184f, 0.011985f, -0.015177f, -0.015252f, 0.008325f, 0.010920f, 0.014383f, 0.000374f, 0.000887f, 0.029243f, 0.001096f, 0.011190f, 0.013776f, -0.006842f, 0.004131f, 0.001004f, 0.001471f, -0.003328f, 0.004383f, 0.015213f, -0.008846f, 0.009873f, 0.006880f, -0.007721f, -0.012612f, 0.009752f, -0.004070f, 0.013518f, -0.003753f, 0.016663f, -0.008887f, 0.008935f
};

// Layer 3: 32 → 32 (linear)
static const float layer_3_weights[32][32] = {
  {0.145002f, -0.039076f, -0.143653f, -0.043879f, -0.294113f, 0.125178f, 0.117796f, -0.154673f, -0.003421f, 0.106780f, 0.016763f, -0.100195f, -0.030460f, -0.368867f, -0.083079f, 0.080626f, 0.270262f, -0.424971f, 0.053470f, 0.163961f, -0.052550f, 0.080973f, 0.178272f, -0.090676f, 0.059730f, 0.014651f, -0.129407f, 0.050023f, 0.128052f, 0.182805f, 0.204975f, 0.196766f},
  {-0.232109f, -0.082111f, 0.350260f, 0.101765f, -0.036211f, -0.110030f, -0.072480f, 0.242852f, 0.076180f, 0.128236f, -0.050060f, -0.180800f, -0.087354f, 0.202323f, -0.027362f, 0.051457f, -0.101646f, 0.066314f, 0.338932f, 0.086740f, 0.234425f, -0.011326f, 0.149281f, -0.185166f, 0.078705f, 0.024869f, 0.053842f, -0.104497f, -0.011182f, -0.266907f, -0.192761f, -0.120642f},
  {0.352383f, -0.033773f, -0.150790f, -0.164592f, -0.231080f, -0.132809f, -0.127184f, -0.205210f, -0.115801f, 0.167526f, 0.156051f, 0.313950f, 0.045266f, 0.104027f, 0.196949f, -0.223568f, -0.508575f, -0.072753f, -0.121679f, 0.277161f, -0.094071f, 0.157776f, 0.033434f, 0.531036f, -0.268533f, -0.153114f, -0.040321f, 0.178490f, -0.017002f, -0.005656f, 0.070382f, 0.134313f},
  {-0.026262f, 0.068823f, 0.331400f, 0.018041f, 0.164546f, -0.286161f, 0.216375f, 0.045868f, 0.218241f, 0.035733f, -0.003509f, 0.009920f, 0.394182f, -0.048164f, 0.068063f, -0.101425f, 0.032475f, -0.354314f, 0.281817f, 0.008144f, 0.106678f, 0.147040f, -0.030904f, 0.015464f, -0.066446f, -0.042534f, 0.147012f, -0.121525f, -0.256535f, -0.009421f, -0.293923f, 0.059802f},
  {-0.124103f, -0.094755f, 0.098369f, 0.171481f, 0.126987f, -0.217265f, 0.093331f, 0.171938f, -0.137232f, -0.125728f, 0.046997f, 0.173833f, 0.006027f, 0.186720f, 0.237147f, 0.079289f, -0.016439f, -0.092045f, 0.173628f, -0.034021f, 0.383534f, -0.158480f, 0.137324f, 0.226638f, 0.077938f, -0.204649f, -0.047584f, 0.260545f, -0.034211f, 0.068599f, 0.072213f, 0.323538f},
  {-0.021065f, -0.316494f, -0.011740f, -0.154358f, 0.451107f, -0.011592f, -0.267986f, 0.045409f, 0.088745f, 0.096081f, 0.037789f, -0.051470f, 0.006900f, 0.061490f, -0.061288f, -0.372340f, 0.018808f, 0.143823f, 0.144250f, -0.019478f, -0.134543f, 0.056216f, 0.185357f, 0.046371f, 0.217145f, 0.163695f, 0.176580f, -0.244737f, 0.224507f, -0.039713f, 0.045907f, -0.000496f},
  {-0.273899f, -0.209420f, 0.034923f, 0.111388f, -0.199106f, -0.018367f, -0.282774f, 0.025212f, -0.007121f, -0.197938f, -0.156067f, -0.079126f, 0.240068f, 0.327019f, 0.033374f, -0.017706f, 0.039553f, 0.159389f, 0.018982f, 0.074794f, 0.053006f, 0.023190f, -0.057013f, -0.070099f, 0.173065f, -0.458894f, 0.148836f, 0.131858f, 0.275656f, 0.008749f, 0.067379f, 0.126686f},
  {-0.067166f, -0.093043f, 0.194346f, -0.037004f, -0.105202f, 0.018343f, -0.231778f, -0.466202f, 0.000774f, -0.152963f, 0.065525f, -0.054371f, 0.086861f, 0.005499f, -0.036206f, 0.377669f, 0.110029f, -0.100398f, -0.172313f, 0.056282f, 0.112246f, 0.307486f, 0.002082f, -0.069011f, 0.267907f, -0.052661f, 0.221237f, -0.078557f, 0.021482f, -0.052273f, -0.031077f, 0.169703f},
  {-0.193168f, -0.106738f, 0.153879f, -0.168114f, -0.212337f, 0.213818f, 0.104106f, 0.185778f, 0.104503f, -0.165392f, 0.110305f, 0.103341f, -0.072757f, 0.028026f, -0.176576f, -0.026047f, 0.070693f, 0.101889f, 0.004211f, 0.028104f, 0.004436f, -0.273956f, -0.136456f, 0.375003f, 0.203254f, 0.059747f, 0.011864f, -0.284579f, -0.202914f, -0.006255f, 0.083611f, 0.278194f},
  {0.166099f, -0.025144f, -0.081880f, 0.029886f, -0.048579f, -0.300328f, 0.167928f, -0.251504f, -0.042702f, -0.207809f, 0.075124f, 0.171596f, -0.155190f, -0.220100f, 0.155404f, 0.084030f, -0.107087f, 0.167223f, -0.058800f, 0.050335f, -0.011741f, -0.273105f, 0.189689f, 0.109000f, -0.042543f, -0.119237f, 0.001357f, -0.140299f, 0.043597f, 0.161613f, 0.247990f, 0.149753f},
  {0.026278f, -0.044625f, 0.105543f, 0.231349f, -0.326646f, 0.188792f, 0.273663f, -0.110379f, -0.171700f, -0.105757f, -0.107647f, -0.166706f, 0.007705f, -0.074228f, -0.096830f, -0.165405f, -0.073112f, -0.151038f, -0.452936f, 0.083355f, 0.323829f, -0.340321f, -0.133153f, -0.347006f, -0.018860f, -0.033884f, 0.140809f, 0.234322f, -0.295937f, -0.131540f, -0.255741f, 0.080653f},
  {-0.079274f, -0.160736f, -0.050765f, -0.072754f, -0.208837f, -0.230039f, 0.293291f, 0.259255f, -0.070373f, -0.130573f, 0.184084f, 0.033540f, 0.012771f, -0.034232f, -0.064827f, -0.001836f, -0.397137f, 0.162475f, -0.055795f, 0.152040f, -0.203238f, -0.027302f, -0.101163f, 0.006768f, -0.109496f, -0.148266f, 0.023503f, 0.188375f, -0.155668f, -0.304796f, 0.065088f, -0.479556f},
  {-0.096171f, 0.364689f, -0.018074f, 0.253829f, 0.296447f, 0.125774f, 0.072461f, -0.001085f, 0.306249f, 0.141543f, -0.377134f, -0.058290f, -0.069018f, 0.437512f, 0.215431f, -0.078738f, 0.196153f, -0.107816f, 0.212333f, 0.115550f, 0.167792f, -0.020625f, -0.254710f, 0.056014f, 0.030662f, -0.104760f, -0.052385f, 0.131308f, -0.373121f, -0.114714f, -0.075285f, 0.318861f},
  {0.206651f, -0.059357f, 0.400571f, 0.213567f, 0.013776f, -0.344051f, 0.280028f, 0.090216f, 0.031753f, -0.034555f, 0.085394f, 0.047192f, -0.013086f, -0.159527f, -0.040550f, 0.256797f, -0.277183f, 0.153518f, -0.087833f, 0.118606f, -0.074024f, -0.093630f, -0.055664f, 0.168511f, 0.298188f, -0.157431f, -0.351410f, -0.256563f, 0.192558f, 0.015239f, 0.036967f, -0.014839f},
  {-0.021263f, -0.193542f, 0.187294f, -0.133926f, 0.046521f, -0.019904f, 0.094784f, -0.000822f, 0.131428f, 0.160512f, 0.011110f, 0.034353f, 0.152361f, -0.428925f, -0.017460f, -0.070518f, 0.137832f, -0.200424f, -0.065916f, -0.041879f, 0.053638f, 0.345219f, 0.186976f, 0.245383f, 0.041041f, -0.337062f, -0.025406f, -0.366334f, -0.029504f, -0.176868f, -0.370750f, -0.161161f},
  {-0.363145f, 0.127955f, -0.100139f, 0.054527f, -0.000330f, 0.199168f, -0.339291f, -0.337259f, -0.142188f, -0.270017f, -0.158723f, 0.000062f, -0.330080f, -0.330503f, 0.177171f, 0.067868f, -0.110087f, 0.040768f, 0.220128f, -0.057415f, 0.335306f, 0.339451f, 0.089669f, -0.036038f, 0.027285f, -0.189908f, 0.125295f, -0.198348f, -0.173041f, -0.020168f, 0.219088f, -0.000244f},
  {0.067946f, -0.097984f, -0.208439f, -0.085818f, -0.228233f, 0.048356f, 0.002426f, -0.059124f, -0.269494f, 0.304673f, 0.202256f, -0.407009f, 0.035854f, 0.075911f, -0.293996f, -0.074956f, 0.172938f, -0.027567f, -0.345143f, 0.173396f, -0.157465f, -0.138310f, -0.107212f, 0.019326f, -0.055807f, -0.139735f, 0.157825f, 0.050476f, -0.273453f, 0.136577f, -0.012595f, 0.399478f},
  {-0.301812f, -0.270903f, 0.036615f, 0.110124f, -0.172813f, -0.248338f, -0.077270f, 0.051870f, 0.073636f, 0.147471f, -0.366852f, 0.471395f, -0.213540f, -0.120056f, -0.153574f, -0.042177f, 0.036474f, -0.070627f, -0.260285f, 0.035001f, 0.254088f, -0.093863f, -0.219520f, -0.044238f, 0.027679f, 0.009913f, -0.384947f, 0.105385f, -0.310212f, -0.271653f, 0.059129f, 0.202892f},
  {0.042590f, -0.124925f, -0.055824f, -0.135813f, 0.106554f, -0.120021f, 0.200846f, 0.162946f, -0.088862f, -0.136226f, 0.134662f, 0.145523f, 0.060467f, -0.110323f, 0.092353f, -0.209733f, -0.127415f, -0.249155f, 0.182180f, 0.036416f, -0.166323f, 0.183925f, 0.186579f, -0.007491f, 0.230566f, -0.362789f, 0.174983f, 0.045985f, -0.227401f, -0.087044f, 0.107564f, 0.264458f},
  {-0.157590f, 0.189834f, -0.038413f, -0.000420f, 0.139587f, -0.135692f, -0.120034f, -0.428064f, -0.120435f, -0.200735f, 0.056410f, 0.076386f, -0.214928f, -0.075706f, 0.080253f, -0.360906f, 0.200955f, -0.005128f, -0.027109f, -0.122931f, -0.167232f, 0.022664f, -0.173124f, -0.190790f, -0.262633f, -0.062662f, -0.134038f, 0.045142f, -0.271782f, -0.223829f, 0.125181f, 0.046962f},
  {0.050572f, -0.064865f, -0.196000f, 0.067051f, 0.336029f, 0.075447f, 0.093747f, 0.109967f, 0.039347f, -0.075713f, 0.022816f, 0.096912f, -0.175711f, -0.003924f, 0.268038f, 0.322360f, 0.049613f, 0.322272f, -0.070040f, 0.318988f, -0.184105f, 0.127721f, -0.271727f, 0.257437f, 0.265929f, 0.091143f, -0.053792f, -0.195011f, 0.079204f, -0.314726f, 0.281956f, 0.046819f},
  {0.109710f, -0.355623f, -0.039901f, -0.063739f, -0.001851f, -0.064162f, -0.040529f, -0.098941f, 0.309527f, 0.083981f, -0.244363f, -0.161659f, -0.277978f, -0.086174f, 0.167654f, 0.289156f, 0.129307f, 0.067507f, -0.022188f, -0.006961f, 0.006861f, -0.033457f, -0.135261f, -0.103983f, 0.136915f, 0.065306f, 0.081425f, -0.214351f, -0.091958f, -0.031162f, 0.032293f, -0.094227f},
  {-0.116498f, -0.144018f, 0.282609f, -0.148558f, -0.030345f, -0.236726f, 0.197549f, 0.124346f, 0.016438f, 0.059303f, -0.026183f, 0.067290f, 0.032203f, 0.009413f, -0.103226f, -0.008079f, -0.057229f, -0.119991f, -0.163994f, -0.109694f, 0.062311f, -0.212924f, -0.066314f, -0.292221f, -0.013312f, -0.230966f, -0.179860f, 0.053269f, 0.186520f, -0.070611f, 0.170550f, -0.295312f},
  {-0.167595f, -0.286355f, -0.006013f, 0.257722f, -0.003534f, -0.161075f, -0.047657f, 0.043363f, 0.127482f, 0.377961f, 0.314621f, 0.050406f, 0.249106f, -0.061591f, -0.068457f, -0.024308f, -0.006354f, 0.131157f, 0.118264f, -0.029011f, -0.108684f, -0.191919f, -0.065428f, -0.152976f, -0.194907f, 0.119603f, 0.015761f, -0.232173f, 0.045173f, 0.111126f, 0.025082f, 0.117120f},
  {0.213458f, -0.046289f, -0.250854f, -0.016987f, 0.482950f, -0.084877f, -0.098899f, 0.071137f, -0.122072f, -0.010504f, -0.164157f, 0.011866f, 0.214942f, -0.055591f, 0.034804f, -0.031434f, -0.189417f, 0.193276f, 0.034330f, 0.207759f, 0.042137f, -0.012287f, -0.208639f, 0.279139f, 0.144135f, -0.005075f, 0.059824f, 0.130201f, 0.019236f, 0.114519f, -0.047412f, -0.190904f},
  {0.199759f, 0.017152f, 0.203159f, -0.411200f, -0.139416f, 0.128147f, -0.003154f, 0.146855f, -0.061656f, 0.287269f, 0.082566f, 0.056954f, -0.069043f, -0.108070f, 0.345736f, 0.052477f, 0.193224f, 0.210261f, -0.098514f, 0.053006f, -0.205797f, -0.257165f, 0.064641f, 0.020866f, -0.033800f, -0.395753f, -0.018991f, -0.013834f, 0.041706f, -0.010625f, 0.019096f, 0.134325f},
  {-0.196724f, 0.043410f, 0.145791f, -0.002096f, -0.129739f, -0.377993f, 0.344809f, -0.177287f, 0.065099f, -0.060879f, -0.049802f, -0.169257f, -0.117642f, -0.084945f, 0.085596f, 0.382968f, 0.024772f, -0.132756f, 0.271566f, -0.040017f, -0.172091f, -0.116338f, -0.058430f, -0.096848f, 0.216927f, -0.028185f, -0.238842f, -0.172697f, 0.099873f, 0.204014f, -0.278153f, 0.236294f},
  {-0.117536f, 0.296164f, 0.193418f, -0.168599f, 0.224886f, 0.189430f, 0.060349f, 0.050894f, -0.143240f, 0.280662f, -0.037238f, 0.025689f, 0.036319f, -0.044770f, -0.162191f, 0.228550f, -0.011157f, 0.287289f, 0.090628f, 0.075545f, 0.123728f, -0.007239f, -0.006347f, 0.009076f, 0.132407f, -0.117287f, 0.390239f, -0.013411f, 0.007749f, 0.151071f, -0.033702f, 0.099707f},
  {-0.253760f, -0.144469f, -0.202743f, 0.074553f, 0.028856f, 0.233525f, -0.032016f, 0.011058f, 0.000384f, -0.015845f, 0.284174f, -0.018468f, -0.051848f, 0.309311f, 0.341822f, 0.058570f, 0.266582f, -0.074445f, -0.052806f, -0.089862f, 0.034015f, 0.134662f, 0.001528f, 0.173942f, -0.097665f, -0.191227f, 0.155965f, -0.222511f, 0.015632f, 0.120800f, -0.076786f, 0.101042f},
  {0.101491f, -0.066476f, -0.224602f, -0.322635f, -0.298283f, 0.032362f, -0.058737f, -0.099714f, 0.389740f, -0.026308f, -0.168479f, 0.014468f, 0.319852f, -0.002637f, 0.195916f, -0.213609f, 0.152596f, -0.031819f, -0.053907f, 0.118665f, -0.055492f, 0.008638f, 0.210203f, 0.130472f, 0.087936f, -0.081509f, 0.073786f, 0.065660f, -0.017026f, -0.369649f, -0.261643f, 0.144910f},
  {-0.088641f, -0.067477f, 0.058435f, -0.002034f, 0.128723f, -0.104995f, 0.102725f, 0.042457f, -0.308649f, -0.090253f, 0.258294f, -0.360394f, 0.122536f, 0.094102f, 0.140401f, -0.099371f, -0.059503f, 0.218743f, 0.121364f, 0.080350f, 0.049012f, -0.045170f, -0.275843f, 0.031677f, -0.001378f, -0.321465f, -0.008053f, -0.074999f, 0.285698f, -0.070694f, 0.152344f, 0.002750f},
  {0.025340f, -0.294738f, -0.350210f, -0.225269f, 0.050739f, -0.169199f, 0.158091f, -0.016866f, 0.200125f, -0.172495f, -0.242521f, -0.061959f, 0.197318f, -0.248839f, 0.006291f, 0.018717f, -0.371695f, -0.217348f, 0.118400f, 0.388454f, 0.052475f, 0.260819f, 0.010958f, -0.279750f, 0.065361f, -0.089469f, -0.184982f, 0.032035f, -0.041162f, 0.072856f, -0.311425f, 0.180345f},
};

static const float layer_3_biases[32] = {
  0.015482f, -0.017660f, -0.006095f, 0.006693f, 0.002528f, 0.002203f, 0.000435f, 0.001830f, 0.005500f, -0.006312f, -0.007780f, -0.004266f, -0.011645f, -0.003283f, 0.005774f, -0.005148f, -0.002713f, -0.004106f, 0.000065f, -0.007381f, 0.003889f, -0.005295f, 0.006799f, -0.009439f, 0.000928f, 0.003317f, -0.001091f, 0.009258f, 0.014839f, -0.002918f, -0.013809f, 0.015709f
};

// Network structure
typedef struct {
    int num_layers;
    int layer_sizes[4];  // Input + 3 layers
} cortex_neural_arch_t;

static const cortex_neural_arch_t cortex_neural_arch = {
    .num_layers = 3,
    .layer_sizes = {49, 64, 32, 32}
};

// Forward inference function
void cortex_neural_forward(const float input[49], float output[32]);

#endif // CORTEX_NEURAL_WEIGHTS_H
